</s> 0.160677 -0.726109 -1.390386 -3.778777 0.379125 0.745196 2.660868 0.353796 -0.282873 0.165828 0.669786 -0.846299 0.383149 -0.207678 2.025639 -2.721228 0.107594 -1.131189 0.284758 -0.091574 -0.447340 0.751635 0.777188 -0.618279 0.927989 0.466833 -0.506312 -0.432000 0.446189 -0.536592 -0.452777 -0.136066 -0.354486 0.977476 0.246525 -0.674731 0.636408 -0.400770 0.276950 -0.679286 -0.870569 0.290751 -0.055360 0.333793 -1.273934 0.285609 -0.715802 0.705813 -0.785438 0.922981
<s> 1.275652 0.306265 0.264207 -4.637183 -0.414199 -1.412258 -0.282763 -0.141542 -0.303041 -0.210900 1.795567 0.088794 -0.135170 -0.362067 2.328160 -2.279080 0.250385 0.701459 -0.964309 -0.282303 -0.597764 -0.823714 -0.417614 -1.583380 -0.742985 -1.546612 1.087050 -0.681427 -0.802799 -1.461210 -0.175019 2.144447 -0.881264 0.017495 0.413986 0.532086 0.837266 -0.237819 0.972069 1.255984 -0.336419 -1.486290 -0.740344 1.024644 -0.359288 -1.531508 -1.305020 0.273851 0.396953 -0.433069
. 0.497751 -0.682606 -1.701084 -3.612246 0.401019 0.829463 2.887900 0.326854 -0.435979 0.170822 0.353479 -0.970911 0.354021 -0.120132 2.215152 -2.764689 0.007767 -1.126937 0.298006 -0.134794 -0.340227 0.875276 0.819293 -0.539201 0.793413 0.608854 -0.843194 -0.452624 0.726634 -0.272086 -0.334739 -0.147233 -0.117919 0.717282 0.166158 -0.694177 0.293212 -0.305584 0.536506 -0.863771 -0.496846 0.292079 -0.129771 0.124345 -1.059960 0.394720 -0.472320 0.521972 -0.736131 1.050929
de 0.678634 0.152652 0.129352 -4.306996 -0.560470 0.601747 2.422494 0.767482 -0.611642 0.700142 0.391588 0.464724 0.612011 0.086873 2.192291 -3.654506 1.143153 -0.239536 1.219393 -0.164410 -0.709042 0.241336 0.744775 -0.807289 -0.668558 -0.300566 -0.782187 0.579738 -0.638002 -1.431690 -0.484990 1.093122 -0.229758 0.176290 -1.096334 0.248434 0.117456 -0.296302 0.251745 -1.738602 -0.371440 -0.702138 0.694581 -1.244861 0.358199 -0.967625 0.776810 0.901453 -0.092289 0.456260
, -1.661917 0.993000 -0.245266 -4.064431 -0.898739 -0.645198 1.656337 -0.466209 0.020710 -0.141402 0.035652 0.333835 -0.039505 0.009497 1.395811 -3.179834 -0.609984 0.845332 0.682072 -0.146856 -0.070404 0.100798 0.292002 -0.896975 0.172182 -0.659565 -0.001870 -0.181217 -0.253808 0.607358 -0.489305 -0.571866 -0.225341 1.554120 -0.419479 -0.476030 -0.564401 -0.684405 0.837091 -0.297441 0.284058 0.261213 -1.091133 1.750779 0.465278 0.334605 -0.013065 1.525654 0.316415 0.127123
van -0.748202 -0.267961 0.105923 -4.671496 -0.797445 0.524481 2.956200 -0.396883 0.193145 -0.348007 -0.323264 0.267591 0.151004 0.626972 1.309029 -2.116889 0.296207 -1.064979 0.055881 -0.106659 0.252606 -0.417132 -1.070380 -1.681850 -0.345140 -0.086507 1.147988 0.745901 0.518530 2.137447 0.436498 0.974436 0.957209 0.125581 -0.490455 -0.384029 -0.445615 1.037479 0.493912 -0.703111 -1.655433 -0.368970 1.057683 -1.025689 -0.059768 -0.236894 0.656455 -1.025700 0.776962 -0.249366
en -0.415796 -0.812814 -0.699423 -4.687666 -0.557040 -0.557911 1.500669 0.157154 -0.480874 0.634899 -0.197341 -0.287745 -0.103422 0.486684 2.460499 -1.500291 -1.026161 -0.323834 1.038993 -0.398861 0.139345 0.697656 0.579177 -2.014997 0.091904 0.062711 -1.115246 0.330880 0.269400 0.822943 0.299235 -0.439175 -0.414931 0.049678 -1.689614 -0.209324 -0.025282 -0.355003 -0.097327 -0.022263 -0.677123 -0.453571 -1.023241 1.271431 -0.800952 0.548817 0.356965 0.153676 -0.358598 -0.116231
een 0.388675 -1.135739 -0.314103 -4.491856 0.484159 -0.116093 1.873556 -0.564539 -0.146801 -0.438594 -0.464998 -0.725355 -2.385397 -0.407312 0.810160 -3.662031 0.082042 0.847298 -0.403004 -0.547689 1.319742 0.807847 -0.074025 -2.199272 -0.397461 0.327247 0.741020 -0.280579 -0.359277 -0.152011 -1.144116 -0.030618 -0.064746 -0.054127 0.502523 -0.715968 1.482303 0.202553 -1.047054 0.231433 -1.217370 1.347021 0.765937 -0.004090 0.545404 0.540352 0.392660 -0.341964 1.261670 0.947510
het -0.741900 -0.758565 0.004121 -5.100437 1.150244 0.423895 2.024924 0.603449 -0.022113 0.092350 -0.259585 -0.309243 -0.780132 1.234284 1.987669 -2.934068 0.019239 0.621213 -0.071372 -0.093578 0.293566 -0.894441 0.448343 -1.254048 -1.106529 -0.682044 0.424308 0.524931 -0.245715 0.741509 -0.624342 0.150562 -0.152849 0.344215 0.561190 -0.042681 0.818904 0.990791 0.889927 0.101811 0.176065 -0.025481 0.839883 -0.545115 -1.113343 0.350136 0.496242 -0.373203 -0.333139 -0.432520
in 0.445934 1.156892 -2.193921 -4.957612 0.377736 0.619638 1.444075 -0.801783 -0.800141 -0.832089 0.519439 0.929601 0.209421 -0.119041 1.608890 -2.638227 -0.966481 -0.152906 0.732761 0.945902 0.179670 -0.968168 0.981483 -1.044685 0.534640 -0.208715 0.324816 -0.561946 0.763095 -0.214016 0.014294 0.559441 0.323315 1.414234 -0.714972 0.603262 0.940459 0.218532 0.969344 0.331797 0.911767 0.563132 -0.654049 -0.772100 -0.204965 0.812665 -0.456137 -0.622419 0.293783 1.232275
is -0.732851 1.349835 -1.203754 -4.034742 0.155266 0.463894 2.057258 -0.653754 0.153696 -0.589452 0.981419 -1.258036 -0.116818 0.310491 1.976098 -2.811755 0.774428 0.773420 0.189219 0.890835 0.923257 -0.089807 0.189158 -1.602233 -1.260862 -0.233572 1.452514 -0.472676 0.098012 -0.894045 -0.552166 0.690882 0.071503 0.086760 0.594509 -0.214198 0.818270 0.547427 -0.400281 -0.202595 -0.519053 0.226775 0.988403 0.169801 -0.427445 0.585653 -0.851953 0.070906 0.190219 -0.469508
te -0.741734 -0.746362 0.205414 -4.805728 -0.670087 0.899151 2.746737 -0.312880 0.330650 1.061340 0.682582 -0.525211 0.358287 0.057961 1.494956 -2.661148 -0.037469 -1.144769 0.705702 -0.500493 -0.399782 0.380521 1.490679 -2.103067 1.389785 -0.235562 -1.132565 -0.646572 0.105058 0.853247 -0.363634 -0.925141 -0.292645 0.819708 0.053468 0.747360 0.384976 0.034858 0.440148 0.287831 0.233651 0.987993 0.602942 -0.772776 -0.749413 0.150272 0.386746 -1.027672 -0.834501 0.160362
op 0.110861 0.433003 -0.195007 -5.156796 0.076877 -0.062950 2.648744 -0.091797 0.890578 0.145088 -0.104801 0.161443 -0.560559 0.369865 2.397354 -1.582917 1.224868 0.049641 -0.692819 -1.736263 0.767056 0.581644 0.629473 -0.397899 1.334716 0.302009 -0.786053 -0.443558 -0.024360 -0.514302 -0.437599 0.634938 -0.391303 0.824285 0.552462 0.171137 0.684218 -0.822034 1.056951 0.279565 0.352809 -0.049884 0.744314 0.097295 -0.467115 0.224707 0.495997 -0.992660 0.566268 0.037489
met 1.097940 -1.216613 -0.496822 -4.205184 -0.275272 -0.596316 2.822300 -0.237841 -0.168675 0.358517 0.550661 0.254154 -1.613100 -0.297127 1.491936 -2.828248 -0.874786 0.246172 -0.628557 -0.019429 1.885224 1.011056 0.069442 -1.558635 0.286773 0.766142 0.210446 0.056701 0.735248 0.402266 -0.251742 0.199382 -1.238306 0.139219 -0.672267 0.636946 0.545740 -0.036521 -0.942574 -0.081934 -0.683983 -0.094820 -0.170644 0.859683 -0.085965 -0.567761 0.155360 -0.018855 0.175668 0.842895
voor 0.099831 -0.357400 0.410107 -5.142462 -0.984237 0.384815 1.289005 -0.489946 0.998611 -0.189916 0.069018 0.422557 -0.838165 0.477256 0.490909 -2.639335 0.073417 -1.233314 0.052768 -1.327289 -0.339626 -0.428257 0.299043 -1.975627 -1.136588 -0.551823 0.109275 -0.558708 0.102875 -0.683331 1.181628 0.748207 -0.093580 -0.215878 0.640411 -0.573521 1.575135 -0.348101 -0.877953 -0.259025 -1.087054 0.212017 0.465876 0.605142 -0.384572 0.897409 0.724735 -0.409971 -0.862896 0.315832
dat -1.210979 0.776804 -0.184865 -4.678721 -0.051664 -0.099545 1.713872 -0.565790 0.016875 0.019596 0.420936 -0.961422 -0.725622 -0.131636 1.057823 -3.166496 -0.225504 0.948697 -0.326565 0.371094 1.034771 0.232998 -0.046482 -1.466691 -0.513307 -0.307122 0.306536 -0.218382 -1.054518 -0.323469 -0.266124 0.059025 0.308502 0.421609 1.372156 0.507213 0.113600 0.398413 0.305401 -0.830220 -0.727675 -0.466039 0.577464 -0.772722 -0.476872 -0.311202 0.055889 0.187938 -1.232158 -0.228267
&apos; 0.266197 -0.193849 -0.024461 -5.660766 -0.255408 1.073848 0.970337 0.346132 -0.200785 -1.354968 0.325779 0.119594 1.015175 -0.171421 2.723799 0.178644 -0.213827 0.496021 0.088249 0.777156 -0.496513 0.880987 0.680174 -1.151082 -0.972313 -1.746498 0.370083 1.164435 -0.946557 -0.069974 0.820144 -0.328801 -0.858794 1.422453 1.442138 0.940923 -0.788717 0.110685 -0.524264 -0.495985 -1.115161 0.055873 0.074755 0.266443 0.483246 -0.438244 -0.353302 1.410962 0.638550 1.083605
zijn 0.306557 -0.002080 -1.114114 -4.844692 0.154448 -0.711237 2.236670 -0.393616 -0.322934 -0.308755 0.932561 -0.350533 0.406890 0.497514 1.143983 -1.869200 0.310630 -0.634659 -0.021685 -0.054845 0.905631 -0.528497 0.451144 -1.800526 0.243862 0.291747 -0.052778 -0.808184 -0.676286 0.484951 0.527925 0.726841 -0.054438 -0.129412 0.816811 -0.021348 -0.256386 -0.013460 0.261930 -0.523852 -0.714560 0.270360 -0.536903 -0.429788 -0.480997 0.473639 0.287674 0.704034 -0.285050 0.063703
die 1.240235 0.461926 0.093817 -4.993931 -0.705177 -0.425389 1.828982 -0.606671 -0.160720 0.147711 0.831181 -0.130191 -0.173554 -0.728146 0.285543 -2.443398 -0.043566 0.248896 0.091666 -0.372487 0.692124 0.481641 0.016734 -1.374559 0.464729 0.298233 -0.167877 -0.243952 -0.336136 0.154640 -0.286387 0.719417 0.941969 0.648072 0.611872 0.584335 -0.528181 -0.395822 0.464660 -0.687905 -0.598679 0.563649 -0.318709 -0.381031 0.567440 0.092996 -0.056449 0.506078 -0.595522 0.414585
De 2.237892 0.248778 -0.164387 -3.752496 -0.865236 0.203344 2.290916 -0.387846 -0.265715 0.590643 0.362855 0.938596 0.319548 0.587181 2.306935 -2.538883 1.363737 -0.257891 0.382238 0.030279 0.324039 -0.209166 0.092056 -1.547359 -0.702222 0.096915 -0.037658 0.426096 -0.442827 -0.356220 -0.466251 2.599505 0.113321 -1.641361 -0.241748 0.932957 0.038726 -0.461875 -0.802678 -1.671610 -0.047452 -0.269751 0.754574 -0.114046 0.415554 -0.213824 0.158791 0.345698 0.861710 0.122727
niet -0.694818 1.003243 -0.538621 -4.697935 -0.370486 0.104790 1.676246 -0.094776 -0.107486 0.398953 1.191723 -0.910337 -0.373006 -0.298312 0.643234 -3.083850 0.643471 0.168164 0.511685 0.172693 0.796922 0.055272 0.883468 -1.424036 0.182469 -0.723017 -0.210440 -0.254187 -1.009327 -0.220019 -0.019465 0.135444 -0.477637 0.323293 0.595756 0.351244 -0.225581 -0.423347 0.328324 -0.278768 -0.843060 0.049197 0.531654 -0.771336 -1.010506 -0.443580 -0.265804 0.054808 -1.398814 -0.313873
je -0.946660 -0.438492 0.013928 -5.205681 1.109635 -0.001038 1.811195 0.989727 -0.141305 0.997808 1.265464 -0.673258 -0.644905 -1.276599 1.418489 -1.724930 0.706975 0.856278 0.002420 -0.855472 -0.207137 0.289037 -0.469445 -1.782553 0.801959 0.472528 0.402915 -0.526534 0.600392 -2.103406 0.523685 -0.571856 -1.307971 1.379356 -1.657328 -0.525860 -0.311935 -0.770153 0.447624 0.687815 -0.950740 -0.265214 0.744228 -0.475292 0.059023 -0.246271 -0.640978 0.520595 -0.141927 0.001062
) -0.884753 0.564656 -0.337089 -4.555434 -0.527594 0.871425 2.032825 -0.288374 -0.745317 1.018786 -0.976842 -0.515605 -0.429477 0.041878 1.497290 -2.195437 0.094806 -0.282004 0.282656 -0.324728 0.935363 0.308892 1.108947 0.752860 -0.857145 -1.315034 -0.114069 -0.015169 0.190971 0.064437 0.896402 0.378702 -1.115061 -0.587292 -0.219567 0.443621 0.152677 -0.483509 1.455466 -0.904857 -0.875202 0.402637 -1.436546 0.421682 1.275080 0.584978 -0.486085 0.468328 0.248834 0.744712
aan 0.002955 -0.257455 0.005759 -4.707536 -0.643107 -0.253201 2.938031 -0.148666 -0.087848 1.282611 0.193811 -0.493579 -0.384024 -0.029970 1.476372 -2.688895 -0.902238 -0.259820 0.085949 -0.696178 -0.262014 -0.379995 -0.262422 -1.260065 0.124728 0.392390 -0.525274 0.285206 0.083046 -0.241058 0.668642 0.529717 0.036815 0.526630 0.388859 -0.279403 0.348215 0.088911 -0.434337 -0.475969 0.371286 -0.257048 0.629536 -0.136856 0.282941 0.305719 -0.015586 -0.199486 -0.857333 0.921843
( -0.979191 0.684278 -0.063080 -4.554200 -0.386671 0.878472 2.106830 -0.418607 -0.557522 1.003410 -1.182440 -0.300461 -0.350364 0.208183 1.433148 -1.994444 0.006801 -0.173635 0.200765 -0.206100 0.836113 0.206263 0.974010 0.686027 -0.904705 -1.358704 0.083858 0.245081 -0.117372 0.324218 1.105631 0.538037 -1.085142 -0.783583 -0.344150 0.614347 0.153375 -0.389997 1.195451 -0.698214 -0.808669 0.241876 -1.431245 0.495160 1.633985 0.513300 -0.277418 0.095996 0.550375 0.487095
- -0.217478 0.119879 -0.274303 -5.445475 -1.396782 -0.382505 0.356123 -0.186706 0.195246 0.565531 -0.748347 -0.093881 1.281709 0.249925 2.797177 -1.523388 -0.577832 -0.167889 0.677250 -0.664649 -0.050255 -0.274372 1.283297 0.971459 -0.367007 -0.365588 0.571834 -1.122577 0.481641 0.227899 -0.178025 0.236590 -0.071040 -1.017092 -0.493838 -0.537933 -0.842535 0.414696 -1.141860 1.220287 -0.214327 -0.086559 -0.838304 1.483391 -0.081648 0.082004 -1.220421 -0.250622 1.019515 0.673811
om -0.284918 -0.297328 0.533414 -4.701570 -1.043867 0.261923 2.280238 -0.259455 0.488690 0.542898 1.137018 -0.144622 -0.003852 0.347893 1.063337 -2.406131 -0.974021 -0.586521 -0.294361 -1.137039 -0.423020 0.548441 0.521346 -2.046156 0.460815 -0.195045 -0.701879 -0.892103 0.134750 -0.215181 -0.197328 -0.552198 0.117950 0.551126 0.370038 0.814897 0.541435 -0.086352 -0.091508 0.396825 0.244150 0.518225 0.954119 -0.658939 -0.216687 0.078186 0.284748 -0.729300 -0.601191 0.283067
&quot; 0.184739 0.004130 0.137929 -5.611073 0.171871 0.419430 0.715096 -0.277332 0.463598 -0.757412 0.431873 -0.337492 0.523609 0.086514 1.555214 -0.987031 0.594511 0.792067 0.425436 1.031627 -1.138275 0.752109 0.846458 -0.378129 -0.201837 -1.982974 1.136726 0.651819 -0.698605 0.599092 -0.019071 0.407540 -0.995394 0.509504 1.576515 0.604074 0.003392 -0.124271 -0.282685 -0.215335 -0.048564 -0.187738 0.317181 -0.103577 0.060905 -0.756618 -0.910376 1.218834 0.625254 0.838191
: 0.064967 0.230819 0.405587 -4.890766 -0.493453 -0.180431 0.964366 -0.125819 0.167446 0.272548 -0.338457 -0.668696 0.035631 -0.450307 1.987272 -1.186233 0.448450 -0.266968 0.052958 -0.521106 0.289256 0.004584 0.976448 -0.755301 -0.226289 -1.247250 1.282522 -0.984504 0.480652 -0.513867 -0.056393 1.303159 -1.172936 0.037465 0.344440 -0.195464 -0.223980 0.317198 0.831927 0.423647 -0.235331 -1.712259 0.104776 0.963079 0.131869 -0.224527 -0.950807 1.079546 0.002764 0.229837
ik -1.668878 0.141618 -0.719026 -4.532397 0.883555 -0.509235 2.148911 -0.255491 -0.088004 1.124631 0.493518 0.443877 -0.784834 -0.842049 0.773500 -1.635813 -0.627306 0.920177 -0.424895 -0.756417 1.093723 -0.248605 0.360295 -1.557762 0.220017 -1.317768 0.535957 -0.889747 -1.624924 -1.855277 -0.405147 0.130176 -0.119075 1.686980 -0.524461 -0.061970 0.038908 -0.787134 0.519449 0.212959 -0.551445 -0.575688 -0.105208 -0.693862 0.169819 -0.280661 -0.640626 1.016566 -0.855915 0.739115
of -0.698424 0.482283 -0.887338 -4.902650 -0.774759 0.797314 2.609096 -0.253450 -0.836034 0.321598 1.877394 0.112766 0.330231 0.453510 -0.051782 -2.474837 0.371491 1.621901 0.449588 -0.005972 0.750115 0.059898 0.278269 -0.586386 0.703699 0.018071 0.720845 0.509722 1.022722 1.219978 0.821193 -0.778686 -1.822694 0.866756 -0.670974 -0.303763 0.326676 0.382595 0.475000 0.338450 -0.118564 0.170042 0.752492 1.185431 1.027719 0.528137 -0.273211 -0.053634 0.183565 1.803498
er -0.282292 0.596302 0.105311 -4.311095 -0.768930 -0.031055 1.710671 0.153237 -0.618487 0.106386 0.781480 0.626760 -1.016672 -0.226930 1.165171 -3.091211 -0.369319 0.281894 -0.772754 -0.471017 1.140921 -0.176415 0.505254 -1.032724 -0.089382 -0.285820 0.261319 0.024296 -0.736118 -1.093156 -0.871870 0.399281 0.224358 0.893769 0.511860 0.357707 0.070181 -0.269402 0.412259 0.165599 0.249752 -0.032826 -0.058570 0.335044 -0.305139 -0.269851 0.067057 0.326803 -1.348920 0.467042
ook -0.363264 -0.118351 -0.152587 -4.819127 -0.203605 0.077651 1.882044 -0.502485 0.009021 0.232670 0.696849 0.214279 -0.810741 -0.108128 1.210372 -2.500021 0.042089 0.132675 0.105069 0.030906 0.696021 -0.068333 0.014276 -1.177623 -0.187299 0.087003 0.085034 -0.337812 -0.753568 -0.648877 -0.007142 0.318315 -0.185142 0.326916 -0.091685 0.118358 0.438581 -0.326825 0.356819 -0.143869 -0.298076 -0.132467 0.015457 0.441707 0.006745 -0.216307 0.333058 0.096824 -1.226907 -0.420430
maar -0.683995 0.081482 -0.490254 -4.430017 0.266304 -0.303446 1.791052 -0.017852 -0.395296 0.372763 0.516721 -0.339280 -0.492314 -0.523669 1.270508 -2.454543 -0.105482 -0.052560 0.110552 -0.247125 1.140053 0.639310 0.915675 -1.402514 0.270805 -0.742282 0.168092 -0.218350 -1.088976 -0.241022 -0.459682 0.012054 0.259703 0.972985 0.252226 -0.068298 0.220425 -0.260101 -0.101330 -0.197479 -0.705839 0.409553 -0.207485 -0.379150 -0.438470 -0.215021 0.428703 0.265747 -1.255051 -0.229139
als 0.701745 0.429728 0.072754 -5.239184 0.688915 -0.574457 1.269463 -0.542083 0.792314 -0.287025 0.160213 -0.854226 -0.168145 0.264863 0.724853 -2.114051 0.195410 1.173780 0.999243 -0.117344 0.650907 0.022883 0.326683 -1.528016 -0.503926 0.146767 0.533874 -0.784368 -0.972448 -0.344921 0.384074 0.180151 -0.192190 0.563468 0.207573 0.066517 -0.247506 0.095943 0.658252 -0.504792 -0.940152 0.872463 0.637956 0.140421 0.398612 0.834487 0.485000 0.041949 -0.586110 0.086071
dan -0.760349 0.437388 -0.357991 -4.381201 -0.123621 -0.040421 1.325288 0.222069 -0.109524 1.049856 0.818826 -0.184587 -0.070595 -0.791153 1.557480 -2.811786 0.121284 0.055067 -0.413722 -0.984960 1.070465 0.331475 0.325450 -1.346265 0.223129 -0.547824 0.417585 0.282356 -0.388984 -0.827928 -0.275970 0.083796 -0.632821 0.868395 0.189603 0.029981 -0.435137 0.134724 0.309501 0.018576 -0.567544 0.173395 0.387945 -0.311943 -0.009760 -0.300088 0.373593 -0.329018 -1.146844 -0.248190
Het -0.418424 -0.922413 0.247205 -4.275267 0.915173 0.461157 1.316173 0.449232 0.066418 -0.795512 -0.223227 -0.626503 -0.779639 0.866878 2.346982 -2.356615 0.227426 0.663725 -0.576905 0.188131 0.501713 -0.968239 0.103235 -1.581287 -1.378775 -0.168159 0.652493 0.558108 0.084984 0.328764 -0.584417 0.331071 -0.155457 -0.702828 0.947875 0.089093 0.617850 1.335315 0.080454 0.249740 -0.207587 -0.061575 0.160752 -0.324587 -1.021705 0.415927 0.407461 -0.129916 0.549337 -0.828990
we -0.141214 -0.043197 0.121852 -4.042637 -0.160854 0.388602 2.279268 -0.035084 -0.477773 -0.117699 1.617663 1.162216 0.191570 -0.361660 1.263151 -2.586430 -1.501531 -1.060050 -0.805227 0.291964 -0.074987 0.722141 0.808827 -0.645513 0.132534 -1.351294 0.111543 0.136015 -0.767598 -0.055408 -0.659634 0.508319 -0.564520 1.649626 0.200623 0.339351 1.408078 -0.231090 1.176312 1.480674 1.112814 -0.073842 0.416280 0.372630 0.107510 -0.943699 0.388410 0.032182 -0.123501 -0.063827
naar -0.293514 -0.405546 -1.377830 -5.070769 0.333604 0.037209 1.531610 0.208922 -0.110123 1.149425 0.152726 -0.069108 0.078857 -0.204108 1.773470 -1.915583 -0.871555 -1.049050 0.258881 -0.571243 0.293843 0.318666 -0.275667 0.346202 0.895778 -0.547218 -0.420456 0.139639 -0.496785 -0.250521 -0.520815 0.310034 0.348905 1.256166 -0.073691 0.430945 0.159142 0.331619 0.611360 1.049776 0.096337 0.768933 1.780856 -0.133127 0.937119 -0.009377 0.263151 -0.434517 1.321701 -0.012202
bij -0.477936 -0.574139 -0.012329 -4.590034 -0.400509 -0.349692 1.896479 -0.011309 -0.623473 0.306368 0.434163 0.591926 -0.572034 0.197737 0.826290 -2.880452 0.610603 0.445095 0.213877 -0.413476 0.169967 -0.321911 -0.374233 -0.794479 -0.143859 0.640335 0.151456 -0.206898 -0.705102 -0.189405 1.205567 0.378207 0.033827 -0.287234 -0.014397 -0.143085 0.661644 -0.344943 0.678790 0.346749 -0.777647 -0.726716 0.552026 0.485125 0.096590 -0.063009 0.127816 -1.070552 -0.236347 0.587383
nog -1.103596 0.094071 -0.379179 -3.977450 0.066373 -0.174661 1.642605 -0.028634 -0.427056 0.768583 0.493119 0.910736 -0.459291 -0.349563 1.670318 -2.891206 -0.431892 -0.133309 -0.331458 -0.573486 0.964810 -0.138107 0.391257 -1.242918 0.284436 -0.933429 0.220270 -0.038755 -1.208125 -0.678776 -0.626477 0.319195 0.199567 0.806197 0.174317 -0.107099 -0.099391 -0.231156 0.133864 0.113282 -0.521896 0.097983 -0.002575 -0.156001 -0.413816 -0.425470 0.772327 0.305005 -1.253097 0.083376
door 1.087014 -0.702947 -0.118596 -4.558376 -1.366700 0.418400 1.597713 0.170334 -0.670827 0.417012 1.257991 -0.293991 -0.248373 0.959580 2.237643 -2.353927 -0.235418 0.579055 0.034351 -0.056951 0.862150 0.295116 -0.948191 -0.280632 -0.230219 0.723687 -0.892483 -0.138153 -0.842745 1.371405 -1.040302 0.389210 0.200442 -0.633175 -0.127413 0.279529 -0.628034 -0.279497 0.751412 -0.684348 -0.419840 0.418070 0.618016 0.548483 -0.244862 0.160172 -0.050143 0.168962 0.006660 0.787931
worden 1.258258 0.364965 -0.319499 -4.365875 -1.783540 2.229372 1.732779 0.682088 -0.473283 -0.108231 1.747044 -0.167252 0.108660 1.141726 1.018762 -2.899402 0.155200 -0.039015 -0.378484 -0.242971 1.042667 -1.009362 0.151237 -0.642603 0.208107 1.092346 -1.031746 -0.516625 -0.080193 -0.171235 -1.259602 0.101094 -1.422668 -0.755074 0.542067 -0.102048 -0.990955 0.204794 0.614860 -0.425209 0.383127 0.684215 0.388447 0.612887 -0.227203 0.141843 0.150041 0.568594 -0.946570 0.856502
! -0.493013 -0.691682 -0.151790 -3.815995 0.785071 0.368731 2.056929 -0.096613 0.909075 -0.095562 1.229744 0.552372 0.106677 -0.603129 1.942732 -1.915759 0.194959 -1.377165 -0.032182 -0.078320 -0.913018 0.871674 0.397767 -0.217277 0.447675 -0.488685 1.197922 -0.288349 -0.481434 -1.653535 -0.489526 0.019834 -0.873979 1.252612 0.674387 -0.666312 1.137523 -1.150902 -0.447836 0.002323 -1.098558 0.211954 0.043509 0.591147 -1.633019 0.027950 -0.941866 1.408431 -0.424717 0.291991
? -0.582144 0.501186 -0.249546 -4.445862 -0.067243 0.921594 1.437547 0.343686 0.356482 -0.055260 0.852648 -0.360021 0.434937 -0.547182 0.860451 -2.171155 0.126435 -0.024407 0.449921 0.265393 -0.774743 0.201079 0.450164 -1.079284 0.703629 0.386380 0.167917 -0.098935 0.336478 -0.851811 -0.125344 -0.413437 -0.867538 1.072367 0.557116 -0.025514 0.618873 -0.165467 0.072111 -0.026418 -1.747838 -0.086295 0.879755 0.246072 -0.690879 -0.278583 -1.133440 0.446720 -0.413457 0.547965
kan -0.354069 0.169335 0.738044 -4.393403 -0.327294 0.771359 1.686580 0.336239 -0.221326 0.593785 1.039904 -0.577642 -0.948793 -0.502892 1.158111 -2.630104 0.749324 0.738327 0.074911 -0.409484 -0.104785 0.197357 -0.150671 -1.506058 0.293732 0.363446 -0.019413 -0.180422 0.572861 -0.331723 -0.001723 -0.244769 -1.011282 0.010937 -0.497301 -0.285045 -0.035592 -0.154031 0.602663 0.605541 -0.766306 0.169402 0.668020 0.255144 -0.193667 -0.367510 -0.199278 -0.777726 -0.388810 -0.421996
was -0.408578 0.897539 -1.290041 -3.382096 0.681165 -0.141146 2.158363 -0.842056 -0.228935 -0.396016 0.742954 0.333403 0.052432 0.897009 2.073985 -2.425426 -0.550398 0.176952 0.138744 0.375917 1.070780 0.063850 1.021468 -0.796582 -1.115481 -1.496409 1.265242 -0.730099 -2.288861 -0.193323 -0.680562 0.757089 0.968882 0.601129 0.843281 -0.134698 0.557210 -0.291672 0.271303 0.000187 0.035605 0.271301 0.119113 -0.162469 -0.513971 0.870962 0.248751 0.584878 0.015632 0.948062
... -1.093466 -0.062295 -0.051897 -4.064259 -0.116440 0.205050 2.001189 0.534838 0.014788 0.272798 0.912361 0.300399 0.205640 -0.350083 1.399388 -1.922910 -0.293136 -0.412499 0.122141 -0.048768 -0.058760 0.178200 0.912412 -0.574076 0.650249 -0.636070 0.536581 0.226074 -0.347895 -0.765162 -0.562781 -0.170444 -0.694138 1.575593 0.188078 -0.035932 0.717075 -0.843776 0.002290 0.152337 -1.175951 -0.539487 -0.094423 1.044499 -0.592417 0.242728 -0.998761 1.576233 -0.169955 0.426450
ze -0.025450 -0.014001 -0.273206 -4.600241 0.545670 -0.384437 1.606204 -0.048782 -0.359253 0.344013 1.131927 0.097320 -0.485523 -0.325597 1.019945 -2.567828 -0.909915 0.016836 0.114848 -0.084882 0.401019 0.522649 0.370016 -1.364855 0.297668 -0.321372 -0.539810 -0.203856 -0.884224 -0.389410 -0.051821 -0.396565 -0.654256 1.281359 0.172134 0.815642 0.026556 -0.434535 1.331398 0.250163 0.112850 0.199181 -1.054184 -0.896577 -0.430056 -0.308025 0.317041 0.007253 -1.170365 0.572191
uit 0.551944 -0.847758 -0.942903 -5.030292 0.347557 0.062365 1.409499 -0.265085 -0.125747 0.343931 0.606044 0.513690 0.355109 -0.175235 1.046631 -2.285793 -0.770246 -0.141360 0.298636 0.097110 0.850380 -0.129936 -0.070450 -0.787421 0.733455 -0.268134 0.269336 -0.224916 -0.069545 0.464738 -0.796684 0.537910 0.379634 -0.056003 -0.091897 0.639663 -0.907484 0.691143 0.346508 -0.246915 -0.263347 0.706911 -1.149512 -0.288838 -0.163130 0.559329 0.251518 -0.019855 0.149259 -0.240036
deze 0.944759 -0.139434 0.045432 -4.509077 -0.625077 0.607228 2.276248 -0.327277 -0.241242 -0.444240 0.884129 0.386606 -0.603584 -0.079838 0.743230 -2.279262 1.128540 0.051190 -0.238399 -0.495695 -0.203877 0.183052 -0.109066 -1.677736 -0.302484 0.011027 0.472605 -0.373690 0.114242 -0.380818 -1.037075 0.920944 0.316585 -0.114567 -0.047520 -0.157030 0.338015 -0.142023 0.438858 -0.482077 0.145334 0.098070 -0.146919 -0.647083 0.729273 -0.644224 0.085777 0.294677 0.103742 -0.318703
wordt 0.857687 1.038326 -0.602859 -4.102629 -0.966388 1.929418 1.111512 0.515879 -0.300137 0.243623 0.821252 -0.902634 -0.690768 0.974677 2.115089 -2.973125 0.292550 0.589687 0.144645 0.108173 1.004975 -0.422514 -0.263554 -0.671702 -0.925352 0.953322 -0.020663 -0.383171 -0.258060 -0.569653 -1.681424 0.198121 -0.877380 -0.911895 0.470329 -0.346677 -0.837484 0.278525 0.256510 -0.364627 0.227820 0.494445 0.832635 0.220251 -0.242187 0.335429 0.123611 0.019075 0.041015 0.924370
tot 0.314817 0.182659 -0.266043 -3.905943 -1.355471 -0.842881 1.901911 0.214742 -0.233412 0.353996 0.091317 -0.124912 0.242365 -0.169323 1.980254 -2.129037 -0.407879 -0.293305 0.117390 -1.432484 0.244140 0.292735 0.806311 -2.091804 -0.988519 -0.313266 0.024700 0.286560 0.882803 0.729361 -0.681907 0.067668 -0.603136 0.784144 0.407515 -0.347650 -0.454294 0.846147 1.025689 0.097952 -0.139779 0.551966 0.089789 -0.641496 0.254790 0.240012 0.459158 -0.318683 0.933010 -0.075238
u 0.000271 0.212495 -0.040386 -3.777245 -0.985258 -0.125846 2.208476 0.149160 0.471900 0.252221 1.449144 -0.604070 -1.063640 -0.806242 2.127371 -2.509325 0.439143 0.373633 -0.144277 -1.225523 -1.180538 -0.070949 -0.081760 -1.307182 0.458294 0.025918 -0.021528 -0.754081 1.419491 -1.957936 1.003597 0.241482 -1.043492 -0.078563 -0.022410 -0.677999 -0.841716 -0.718846 0.849175 1.229185 0.231454 -0.455625 0.896156 0.518493 -0.013512 -0.192132 -0.383776 -0.591184 0.475327 -0.122721
over -0.204938 -0.293719 -0.993598 -4.702541 -0.875123 0.550092 1.856290 0.072216 -0.648733 -0.493709 0.153214 -0.342940 0.116692 -0.158885 1.162820 -1.614136 -0.873215 0.287897 -0.788905 0.071737 0.574864 0.534322 0.125705 -1.736347 0.579438 -0.244291 -0.187195 0.510998 0.291172 0.212597 -0.339579 0.831592 0.596543 0.596285 -0.027177 0.310793 0.416563 0.643721 0.403090 -0.367701 -0.399252 -1.600685 1.041211 0.287281 -0.431950 -0.061277 -0.634998 0.251236 0.114579 0.607173
wat -1.447928 -0.131412 0.133299 -4.392746 0.134420 0.031923 1.516405 0.110846 -0.724786 0.831833 0.731738 -0.089556 -0.479302 -0.475876 1.288519 -2.277376 -0.813956 0.302449 -0.194824 -0.045020 0.874246 0.367591 0.127471 -1.508364 0.379570 -0.158725 0.718889 0.622009 -0.492368 -0.519892 -1.200537 0.179802 0.198356 1.012024 -0.316110 -0.241913 0.317724 -0.003671 -0.153969 0.111463 0.025292 -0.885923 -0.096561 0.162876 -0.197983 -0.217782 0.394516 0.500749 -1.654290 -0.181874
dit -0.669695 -0.322064 0.212055 -4.372349 0.155500 0.340930 1.682452 -0.248207 -0.027212 -0.959873 0.287896 -0.557328 -0.955340 -0.104131 1.531923 -2.725661 0.159380 0.442111 -0.545149 -0.111169 -0.035274 -0.019508 0.178730 -1.355053 -0.703611 -0.248123 0.671547 -0.098366 -0.516789 -0.460443 -0.711512 0.110438 -0.299678 -0.037934 0.650198 -0.651231 0.392430 0.573002 0.791869 0.097727 -0.294832 0.060695 -0.010662 -0.522595 -0.250347 -0.609473 0.332608 0.414452 -0.417434 -0.675573
meer -0.792048 0.013727 -0.272909 -4.643397 -0.978483 0.157674 0.886444 -0.038979 -0.403577 0.153004 0.470085 -0.212556 0.271572 -0.552575 1.321476 -2.233016 -0.131722 -0.503763 -0.553445 -0.585344 0.888891 0.324089 0.303577 -1.594740 -0.159365 0.149278 0.037863 0.444119 0.084496 -0.358930 -0.088385 0.353143 -0.013793 0.814921 0.016668 -0.064528 -0.061366 0.004269 -0.126250 -0.312142 -0.387578 0.166879 -0.128230 -0.023576 0.072668 0.074362 0.509432 -0.270874 -1.176350 -0.332771
al -0.768553 0.149605 -0.667416 -4.121521 -0.206493 -0.244923 1.844289 -0.065089 -0.225236 0.003005 0.945451 1.002251 -0.078940 -0.303888 1.569566 -2.183468 -0.752645 0.200135 -0.767229 -0.429289 0.953157 -0.190700 0.173431 -1.066492 -0.022297 -0.174145 0.049358 -0.417458 -1.117446 -0.967347 -0.317499 0.220693 0.456327 0.565716 0.629395 0.063781 -0.514082 -0.272933 0.336843 -0.254797 -0.315422 -0.003326 -0.267826 -0.442576 -0.463826 -0.321649 0.237600 0.666141 -1.011105 0.092711
heeft -0.085901 0.771269 -0.722461 -4.175145 -0.479186 -0.227967 1.823431 -0.317659 -0.324974 -0.089427 -0.147802 -0.168885 -0.576476 0.076852 1.795608 -2.743543 -0.517154 0.664167 -0.155509 0.619674 0.807392 -0.403787 -0.929140 -0.741189 -0.289868 0.898956 0.304186 -0.725370 -0.570056 -0.634777 0.068462 0.661743 0.567647 -0.570176 0.308651 -0.081360 -0.307626 0.197099 -0.856937 -1.255855 -0.914503 -0.138944 0.241322 -0.079767 -0.137029 -0.267266 -0.513418 0.281413 0.122760 0.911028
hebben -0.057557 0.048013 -0.196942 -4.299739 -1.206325 0.177737 1.856625 0.120090 -0.749990 -0.250174 0.720682 0.769026 0.194233 -0.221815 0.703391 -2.772584 -0.955133 -0.766876 -0.684502 0.718698 1.166678 -0.334755 0.085584 -0.608770 -0.018066 0.919848 -0.003648 -0.473672 -0.867962 -0.243762 -0.338395 0.651202 -0.635876 0.177262 0.703851 0.082042 0.205767 -0.260693 -0.188393 -0.521527 -0.376135 -0.322391 0.139052 0.295802 -0.070790 -0.442490 0.040532 0.738370 -0.830111 0.696964
hij 0.644048 0.640271 -1.428490 -4.507197 0.960384 -1.091527 1.335398 -0.274059 -0.322743 0.230676 -0.189620 -0.530559 -0.690383 -0.134777 1.748713 -2.033257 -0.709939 1.322999 0.522986 -0.549292 0.182736 0.015042 0.336409 -1.621360 0.107267 -0.466225 -0.212908 -0.907465 -1.319009 -0.478920 0.252012 -0.001238 0.575805 0.821435 0.151720 0.103335 -1.013163 -0.289170 1.308519 -0.429576 -0.162790 0.273884 -0.891492 -1.134984 -0.242967 0.080687 0.326566 0.057815 -0.700195 1.255298
In 0.686204 0.267677 -1.857306 -3.973085 0.067102 0.294893 0.875834 -0.603973 -0.939328 -0.986781 -0.739365 1.249228 -0.076409 0.014010 1.672623 -1.994669 -0.332022 -0.226858 0.184162 0.635632 0.141765 -0.609599 0.705199 -0.810759 -0.649459 -0.922445 0.591683 -0.427911 0.497941 -0.401092 -0.338315 1.052979 0.296117 0.108509 -0.273124 0.429427 0.338095 0.793161 1.501428 0.652138 0.760178 0.013001 -0.993136 -0.696137 0.577540 -0.178997 -0.349576 0.239188 1.462047 0.478834
wel -0.979825 0.508440 -0.069488 -4.144616 0.099189 0.149124 1.770758 -0.232977 -0.275350 0.224757 0.739349 -0.259213 -0.463060 -0.582844 0.926486 -2.535601 0.042345 0.241508 -0.188270 0.052398 0.920867 0.376278 0.708720 -1.185202 0.089110 -0.688549 0.590804 0.028390 -1.294709 -0.964071 -0.272183 0.182022 -0.006665 0.464608 0.419567 0.021738 0.233968 -0.375515 -0.086557 -0.067388 -0.544237 0.011906 -0.028247 -0.318871 -0.262870 -0.485787 0.246607 0.441143 -1.373895 -0.297575
kunnen 0.143173 -0.476456 0.995239 -4.519296 -0.788145 0.788020 1.547311 0.381675 -0.467375 0.264834 1.314045 0.293695 0.037183 -0.623485 0.324231 -2.495118 0.266733 -0.844955 -0.258368 -0.320869 -0.305089 0.252554 0.554062 -1.436217 0.574146 0.445715 -0.798012 0.114155 0.478475 0.772109 0.289031 -0.093116 -1.203398 0.261305 0.165054 0.195117 0.259799 -0.326620 1.232420 0.915895 -0.505178 0.168165 0.191440 0.177562 -0.143673 -0.585677 0.316546 -0.478087 -0.977532 -0.681506
Ik -1.124375 0.470100 -0.450950 -3.982377 0.571400 -0.975934 1.339419 -0.574810 0.148194 0.812693 0.413058 -0.102978 -0.741646 -0.862140 0.893123 -1.367599 -0.920590 0.891765 -0.505885 -0.645907 1.033935 -0.000883 -0.048605 -1.315957 -0.082755 -1.161236 0.397393 -0.976934 -1.400820 -1.663395 -0.050288 0.649707 -0.149523 1.075242 -0.716677 0.074691 -0.434534 -0.994489 0.493650 0.165641 -0.174555 -0.681132 -0.441650 -0.650957 0.160355 -0.254628 -0.951170 1.175042 -0.556479 0.817294
s -0.446247 -0.194403 -0.631830 -4.446844 -0.458755 1.397415 2.028060 0.056930 -0.605714 -1.159063 1.153862 1.507756 0.918580 0.151781 2.201219 -0.252222 -0.316169 -0.086166 -0.381697 0.642485 0.294845 1.020261 0.116155 -0.688607 -0.329349 -0.766352 0.086352 0.733230 -0.099605 -0.004731 1.404010 -0.214787 -0.701564 0.750807 0.393279 0.997677 -0.364945 0.093805 -0.099683 -0.252017 -0.963397 -0.220785 -0.301436 1.051347 0.865414 -0.267316 0.515938 0.662644 0.498435 0.829072
/ -0.878255 0.260288 -0.290401 -4.238709 -0.960707 0.223905 1.322247 -0.484649 0.440691 1.237875 -0.601195 -0.000659 1.277375 0.299087 2.131867 -1.456762 0.164687 -0.158999 0.075333 -1.583117 0.775924 0.247445 0.895043 0.243243 0.203796 -0.556061 0.061330 -0.936577 1.433069 0.103942 0.458557 0.254672 -1.649296 -0.122422 -0.157122 -0.608909 -0.280971 -0.076269 0.661916 0.160994 -0.726160 -0.457579 -0.098211 1.517196 0.945029 0.964983 -0.908324 0.442917 1.625462 0.689290
geen -0.671180 0.478691 -0.177635 -4.591422 -1.179917 -0.164757 1.286092 0.422427 -0.214981 -0.399870 0.101785 -0.575278 -0.862011 -0.121464 -0.389838 -2.834998 0.702362 0.345888 -0.039980 -0.580196 0.908344 -0.227276 0.815727 -1.573246 0.372081 -0.596376 1.009630 -0.246279 -0.739194 0.083490 -0.149878 0.017062 -0.075464 0.555306 0.397449 -0.278262 0.169745 -0.669357 -0.749651 -0.756424 -1.053712 -0.083089 0.162290 0.005881 0.193598 -0.082781 0.003070 -0.416710 -0.634486 0.564741
onze 0.470329 -0.638040 0.039953 -4.291887 0.414338 -0.399148 2.030541 0.048550 0.642143 -0.143571 1.153727 1.472933 0.622468 -0.021063 1.179151 -2.415104 -0.329169 -1.720348 -0.102257 0.214979 -0.349871 0.087798 -0.287993 -0.380195 0.158709 0.924997 -0.319666 -0.285963 -0.267955 0.309588 -0.313088 1.424560 -0.386695 0.150994 -0.086938 -0.703375 0.950645 -1.766549 0.058654 0.045177 0.076527 -0.410180 1.056305 -0.068417 0.365286 -0.195544 0.641978 0.427655 0.766003 -0.722625
hun 0.021362 -0.772457 -0.138636 -4.988916 0.294178 -0.171592 1.839061 0.102818 -0.010605 -0.375539 0.841935 0.707634 0.866434 0.249832 0.590072 -1.774564 -0.615188 -1.666059 0.108000 0.332371 0.356991 0.421182 -0.088440 -1.210345 0.529353 1.196768 -0.566475 0.107487 -0.405018 1.771777 0.555457 0.261486 -0.777131 0.413670 0.209990 -0.261836 0.645266 -0.525103 0.281805 -0.432339 -0.541965 -0.109103 0.329928 -1.246815 -0.035248 -0.198238 1.579551 0.176483 0.211868 0.199624
mijn -1.669794 -0.164672 -0.947405 -4.580793 1.909006 -0.417374 2.515013 0.774257 -0.296422 0.727557 0.662950 0.707443 -0.141576 0.042705 0.897489 -0.997407 -0.306529 -0.138265 -0.461068 -0.364296 1.237058 -0.397616 -0.344908 -1.507135 0.496027 0.263255 0.281231 -0.775508 -1.209369 -0.308954 0.292491 0.106375 -0.854125 0.846439 -0.588956 -0.550207 0.390610 -1.421740 -0.119084 -0.184166 -1.400213 -0.909857 0.163707 -1.757649 0.054547 0.194492 -0.113910 1.094631 1.035400 0.878007
ons -0.588862 -0.933043 0.092097 -4.095796 0.696921 -0.721549 1.720066 0.023330 0.529012 -0.324070 1.223896 -0.534048 -0.523145 -0.058645 1.873060 -2.628549 -1.057832 -0.652404 -0.276952 0.163465 -0.323621 0.287603 -0.356277 -0.400737 -0.139563 0.144283 0.083115 0.243283 -0.317892 0.252322 -0.117575 0.132568 -0.160948 0.673179 0.963453 -0.444609 0.239989 -0.773940 0.741696 0.722111 0.674167 -0.321848 0.695504 -0.336313 -0.690868 0.116181 0.391904 0.439998 0.259731 -0.667588
Een 0.671483 -0.760085 -0.214054 -3.624174 0.365581 0.092631 1.349277 -0.101240 -0.055662 -0.896745 0.057515 -1.019778 -1.493577 0.127703 1.170186 -2.499332 0.472461 0.990961 -0.433526 -0.959635 0.997060 0.661808 -0.063202 -2.114031 -0.373536 0.561190 1.267637 -0.159466 -0.457233 -0.558106 -1.286676 0.100030 0.207239 -0.737596 0.439828 -0.654857 1.021175 0.223727 -1.238128 0.272796 -1.353354 0.451616 0.869453 0.418384 0.682955 0.806848 0.335138 0.170073 1.609944 0.364773
zich 0.950599 0.148711 0.356596 -4.148819 0.234552 -1.499992 1.287968 -0.606263 -0.577096 0.033381 0.526504 -0.594240 0.114034 -0.282268 1.682450 -2.665819 -0.369512 0.809710 0.554672 0.134946 -0.246123 0.593328 0.119258 -1.151274 -0.528572 0.553439 -1.011680 0.159119 -0.196344 0.406631 0.810364 0.367691 0.854923 0.239520 0.125355 0.994557 -0.035129 -0.154621 1.329964 -0.027185 0.177561 0.587512 -0.207217 -0.644427 -0.405122 -0.062506 -0.037276 -0.110550 -0.811056 -0.307461
jaar -0.061700 0.333714 -0.908170 -3.457709 -0.246909 -0.212484 1.547791 -0.697438 0.351862 0.088940 -0.892838 1.459733 0.478970 -0.504540 2.217203 -2.689260 -0.784536 -0.428166 -1.034572 -1.166384 0.433107 -0.675257 0.115161 -1.539922 -1.307786 0.457542 0.503533 -0.175400 -0.481370 -0.271052 0.120593 0.780068 -0.481277 0.185461 0.865325 -0.696893 -0.527298 0.478425 1.209097 -0.402831 -1.014777 0.589386 -0.382671 -0.631787 -0.508531 0.102293 0.209390 -0.157986 -0.330042 0.659876
werd 1.156398 0.365023 -1.199247 -3.537751 -0.342316 1.069353 1.349592 -0.277218 -0.121199 -0.140350 -0.029308 0.573921 -0.666395 1.416957 2.559462 -2.725507 -0.570827 0.046170 0.138626 0.314588 1.290554 -0.597290 -0.138157 0.014456 -0.932367 -0.288584 -0.446137 -1.071087 -1.657847 0.111837 -1.531803 0.716926 0.254005 -0.804557 0.850969 0.026301 -0.462897 0.265298 0.627886 -0.576789 0.579049 0.701206 -0.150921 -0.107197 -0.343455 0.257798 0.643820 0.495941 0.373252 1.695075
o -1.256107 0.384045 -0.088621 -3.941284 -0.808946 1.365467 1.745440 0.161104 -0.150760 -1.313812 0.308049 0.112331 0.422111 -0.693052 1.719896 -1.307563 -0.316741 -0.402519 -1.130763 -0.959892 0.771721 1.278671 0.398833 -0.362564 0.359854 -1.323073 0.872320 1.663673 0.416810 -0.395534 0.546124 -0.076960 -0.165249 0.779117 0.399155 -0.292784 -0.457328 -0.379959 -0.584081 -0.225873 -1.426720 -0.359470 -1.041867 1.173062 1.284234 0.907165 0.367022 0.963642 0.273637 -0.119054
zo -0.795370 0.181209 -0.121547 -4.064562 0.321086 0.084739 1.618507 -0.397191 -0.374423 -0.026050 1.179670 -0.743152 -0.256751 -0.342459 1.703601 -2.137454 -0.186469 0.085368 0.047848 -0.002396 0.859733 0.695571 0.688084 -1.623844 0.011450 -0.238710 -0.226454 -0.039323 -0.859745 -0.677545 -0.428795 -0.206308 0.260422 0.358665 0.319469 0.303532 0.088473 -0.369990 0.295529 0.323215 -0.252929 0.370387 -0.312946 -0.518126 -0.998827 0.146810 0.146368 0.584645 -0.818982 -0.446126
moet -0.399530 1.230498 0.513239 -3.978945 -0.091021 0.770405 1.137189 0.370954 0.257311 0.412354 0.593722 -0.735212 -0.296225 -0.098383 0.906999 -3.112005 -0.169256 0.505706 -0.179970 -0.282772 -0.223982 -0.152415 0.138846 -1.670181 0.193081 -0.255799 -0.421956 0.091306 -0.047520 -0.171174 -0.227572 -0.104407 -0.866611 -0.111931 -0.126576 -0.037732 -0.233815 -0.254924 0.118860 0.436733 -0.508648 0.360933 0.839398 -0.602336 -0.238451 -0.519760 -0.214939 -0.319420 -0.507274 -0.185737
zal -0.389340 0.750147 0.305219 -3.710025 -0.280482 0.398513 1.545781 -0.097576 0.160249 0.350201 0.370510 0.067372 -0.398960 -0.061366 1.733922 -2.740087 0.173618 0.368723 -0.069898 -0.347131 -0.684342 -0.010209 -0.438565 -1.095110 -0.231784 0.033181 -0.070667 0.176634 -0.060022 -0.038053 -0.348984 0.202613 -0.430548 -0.138379 0.314857 -0.377495 -0.162096 -0.212174 0.743845 -0.232208 -0.405447 0.318617 0.875982 -0.493792 -0.446264 -0.570574 0.171593 -0.240492 -0.384976 -0.486866
veel -1.113021 -0.221551 -0.082227 -4.566446 -0.894365 0.152330 0.817379 0.072704 -0.593984 0.682251 0.910980 0.450761 0.041212 -0.722589 1.521390 -1.727829 -0.588426 -0.562452 -0.536041 0.186156 1.313105 0.050446 0.318686 -1.516549 -0.086229 0.594016 0.674434 0.463008 -0.879794 -0.545565 -0.931400 0.427921 0.347683 0.927255 0.012257 -0.048888 0.230148 -0.448579 -0.638006 -0.080041 -0.227896 -0.298205 -0.644985 0.666982 -0.073983 0.257972 0.454424 0.122473 -1.970486 -0.437909
nu -0.733319 0.609826 -0.419160 -4.061731 0.182077 -0.294545 1.202388 -0.053194 -0.025422 0.356091 0.580675 0.238234 -0.185126 -0.592385 1.519022 -2.621467 -0.163646 0.363196 -0.377476 -0.321278 0.507197 -0.328036 0.188627 -0.935526 0.029155 -0.554506 -0.066518 -0.037104 -0.566686 -0.963450 -0.305923 0.254518 -0.099799 0.597705 0.250404 0.352893 -0.115331 -0.140927 0.297892 0.060590 -0.633352 0.154889 0.170229 -0.593027 -0.329118 -0.614617 -0.148622 0.668256 -0.642666 -0.424205
andere 0.294063 -0.170210 0.141840 -4.720275 -0.572445 -0.035645 2.214178 -0.162245 -0.417590 -0.280202 0.598310 0.499773 0.622424 -0.217129 -0.337767 -2.378604 0.381409 0.107014 -0.024287 -0.314763 0.532412 0.122744 0.274194 -0.566064 0.539631 1.071429 0.013942 0.196806 0.256862 0.074139 0.273796 0.205519 0.596400 0.162282 -0.227129 0.345620 -0.465238 -0.047808 0.042958 -0.210580 -0.086178 -0.171225 -0.082676 0.675472 1.141806 0.070987 0.337832 0.115765 -0.827218 -0.626458
haar -0.336273 -0.231736 -0.858291 -4.628235 1.321203 -0.953222 2.138264 -0.502403 -0.216843 0.010787 -0.023133 0.081876 -0.381647 0.477899 1.441658 -1.271982 -0.830561 -0.348013 0.329164 0.142499 0.311259 0.515662 -1.116329 -1.573784 0.227802 1.232067 -0.268805 0.028451 -0.707649 0.589985 0.901275 0.041188 -0.065790 0.087326 -0.539571 0.069632 0.123888 -0.562279 0.039976 -0.839379 -0.585644 -0.291450 -0.516025 -1.928649 -0.477678 -0.079084 0.560408 0.594233 0.973546 0.973325
goed -0.355804 0.442344 0.156923 -3.579773 0.412633 0.390206 1.838021 -0.083503 -0.359151 -0.143794 1.188662 -0.453214 -0.228867 -0.103715 1.513008 -2.514071 -0.555511 -0.209642 0.058250 0.234239 1.105686 0.844989 0.703007 -1.601005 -0.263075 -0.693337 -0.362894 -0.553822 -0.907451 -1.170675 -0.067286 0.325388 -0.559050 -0.675575 -0.547156 -0.143241 0.515991 -0.644126 -0.266546 0.572286 -0.558505 -0.070765 -0.539676 0.168837 -1.241355 0.334362 -0.181432 0.510288 -0.680560 -0.935827
dus -0.772855 0.757008 -0.056503 -4.067628 0.079897 0.194704 1.222046 0.142543 -0.184676 0.243536 0.946676 -0.191949 -0.325973 -0.441565 1.010389 -2.583909 0.181914 -0.184972 -0.390135 -0.301903 0.531862 0.115632 0.681945 -1.216914 -0.326907 -0.910066 0.585499 -0.303293 -0.644444 -0.760666 -0.473105 0.198846 -0.538075 0.407687 0.320536 -0.100285 0.350213 -0.589126 0.038317 0.398245 -0.508441 0.301302 -0.041034 -0.510966 -0.297366 -0.301890 -0.092071 0.012243 -0.784838 -0.398032
2 0.350600 0.134039 0.180238 -2.875370 -0.101521 0.022026 2.179183 0.502170 -0.886235 0.138350 -0.617175 1.054396 0.903805 0.010510 1.798805 -3.187617 0.202367 -0.593978 -1.286644 -1.335144 0.870098 0.220534 0.891250 -0.307160 -0.657399 -1.495718 0.702754 -0.679193 0.912447 -0.163537 0.662042 0.521341 -1.063550 0.164471 -0.767109 -0.424078 -0.038369 0.157491 -0.063226 0.545275 -0.703373 0.125118 -1.240490 0.983091 0.225243 -0.427220 -0.557276 0.099702 0.695235 0.919788
gaan -0.619667 0.094229 0.412833 -4.028636 0.457198 0.106670 2.068564 0.104315 0.027455 0.855727 0.500850 1.209967 0.250761 -0.618374 0.823173 -1.954224 -0.654525 -0.439632 -0.178489 -0.397155 -0.374408 0.355641 0.731591 -1.171639 0.604063 -0.325143 -0.407977 0.930247 -0.328382 0.260967 -0.002560 -0.364513 -0.645645 1.090527 0.049447 0.608767 0.590730 -0.466364 0.982407 1.338931 -0.366022 0.191030 0.345820 -0.160449 -0.221101 -0.533413 -0.059470 -0.704019 -0.685578 -0.709034
En -0.746807 0.654806 0.380605 -3.672160 0.130951 -0.878259 1.007286 0.163742 0.158406 0.020447 0.454214 0.093201 -0.321496 -0.624537 1.532550 -1.901211 -0.616335 0.115776 -0.092264 -0.076680 -0.002791 0.635646 0.314820 -1.228834 -0.114886 -0.878335 0.663796 0.277889 -1.122078 -0.935393 -0.114734 0.179660 -0.119355 1.007255 0.395694 0.392150 -0.406948 -0.903244 0.434536 0.065788 -0.653622 -0.587483 -0.669643 -0.222412 -0.130395 -0.643443 -0.021066 1.161543 -0.658857 -0.156526
heb -1.068652 0.358232 -0.657177 -3.849652 -0.000326 0.380379 2.166008 0.165036 -0.250656 0.497368 0.582820 0.747880 -0.621044 -0.660672 0.659621 -1.687753 -0.714410 0.463052 -0.919464 -0.086595 1.519308 -0.622068 -0.020465 -0.947590 0.061882 -0.252910 0.599088 -1.100823 -1.210335 -1.805512 -0.454933 0.215116 -0.553032 0.807244 -0.459437 -0.342177 -0.360111 -0.658429 -0.146443 -0.160395 -0.649718 -0.526950 -0.136237 -0.022953 0.139446 -0.324647 -0.708173 1.194519 -0.532894 0.996046
waar -0.031126 0.106825 -0.389086 -4.069763 0.187543 0.040422 1.949627 -0.051830 0.079131 -0.502809 0.068868 0.180098 -0.532660 -0.553845 1.185865 -2.513759 -0.417674 -0.163609 0.218075 0.580597 0.385167 -0.372840 0.422464 -0.253938 0.295617 0.417574 -0.078879 0.474878 -0.273426 -0.686668 -0.136376 0.140148 0.997845 1.203880 0.071801 0.544326 0.042658 0.022234 0.153861 0.746504 0.455082 0.549430 0.446387 0.341148 0.388873 0.273198 0.046468 0.176988 -0.075516 -0.011160
eerste 0.953229 -0.406239 -0.568493 -3.727863 0.822012 0.280747 1.770523 0.060733 -0.493749 -0.320559 -0.835061 1.403725 -0.270079 0.818048 1.088240 -2.561300 0.363048 -0.309476 -0.310424 -1.089745 0.322056 0.256079 0.145970 -1.085733 -0.485810 -0.654026 0.764932 -0.589176 -1.011743 -0.175462 -0.533328 0.667296 0.488186 -0.142991 0.160048 -0.486171 0.769167 0.223482 0.977746 0.046267 -0.589243 0.231858 0.122142 -0.291381 0.309726 -0.296655 1.072167 -0.260159 0.554461 0.606272
uw -0.806836 -0.049988 0.113127 -4.239365 0.169888 0.116801 1.529140 0.976598 0.610877 -0.122225 2.348176 -0.453665 -0.607744 -0.227889 1.362442 -2.012017 0.845253 -0.089275 -0.028947 -0.217736 -0.955165 -0.517724 -1.377611 -1.542682 0.958962 1.143894 -0.316844 -0.696384 0.989294 -0.305339 0.955815 -0.049780 -1.727630 -0.242413 -0.584497 -1.560094 -0.074949 -1.172734 -0.279522 0.725901 -0.972002 -0.510636 1.263872 -0.372458 0.111116 0.095483 0.361859 -0.148079 1.314101 -0.445396
1 -0.008598 0.493965 0.155015 -2.835634 0.414042 0.262833 1.503324 0.407641 -0.362784 0.419204 -1.217498 0.349354 0.526039 0.143129 1.738764 -3.751763 0.551958 -0.038525 -0.913768 -1.616427 0.556594 0.362602 0.689056 -0.283563 -0.610971 -1.563195 1.291522 -0.803248 0.811552 -0.390450 0.075183 0.237182 -1.294151 -0.150395 -0.592165 -0.665302 -0.242754 0.184618 0.363263 0.401791 -0.729497 0.139537 -1.159123 0.482987 0.201796 -0.089486 -0.649536 -0.054912 1.086153 1.218227
alle 0.434734 -0.524885 0.247615 -4.246034 -1.330408 -0.014644 1.781929 0.499517 -0.246259 -0.921854 1.234600 0.740623 0.437201 0.046263 0.363552 -2.388885 0.006800 -0.614867 -0.520900 -0.684619 -0.123517 -0.470444 0.316502 -0.824648 0.032119 0.347836 -0.335557 -0.096093 0.808960 -0.070458 0.363441 0.692691 -0.148840 0.064521 -0.051870 -0.238472 -0.736883 -0.406153 0.193113 -0.284413 0.279496 -0.749328 -0.204565 0.081170 -0.163612 -0.165163 0.224161 0.373097 -0.840018 -0.919409
maken 0.050246 -0.708162 0.262709 -4.385306 -0.124485 1.310134 1.484316 -0.397072 0.312160 0.438882 1.104205 0.213506 -0.693653 -0.320195 0.742566 -1.788163 -0.240891 -0.530002 0.070916 -0.431210 0.180536 0.505395 0.358066 -1.784576 0.482847 -0.256677 -0.093325 0.084268 0.501196 0.282803 -0.970019 -0.350323 -0.362595 0.304099 0.315725 0.047631 0.326659 -0.007046 -0.225731 0.927625 -0.695759 0.609173 -0.035905 0.354944 0.145634 -0.227264 0.482933 0.214724 -0.658609 -0.778619
We 0.448085 -0.349274 0.457170 -3.329538 -0.345610 0.153149 1.681883 -0.249366 -0.023433 -0.562690 1.762327 0.983753 0.267160 -0.225571 1.073570 -1.872439 -1.363553 -1.334304 -1.147602 0.511684 -0.145634 0.953621 0.424027 -0.766970 0.088442 -1.339843 -0.236081 0.055266 -0.434915 0.190374 -0.114168 0.595863 -0.747404 1.162226 0.193585 0.646012 1.009066 -0.131508 1.083363 1.715294 1.212412 -0.138303 -0.172044 0.429952 0.073483 -0.853131 0.299081 0.195481 -0.193729 -0.036635
na -0.153776 0.014107 -0.646848 -3.394848 -0.482806 -0.195784 1.782148 0.510111 -1.450356 0.224505 0.077638 1.014628 -0.390466 0.301341 1.399977 -2.332201 0.173812 -0.157061 -0.398740 -1.422022 0.098459 0.229629 0.376910 -1.638300 -0.704298 -0.840382 0.491602 -0.297468 -1.394055 0.448617 -0.448421 -0.042137 0.054210 -0.154664 0.036077 -0.605800 -0.085737 -0.381141 0.972585 0.715126 -0.836629 -0.011565 0.161999 -0.644302 -0.603711 -0.561674 0.293402 -0.699474 0.247888 0.668291
nieuwe -0.027908 0.134217 0.190712 -3.917925 -0.316854 0.591638 1.566533 -0.293815 0.659178 -0.208889 0.253783 1.934078 0.136757 0.323188 1.467919 -2.400904 0.362977 -0.157738 -0.247688 -0.511087 -0.073441 -0.434857 -0.397422 -1.540707 0.108454 0.191594 -0.829713 -0.950475 1.163406 0.051196 -0.585776 0.317420 0.588989 -0.089528 0.058759 0.173976 0.563450 0.525925 -0.624862 -0.266113 -0.810739 0.105781 0.449909 -0.038908 0.872015 -0.703778 0.806248 0.942889 0.681746 -0.689911
heel -0.707119 -0.476743 -0.264503 -4.189215 0.200404 0.068795 1.605625 -0.880477 -0.664273 -0.377197 0.760796 -0.130231 -0.594136 -0.472737 1.551981 -1.675333 -0.723656 -0.303622 -0.260698 0.109545 1.028475 0.555354 0.384972 -1.460837 -0.195142 0.434230 0.270822 0.115285 -0.785226 -1.075559 -0.580021 0.472588 0.616288 0.008042 -0.023899 -0.064410 0.512914 -0.344782 -0.098728 0.595173 0.164132 0.075415 -0.893235 0.202368 -0.486357 0.441641 0.119044 0.736140 -0.862125 -0.499327
zou -0.862641 0.681047 -0.117710 -3.823837 -0.140846 0.264383 1.500752 -0.258563 0.011501 0.172235 0.129592 -0.319417 -0.365919 -0.333344 1.011584 -2.644857 0.008888 0.117719 0.087888 0.084412 0.127657 0.174960 0.454754 -1.173528 -0.004836 -0.516791 0.254461 0.167513 -0.732241 0.281589 -0.316228 -0.089011 0.262494 0.431580 0.764589 0.266460 0.029571 -0.015437 0.519222 -0.266131 -0.884645 0.307010 0.250430 -0.910070 -0.213125 -0.470495 0.180712 -0.176908 -0.601546 -0.218782
hier -0.519881 -0.008545 -0.119257 -4.004462 0.055763 0.076457 1.194498 0.013860 -0.012726 -0.336300 0.656811 0.016129 -0.750460 -0.463892 1.164930 -2.332762 0.039776 0.025202 -0.491768 -0.026468 0.266878 -0.396607 0.256878 -0.708866 0.294260 -0.488424 0.418053 0.069682 -0.824646 -1.281953 -0.449666 0.647124 0.117357 0.855467 0.147455 0.132641 -0.106046 -0.503545 0.869414 0.417861 0.249744 -0.474282 0.029917 0.163329 -0.081790 -0.263319 -0.161015 0.817483 -0.721612 -0.451923
toch -1.078635 0.542158 -0.001164 -3.708178 0.269192 -0.237207 1.524471 -0.166969 -0.540367 0.356131 0.723245 -0.155216 -0.359879 -0.735435 1.204359 -2.476998 -0.172801 -0.174780 -0.188395 -0.252186 0.680202 0.558703 0.864571 -1.282465 0.152715 -0.762767 0.501903 -0.175964 -1.404249 -0.835430 -0.520981 0.212205 0.265910 0.605057 0.471020 -0.239473 0.283054 -0.583247 -0.218832 0.248196 -0.506797 0.207063 -0.067728 -0.591380 -0.570933 -0.535093 0.289589 0.500490 -1.224556 -0.366366
Maar -0.778884 0.921526 0.258186 -3.723178 0.057288 -0.818567 0.826058 -0.286660 -0.238380 0.048472 0.436454 -0.063207 -0.219324 -0.624833 0.878025 -2.009860 -0.340171 0.260212 -0.294811 0.227906 0.266138 0.331743 0.256740 -1.344991 -0.375025 -0.742901 0.776279 -0.106617 -1.310441 -0.445430 -0.259394 0.645352 0.543346 0.609193 0.637139 0.268130 0.035733 -0.472571 0.272817 0.161966 -0.499590 -0.506495 -0.266125 -0.415103 0.002568 -0.795982 -0.090570 0.403764 -0.884871 -0.732088
the -0.569046 1.120925 -1.594482 -1.873296 0.337206 0.878060 2.162246 -1.512103 -0.644938 -0.601666 1.288628 1.585860 2.148202 0.765382 1.564336 -0.717392 0.370250 2.091727 0.085759 1.002520 -0.176718 1.738391 0.461792 1.233250 -0.393084 -2.823702 1.464588 -0.245831 1.313151 0.539654 0.456484 0.310896 -0.443925 1.510035 -0.167903 -0.244168 1.698974 0.698503 0.204087 -0.840199 0.952447 0.104592 0.938984 1.089089 0.946884 0.349572 -0.717931 1.148487 0.542272 2.064142
Op 0.221521 0.615539 -0.024431 -3.501009 0.357893 -0.138416 1.915986 -0.036419 0.564985 -0.838422 -0.830259 0.734623 -0.661543 0.728535 1.924899 -0.989492 0.701787 -0.087110 -1.156293 -1.595703 0.324502 -0.258377 0.342806 -0.535485 0.499118 -0.066021 -0.282788 0.074397 -0.203558 -0.991179 -0.005361 1.053982 -0.105773 0.424274 0.132632 0.137049 0.551943 -0.404543 1.460448 0.753666 0.753043 -0.236191 0.116606 0.339913 -0.199924 0.248364 0.292292 -0.394268 1.493966 -0.032721
weer -0.713957 0.175345 -0.188752 -3.687135 0.688182 -0.145694 1.607519 0.445483 -0.566578 0.618882 1.068806 1.020879 -0.525486 -0.149728 2.112186 -1.879869 -0.345162 -0.090392 -0.101923 -0.412617 0.708129 0.380658 0.309106 -0.734709 0.211950 -0.314114 0.171869 0.081488 -0.923003 -0.606396 -1.202634 -0.025787 0.223249 0.660659 -0.028057 -0.044380 -0.027962 -0.804799 0.355268 0.471098 -0.073902 0.450643 0.085675 -0.513942 -1.284318 -0.054034 0.330664 0.486672 -0.421808 -0.378147
Dit -0.366065 -0.437599 0.134606 -3.451704 0.118663 0.594650 1.365582 0.014072 -0.032725 -1.001785 0.189279 -1.189615 -1.150596 0.334555 1.701748 -2.190520 0.462995 0.313153 -0.825580 -0.015545 0.822334 0.050889 -0.051976 -1.062880 -1.019375 0.116473 0.853743 -0.473470 -0.022548 -0.194261 -1.032755 0.028479 -0.274307 -0.652205 0.935679 -0.775393 0.081140 0.765144 0.182112 0.351161 -0.025258 0.146232 -0.463179 0.121580 0.153792 -0.048740 0.324459 0.334073 0.397430 -0.661397
had -0.278806 0.941734 -1.103909 -3.428808 0.056377 -0.031148 2.030655 -0.242559 -0.656877 -0.194823 0.503088 0.627346 -0.067319 0.377443 1.211136 -2.361547 -1.241614 0.275453 -0.356952 0.589602 1.154710 0.247862 -0.170964 -0.302014 0.017649 -0.686739 0.494037 -0.895445 -1.984262 -0.394872 -0.048196 0.383011 0.735928 0.653147 0.178711 -0.015489 -0.051724 -0.726000 -0.238170 -0.568141 -0.257364 -0.244211 -0.241472 -0.290908 -0.089114 -0.181069 -0.061564 0.787932 -0.243085 2.171079
mensen -0.214257 -0.553538 0.328250 -4.632301 -1.082488 -0.284811 0.811494 -0.498656 -0.348093 -0.232355 0.883435 -0.464335 0.714888 -1.311675 0.313005 -2.158397 -0.298011 -0.896095 -0.600283 -0.080777 0.894935 0.919376 0.661153 -1.312880 -0.478683 1.191596 -0.210391 0.512433 -0.175115 -0.157374 0.519802 0.292265 0.256568 1.101643 0.927228 0.849957 -0.332896 -0.564834 0.509912 0.589389 -0.076210 0.151235 0.102383 -0.323412 0.073822 0.242791 -0.455841 0.569493 -0.889152 0.170508
doen -0.911493 0.019745 0.334028 -4.083340 -0.122072 0.238759 2.043734 0.035938 0.060687 0.485854 0.530867 0.430845 -0.314529 -0.923232 0.185289 -1.734625 -0.712955 -0.119681 -0.438669 -0.471311 -0.547222 0.472129 0.508182 -1.441518 0.205680 -0.325597 -0.003467 0.917727 -0.588188 0.302568 0.133540 -0.331418 -0.698913 0.726337 0.382833 -0.048318 0.478374 -1.130670 0.709663 0.653951 -0.715336 -0.116290 -0.036995 -0.467561 -0.175383 -0.607393 -0.515581 -0.541548 -1.315190 -0.822298
gaat -0.394089 0.819941 0.027291 -3.928554 0.553180 0.019716 1.339139 -0.058019 -0.076314 0.667702 0.088565 0.302454 -0.398851 -0.539908 1.405317 -1.823829 -0.113892 0.297151 -0.082060 -0.336330 -0.129544 0.333960 -0.018039 -1.278252 -0.107967 -0.062182 0.244783 0.637090 0.023414 -0.012136 -0.075505 0.241307 -0.105127 0.217733 0.128854 0.299802 0.257420 -0.302426 0.691412 0.607416 -0.743871 -0.024838 0.203244 -0.304718 -0.352999 -0.460408 -0.375811 -0.426008 -0.074033 -0.618960
onder 0.412326 -0.030544 -0.192058 -3.887258 -0.058651 -0.242258 1.428959 0.491570 -0.390825 -0.238364 0.437394 0.151757 -0.147967 0.597416 1.436361 -2.564291 0.061769 0.368531 -0.114624 0.033158 0.529526 -0.082279 0.116830 -0.868783 0.090707 0.184626 -0.601618 0.710568 -0.137552 0.467867 -0.160770 0.597153 -0.298412 0.003358 0.278969 0.646250 0.063219 -0.425529 0.369984 -0.375879 -0.061643 -0.442479 -0.519314 -0.010244 -0.167120 0.319047 0.088668 -0.021250 0.252602 0.438213
eens -1.002462 -0.478541 -0.147707 -3.705803 0.671240 0.306076 1.835009 -0.084762 -0.070641 0.753815 0.730493 0.493049 -0.570762 -0.648075 1.115035 -2.206899 -0.654750 0.303940 -0.543741 -0.464516 0.435013 0.441701 0.244651 -0.917306 0.758040 -0.735332 0.257201 0.336761 -1.091306 -0.968876 -0.412931 -0.225399 -0.193776 0.857598 -0.080736 0.194554 -0.004485 -0.553661 0.448943 0.483252 -0.314744 -0.349187 0.624775 -0.183503 -0.449836 -0.586698 0.093899 0.581649 -1.175641 -0.090631
moeten -0.063991 0.499694 0.766190 -3.940755 -0.743321 0.821571 1.196909 0.552202 -0.055780 0.211075 0.984593 0.182779 0.572324 -0.207759 0.092799 -2.888976 -0.442030 -0.764237 -0.506714 -0.341329 -0.332058 -0.177929 0.935245 -1.403554 0.651754 -0.355873 -1.238927 0.432616 -0.203978 0.567964 0.043260 -0.006321 -1.150947 0.026605 0.301954 0.457571 -0.019387 -0.298798 0.686635 0.624823 -0.115550 0.244458 0.205919 -0.728286 -0.093943 -0.837099 0.319299 -0.074870 -1.249417 -0.446905
tegen -0.086786 0.815432 0.337958 -4.230363 -0.740147 -1.182496 1.804683 0.073558 -0.576676 -0.007448 -0.286208 -0.220179 0.109774 0.490646 0.757998 -2.190797 0.652266 -0.309485 -0.029949 -0.853161 0.090161 1.277513 1.017373 -0.160629 1.190677 0.101970 -0.187196 -0.331355 -0.847581 0.499235 -0.029596 -0.180615 0.650350 -0.386751 1.259157 0.658703 0.288706 -0.494476 -0.227912 -0.002681 -0.614831 0.742933 -0.755807 -0.180111 -1.878365 -0.450539 -0.234004 -1.446534 -0.123849 0.500221
3 0.307092 0.267240 0.064538 -2.656034 -0.206960 0.221946 2.194066 0.337608 -0.586810 -0.130631 -0.688819 1.127909 0.989974 -0.258203 1.907417 -2.901242 0.360098 -0.545070 -1.148844 -1.227513 0.620127 0.295781 0.859297 -0.542253 -0.515131 -1.383333 0.712989 -0.951390 0.883523 -0.274937 0.527402 0.437427 -1.052641 0.033037 -0.375675 -0.373419 -0.331278 0.420120 0.092890 0.494960 -0.754964 0.109885 -1.085464 0.873426 0.123454 -0.493123 -0.261104 0.123190 0.677148 0.661798
zoals -0.258107 0.202487 0.067833 -4.323364 -0.764223 0.181185 2.051981 0.052194 -0.203891 -0.251600 0.099069 0.463173 -0.176572 0.181412 0.326635 -1.481633 0.188113 0.617947 0.362341 0.496969 0.512833 -0.348461 0.164772 -0.955522 0.324001 0.555839 0.186707 0.050844 0.156468 0.213670 0.076610 -0.089120 -0.124443 0.272353 -0.086755 0.638656 -0.176524 0.072611 0.234192 -0.227778 -0.667140 -0.565936 -0.754248 1.216484 0.870406 -0.052066 -0.178516 -0.135447 -0.693355 -0.723845
daar -0.710460 0.581397 0.019072 -3.929063 0.217730 -0.315664 1.438247 0.002514 -0.128495 0.283185 0.641222 0.162053 -0.636656 -0.607015 0.990023 -2.463327 -0.643272 0.081425 -0.333780 -0.076979 0.501394 -0.097525 0.481480 -0.702955 0.278038 -0.419816 0.200791 0.274918 -1.126225 -0.977152 -0.228123 0.205107 0.326388 1.010916 0.346849 0.528903 -0.005533 -0.815774 0.275641 0.528720 0.099775 0.082420 -0.108228 -0.217563 -0.141009 -0.296129 -0.143725 0.451593 -0.889710 -0.007365
Als 0.205091 0.837627 0.378412 -3.703979 0.729261 -0.884095 0.466977 -0.275005 0.391227 0.068357 0.617108 -0.421936 0.105621 -0.135680 0.423118 -2.425650 -0.070105 1.617868 -0.007914 -0.653223 0.300576 -0.079421 -0.470296 -1.319707 -0.418625 0.255593 0.784418 -0.651021 -0.681880 -1.061187 0.366168 0.562628 -0.279258 0.047125 -0.058030 -0.335384 -0.285610 -0.217431 0.597665 0.152413 -0.700329 0.323284 1.010638 0.204591 0.651478 0.363664 0.095384 0.135814 0.155882 -0.042129
Deze 1.840603 0.103820 -0.088513 -3.355119 -0.715980 0.725187 2.006633 -0.194266 -0.261621 -0.642713 0.827033 0.137086 -0.587465 0.134975 0.831211 -1.659109 1.187694 0.114096 -0.189121 -0.470370 0.421486 0.244292 -0.071624 -1.498090 -0.650090 0.581454 0.221262 -0.357663 0.524815 -0.632525 -1.202826 0.904417 -0.072601 -0.871412 0.082400 0.212942 0.314520 -0.078616 -0.296373 -0.403904 0.240681 0.293457 -0.692035 0.055666 1.442317 -0.320760 0.075321 0.190650 0.997138 -0.231761
; -0.288224 0.719980 0.270567 -3.638548 -0.732252 -0.093076 1.643531 0.206952 -0.468375 -0.103041 -0.028291 -0.948435 0.516678 0.193565 1.673327 -2.159479 -0.350717 -0.251723 0.233555 0.043207 0.016066 0.458166 0.603300 -0.466350 -0.287112 -0.843189 0.267289 -0.084105 0.599102 0.841757 0.055865 0.248449 -0.813712 0.269159 0.173059 -0.261644 -0.407994 -0.266172 0.862384 -0.225242 -0.218566 -0.501873 -1.120980 0.165926 0.442921 0.341720 -0.569585 1.235324 0.620071 0.492659
wil -0.661410 0.026379 0.723747 -4.335550 0.274055 -0.007520 0.961954 -0.722763 1.038024 0.298339 -0.250828 -0.093090 -0.450859 -0.931856 0.921773 -2.271041 -0.533364 0.172331 -0.110349 -0.039084 -0.982601 0.624234 -0.300619 -1.400547 0.354747 -0.061787 -0.188004 0.381959 0.285594 0.042976 0.491823 -0.034259 -0.240558 0.380500 -0.404600 0.421374 0.352544 -0.148244 0.438122 0.333831 -0.801462 0.185299 0.709663 -0.628855 -0.282470 -0.973112 -0.401788 -0.187203 -0.395220 -0.714489
komen -0.221988 0.067433 0.415186 -3.870741 -0.234736 -0.104902 1.579685 0.347060 -0.520335 0.400809 0.400739 0.955059 0.045259 -0.469166 0.698035 -2.321080 -0.210664 -0.737033 0.044049 -0.691711 -0.169133 0.381298 0.525687 -0.991014 0.615337 0.146441 -0.306353 0.783764 0.146579 0.020790 -0.143049 0.129134 -0.041647 0.650846 0.098950 0.366647 0.234166 -0.207111 0.962343 0.972161 0.047497 -0.088966 0.128642 0.043827 -0.225993 -0.359522 0.347235 0.068020 -0.281912 -0.544824
tussen 0.795154 0.942890 0.084960 -3.532610 -1.280296 -0.709611 1.226510 0.225721 -1.051803 -0.348560 -0.633608 -0.199411 0.210268 -0.478948 1.552541 -1.983406 -0.725200 0.233227 -0.337735 -0.373420 1.307383 0.650049 1.179405 -0.923432 -0.277672 0.392272 -0.136598 0.428651 0.951993 0.472936 -0.540599 0.425625 0.239841 0.489192 -0.729315 0.688404 -0.060760 0.716653 0.331706 0.684590 -0.209239 0.338383 0.561943 0.133186 -0.130767 -0.085899 -0.272028 -0.216593 0.749090 -0.079788
Dat -0.832821 0.331781 -0.036510 -3.388776 0.132710 -0.278196 0.904613 -0.401539 -0.109198 -0.397927 0.007717 -0.579584 -0.757110 -0.301231 1.283232 -2.105743 -0.168201 0.559822 -0.754702 0.360341 0.470462 0.413215 -0.046749 -1.272660 -0.727355 -0.231646 0.646715 0.258737 -0.941075 -0.087522 -0.511779 0.430619 0.589505 -0.178573 1.041343 0.225182 0.078318 -0.000214 0.028143 -0.180545 -0.520664 -0.604414 -0.142499 -0.532572 -0.348585 -0.509166 0.156167 0.159387 -0.953054 -0.695751
mee 0.088705 -0.122745 0.009004 -3.716509 0.817360 0.359329 1.752464 -0.325564 0.522770 0.441880 0.617723 0.810188 -0.583549 -0.543754 1.066805 -2.284968 -1.269358 -0.069378 -0.572242 -0.175443 -0.042144 0.815250 -0.058747 -0.904370 0.247796 0.315947 -0.170130 -0.068776 -0.334794 -0.410584 -0.298211 -0.291980 -0.356820 0.443447 -0.232351 0.052607 -0.105230 -1.125432 0.003599 0.624547 -0.362080 0.681711 -0.176777 -0.247728 -0.486025 -0.417582 -0.269876 0.085473 -1.233429 0.397282
tijd -0.418204 0.545292 -0.707776 -3.603794 -0.061268 0.213290 1.116329 0.530481 -0.391303 0.202691 0.694686 0.787615 0.263522 -0.430923 1.702659 -1.869160 -0.668357 -0.651773 -0.335155 -0.562386 0.260764 -0.131475 0.417504 -2.015655 -0.625277 -0.361851 0.432792 -0.290147 -0.696913 -0.437375 -0.561091 0.068662 0.650725 0.620875 -0.127294 -0.335011 -0.668763 -0.797148 0.228629 0.668303 -0.238254 0.097701 0.180306 -1.067554 -0.254304 0.146589 0.242307 0.180242 -0.583810 -0.094641
twee 1.318962 -0.095270 -0.231765 -3.250811 -0.256438 -0.492561 2.308782 0.432952 -0.947776 -0.989414 0.000544 1.683442 0.381294 -0.303582 0.537383 -2.458853 -0.313893 -0.006628 -1.322707 -0.819055 1.311340 -0.194011 0.698378 -1.356082 0.097867 -0.099920 0.053221 0.275397 -0.159891 0.334852 0.777400 0.615701 0.213729 0.155667 -0.790800 0.438381 -0.730050 0.311833 0.097436 0.261651 -0.390358 0.292824 -0.748299 0.156140 0.027462 -0.522141 0.440289 0.325844 -0.384552 0.323215
wij -0.022035 0.028848 0.494102 -3.880013 -0.543336 -0.319199 1.519645 -0.262858 0.475899 -0.484649 1.712705 0.548921 -0.244638 -0.750783 0.638775 -2.451973 -0.978657 -0.883954 -0.528529 0.219527 -0.300245 -0.163838 0.125553 -0.907890 0.000871 -0.438851 -0.094216 -0.247272 -0.389872 0.007837 0.085635 0.659698 -0.956750 0.643153 0.793438 -0.129311 0.363565 -0.672850 0.999833 1.206188 0.725655 -0.319170 0.123909 0.035495 0.057687 -0.678869 0.285300 -0.124345 -0.142927 -0.823129
zelf -0.038648 0.424581 0.191387 -3.894588 0.285493 0.670727 1.577266 -0.519213 0.691287 0.507154 0.796897 0.080241 -0.600781 -0.517502 0.661502 -2.491214 -0.557455 0.433181 0.152663 0.054581 0.099990 0.110164 -0.480430 -1.226743 0.056126 -0.035300 -0.332494 -0.124342 -0.374388 -0.566264 0.191073 -0.067536 0.186260 0.158733 -0.031330 0.388010 -0.702720 -0.244176 0.655952 0.569659 -0.396670 0.032073 0.291334 -0.128908 0.352007 -0.119186 0.002816 -0.017190 -0.823580 -0.097498
me -1.057283 -0.078796 -0.507466 -3.612091 0.701834 -0.395691 1.925437 -0.383409 -0.584485 0.205381 1.739408 -0.697292 0.195796 -0.533970 1.415997 -1.522361 -0.967996 0.715431 -0.014321 0.069398 -0.230754 1.723356 0.146146 -0.851564 -0.047612 -1.515292 0.430072 -0.048294 -1.138172 -1.216777 0.743199 -0.125319 0.486608 1.586328 -0.427330 0.380226 -0.085332 -1.223248 0.651448 0.089609 0.352327 -0.325572 -0.061863 -0.896995 -0.260623 0.050277 -0.785538 1.362278 -0.618447 1.094944
n 0.567528 0.093908 -0.187578 -3.664716 0.746283 -0.023854 1.651893 0.389841 -0.121541 -0.873233 -0.025432 0.047732 -0.131665 -0.202069 0.711790 -3.074491 0.062004 0.423250 -0.781723 -0.780901 0.664230 -0.130214 -0.013140 -1.030419 -0.158350 -0.116680 0.956345 0.151261 -0.117031 -0.320005 0.354983 0.156085 0.196284 0.176438 -0.330230 -0.335051 -0.700294 0.258576 0.072155 0.336606 -0.307546 0.669007 0.346845 -0.364998 0.161074 0.067411 0.508438 -0.230504 0.151683 0.152508
mij -0.967466 -0.093791 -0.034145 -3.844567 0.605413 -0.779585 1.909126 -0.186600 -0.232831 0.547421 0.894708 -0.702119 -0.593698 -0.622826 1.023970 -1.949566 -0.540117 0.328927 0.114980 -0.334650 0.151793 0.697148 0.052157 -0.965420 -0.043007 -0.658088 0.407847 -0.163066 -1.080248 -1.042871 0.279794 0.030987 0.556017 0.842537 0.125896 0.043420 -0.502278 -1.079141 0.297293 0.119050 0.015975 -0.647334 0.310173 -0.907041 -0.369577 0.030157 -0.328250 0.950850 -0.839502 0.310408
Er 0.412754 0.343578 0.011384 -2.998915 -1.506165 0.438710 0.956101 0.474566 -0.779298 -0.641635 0.709373 0.265863 -0.792186 -0.148943 0.753109 -2.224371 -0.258142 0.026342 -1.639833 -0.329497 1.416890 -0.645196 0.605917 -0.960228 -0.419022 0.352028 0.121471 -0.385475 -0.158516 -1.111234 -1.178324 0.829645 0.289727 0.415189 0.930100 0.023365 -0.251464 -0.332828 -0.185819 0.160823 1.104211 -0.462401 -0.412807 0.842551 0.296680 -0.346764 0.007997 0.404141 -0.830950 0.411412
staat 0.031038 1.029180 -0.391739 -3.949325 0.661572 0.031649 1.322606 0.148885 -0.002839 -0.253144 -0.087313 -0.186893 -0.592949 -0.085319 1.702760 -2.179139 0.360502 0.208169 0.175423 0.171374 0.317889 -0.123012 0.219675 -0.529765 0.130201 -0.019651 -0.029183 0.169616 0.516730 -0.607033 0.051616 0.847649 -0.000268 -0.118800 0.487032 0.002577 0.141872 -0.018688 -0.088560 -0.052732 -0.010280 -0.218145 0.229276 -0.290081 -0.108216 0.114392 0.011543 0.357069 0.741445 -0.373757
ben -1.152435 0.913630 -0.645214 -3.374630 0.758048 -0.906994 1.446590 -1.057319 0.555333 0.743328 0.619616 -0.087638 0.496219 -0.721738 0.995614 -1.503884 -0.581250 0.911792 -0.222426 -0.654408 1.111957 -0.427810 0.549666 -1.290896 -0.444376 -0.358859 0.650547 -0.941000 -1.581813 -1.531339 -0.234527 0.621903 -0.064514 0.616671 0.073327 -0.570066 -0.395353 -0.783006 0.895769 0.652398 -0.605093 0.275029 0.407987 -0.105347 -0.014411 0.814744 -0.905955 1.410169 -0.338771 0.048952
grote 0.821033 -0.027035 0.279213 -3.877877 -0.042727 -1.003495 1.596200 0.711924 -0.374972 -0.744922 0.196132 0.517200 -0.700352 -0.421345 1.464644 -2.158356 -0.095296 -0.251581 -0.807581 0.312787 0.359733 -0.680693 0.045271 -1.043039 0.170309 0.775939 0.681436 0.582673 0.082719 0.492372 -0.787281 1.009278 0.713555 1.501842 0.350511 0.413603 0.848922 -0.635494 -0.540738 -0.371813 0.003313 0.363948 -0.929747 0.378337 1.132744 0.135469 0.525065 -0.056672 0.035706 0.092254
iets -1.501722 0.941683 0.237604 -3.961990 0.707653 0.568064 1.129795 -0.014642 -0.126444 1.101230 0.158125 0.159980 -0.772811 -0.981162 1.267050 -1.867765 -0.641265 -0.086230 -0.018991 0.053734 0.986134 0.674671 0.372893 -1.077431 0.384091 -0.094616 0.566490 0.279166 -0.640697 -0.934689 -0.540483 -0.303545 0.047451 0.750944 0.600220 -0.294532 -0.256050 0.142798 -0.020222 0.964619 0.115103 -0.192462 0.080987 -0.461909 -0.375775 -0.392547 0.363610 -0.035660 -1.396439 0.066033
terug -0.438476 0.060743 -0.665016 -3.473535 0.598639 -0.057526 1.385727 0.501480 -0.460278 1.064693 0.819433 0.906181 -0.152488 -0.122162 1.885398 -2.320063 -0.536546 -0.573120 -0.027999 -0.668725 0.324141 0.144446 -0.006054 -0.380435 0.467710 -0.629643 -0.426571 -0.141147 -0.692815 -0.272175 -0.714066 -0.134650 0.062795 0.568148 -0.282755 0.116788 -0.512541 -0.635774 0.578580 0.813370 0.136983 0.825914 0.369209 -0.790447 -0.373164 -0.311500 0.467595 0.050318 0.303688 -0.124067
hoe -0.700952 0.516168 0.461605 -3.877346 0.543184 0.717045 0.947594 -0.268630 -0.395341 0.591234 0.848120 -0.809314 -0.039181 -0.632254 1.425366 -1.730288 -0.483312 0.459435 -0.118545 0.369109 0.464781 0.749183 -0.385955 -1.838873 0.265458 0.396859 0.015230 0.187010 -0.329139 -0.921230 -0.376358 0.186804 0.246000 0.328046 0.268747 0.299887 -0.022849 0.440583 0.889037 0.540017 -0.384055 -0.678615 0.595681 -0.053997 -0.214621 -0.244302 0.010888 0.476316 -1.166892 -0.751063
dag -0.048133 0.306707 -0.543011 -3.204973 0.016331 0.342642 1.862647 0.174066 -0.031711 0.158785 0.325418 1.379727 0.028182 -0.009928 1.448668 -1.925905 -0.240730 -0.578107 -0.650678 -1.253964 -0.021174 0.423214 0.261362 -1.476515 -0.815793 0.343481 1.607268 0.679256 -0.691832 -1.207374 -0.540460 -0.023454 -0.241500 0.489728 0.128500 -0.473886 -0.644671 -1.239224 0.548002 0.926452 -0.100318 0.141913 0.512613 -0.511614 -0.681458 0.313968 -0.077990 -0.188841 0.082858 0.222023
Voor -0.038117 0.059957 0.486955 -3.344383 -0.651853 -0.132117 0.830889 -0.367308 0.382228 -0.193065 0.011432 0.746314 -0.149009 -0.048311 0.470152 -2.014263 0.328913 -0.568426 -0.180176 -0.927902 0.032877 -0.083916 -0.120455 -1.225689 -0.772025 -0.382098 0.697539 0.112752 -0.046752 -0.347483 0.799795 1.045596 -0.293741 -0.548030 0.174170 -0.469935 0.406535 -0.145787 0.338005 0.532583 -0.703309 -0.288641 0.043475 0.844929 0.522866 0.198893 0.333640 -0.130282 0.030346 -0.575071
waren 0.198068 -0.194795 -0.647467 -3.106710 -0.476905 -0.448526 2.110998 -0.504338 -0.584625 -0.415551 1.154049 1.152957 0.858971 0.510893 0.951571 -1.967637 -0.381966 -1.352210 -0.547169 -0.157749 1.528055 -0.416658 1.370451 -0.376670 -0.419218 -0.493226 0.036737 -0.166202 -1.733492 0.439186 -0.195533 1.089339 0.505890 0.122812 0.998748 0.532018 -0.183446 -0.272995 0.663605 0.232405 0.532010 0.083753 -0.883677 0.213565 -0.469831 0.442202 0.865277 1.040029 -0.972318 0.142953
af 0.117842 0.137683 -0.151125 -3.641755 0.046373 -0.242626 1.600545 0.346312 -0.473148 0.677865 0.626101 0.065895 -0.571940 -0.198208 1.307501 -2.112417 -0.211829 0.187770 -0.068147 -0.980577 0.205349 0.291604 0.538727 -1.097112 0.407834 -0.877376 -0.492659 0.464682 -0.398179 0.028427 -0.330932 0.125397 -0.326172 0.172587 -0.480668 -0.016673 -0.049113 -0.431521 0.425927 0.227917 -0.381778 0.450417 -0.422593 -0.521070 -0.673999 -0.325961 0.230473 -0.286634 -0.378191 -0.112163
Ook -0.198299 0.046384 0.185251 -3.688247 -0.329036 -0.240682 1.191537 -0.509777 -0.070145 -0.140132 0.016501 0.568501 -0.560342 0.374001 1.063024 -1.846489 -0.020196 -0.230677 -0.121249 0.164187 0.568077 -0.097970 -0.250604 -0.755647 -0.366077 0.337171 -0.042610 -0.131189 -0.672001 -0.079050 0.529305 0.792981 0.307192 -0.462666 -0.235276 0.166074 0.431116 -0.552441 0.383925 0.330200 -0.306402 -0.301780 -0.447378 0.833991 0.326107 -0.104060 0.456096 -0.062448 -0.525317 -0.429575
komt -0.346808 0.840219 0.017063 -3.609196 0.452392 -0.294992 0.998038 0.177307 -0.521813 0.641621 -0.005575 0.113106 -0.743231 -0.228031 1.698636 -2.292820 0.136411 0.417482 0.206633 -0.461556 0.174059 0.421346 -0.237364 -0.776912 -0.001319 -0.030698 0.541862 0.405401 -0.143039 -0.543149 -0.456351 0.125212 0.451512 0.265213 0.111061 0.128619 -0.121837 -0.149452 0.452396 0.378360 -0.530012 -0.119901 0.186307 -0.060059 -0.144045 -0.165227 -0.103315 -0.120720 0.475893 -0.293346
Je 0.025868 0.109216 0.133706 -3.726631 0.761151 -0.267718 0.555159 0.682033 0.036166 0.200231 1.033054 -0.879661 -0.098661 -1.005471 1.751493 -1.324183 0.034459 0.814605 -0.213467 -0.400449 -0.566178 0.338163 -0.600059 -1.642517 0.188536 0.570161 -0.188169 -0.681429 0.202147 -1.698467 0.672494 -0.131937 -1.054447 0.361588 -0.932808 -0.599433 -1.013397 -0.826710 0.640556 0.773068 -0.564720 -0.126108 -0.085623 -0.118518 0.237292 -0.339314 -0.478157 0.579450 0.049965 -0.300802
eigen -0.058417 -0.229066 -0.357725 -4.475189 1.019771 0.463830 1.323933 0.252406 0.684451 -0.392760 0.537090 -0.051433 -0.116116 -0.168720 0.924266 -1.754431 -0.784645 -0.451874 0.224767 0.546970 0.244419 0.178971 -0.435199 -0.906111 0.263828 1.036734 -0.319769 -0.357658 0.662264 1.019637 -0.095710 -0.124351 -0.243794 0.321357 -0.061786 -0.530778 -0.123589 -0.583530 -0.450248 0.138806 -0.169511 -0.198438 0.309723 -0.766452 0.650185 0.095827 0.751369 0.143855 0.528255 -0.476260
Van -0.061236 0.972128 0.564785 -2.915458 -0.167081 -1.036793 2.318762 -1.077775 1.066644 -0.335584 -1.044409 -0.229520 0.024399 -0.114189 2.825094 -0.922949 -0.624749 -0.398985 0.020299 0.340246 0.003808 0.004212 -0.577509 -0.735066 0.451477 -1.192386 0.555288 -0.108542 -0.861331 0.737372 1.020229 2.278485 1.391663 -0.649658 -0.258589 -0.917495 -1.513689 -0.705015 1.024151 -0.149143 -0.297291 -0.165209 -0.968876 1.020733 -0.280248 1.057127 -0.435987 0.296334 0.234231 0.108405
men 0.065020 1.238615 -0.253707 -3.953425 -0.356351 -0.090973 1.013105 0.195221 -0.711260 -0.222705 0.789628 -0.816604 -0.285954 -0.439567 0.773893 -2.336014 -0.102361 0.866681 -0.014083 0.185600 -0.034166 -0.030678 0.252403 -1.374732 -0.114424 -0.337750 0.014911 -0.003138 -0.241382 -0.755706 -0.070126 0.037104 -0.175745 0.905166 -0.270453 0.631751 -0.146702 0.092553 1.165801 0.414253 0.237598 0.115397 -0.584820 -0.512758 0.516802 -0.418144 -0.198874 -0.505476 -0.377858 0.035026
Hij 1.001504 0.459244 -0.944042 -3.603067 0.614728 -1.273734 1.091465 -0.140951 -0.081053 -0.216535 -0.074166 -1.028433 -0.647465 -0.240576 1.771814 -1.717363 -0.811457 1.008128 0.337429 -0.405360 0.337786 -0.004954 0.016812 -1.665813 -0.360893 -0.004149 -0.130326 -0.900734 -1.015502 -0.730638 0.325077 0.332809 0.642415 0.448284 0.043339 0.186838 -1.362468 -0.379579 0.947223 -0.291912 0.366871 -0.012750 -1.226761 -1.051149 -0.050889 0.229326 -0.155693 0.381385 -0.395535 0.900061
alleen -0.168300 0.371563 0.060162 -4.159087 -0.093732 0.022738 1.036013 0.033884 -0.068927 -0.094126 0.651647 -0.372989 -0.526668 -0.385854 0.799783 -2.120710 0.115939 -0.003749 0.212073 0.112547 0.598385 0.216206 0.308452 -1.240857 -0.312860 -0.042553 0.082096 0.103161 -0.605562 -0.180318 0.209476 0.164241 0.005471 0.393731 0.190821 0.096109 -0.214117 -0.638241 0.173516 0.004878 -0.510555 0.039072 -0.216049 -0.198136 -0.112040 -0.090946 0.217606 -0.079127 -0.849008 -0.685357
enkele 0.594443 -1.036696 -0.140542 -3.442507 -0.686484 -0.366875 1.998635 0.043199 -0.840015 -0.544052 0.265638 1.127397 -0.252051 -0.106805 0.650575 -2.305938 -0.043889 0.026353 -1.108531 -1.098758 0.526688 -0.177281 0.170388 -1.380016 0.444864 -0.209665 0.272881 0.143450 -0.735514 -0.078244 -0.134499 0.703342 0.981228 0.360381 -0.675948 -0.165535 -0.307766 -0.224214 0.230294 0.302713 0.257090 -0.058116 -0.543031 0.264414 0.839048 -0.459888 0.731030 0.068779 -0.522667 0.220471
via -0.042850 -0.954432 -0.739358 -4.153959 -0.939016 1.338675 0.929369 0.397394 -0.112247 -0.048847 0.478659 -0.434460 -0.976156 -0.247820 1.354136 -2.039699 0.518669 0.024012 -0.679946 -0.758548 0.094126 0.718600 -0.793061 0.709202 0.213176 -0.498954 -1.889389 -0.683965 0.611398 0.052567 0.121475 -0.157804 -0.144640 0.225449 -1.072175 -0.224257 -0.072525 -0.931146 1.228744 0.360507 -0.416319 0.424988 0.885390 0.749134 0.950828 -0.425971 -0.142045 -0.711351 1.023700 -0.098980
steeds -0.055163 0.223194 -0.403415 -3.981361 -0.030740 -0.061493 0.588015 0.022557 -0.311366 0.283095 1.413236 -0.242295 -0.025444 -0.090013 1.425234 -2.227761 0.156436 0.174066 -0.210733 -0.223620 0.492066 -0.053822 0.059442 -1.160887 -0.063224 0.800538 -0.365151 0.146072 -0.117916 -0.365080 -0.556060 0.482531 -0.096168 -0.074439 0.190401 -0.291213 -0.356425 -0.352061 0.145336 0.480100 0.522756 0.194666 0.350095 -0.292284 -0.085295 -0.226736 0.573193 0.111104 -0.844646 -0.600839
want -0.891198 0.807239 -0.160740 -3.414722 0.430345 -0.102852 1.638298 0.058932 -0.156272 0.041908 1.158395 0.115918 -0.089917 -0.226820 0.849357 -2.241326 -0.349920 -0.267623 -0.079120 0.325939 0.310545 0.604399 0.502647 -0.820625 -0.000733 -1.059338 0.560480 -0.071178 -1.198316 -0.509043 -0.158675 0.055189 0.213227 0.967485 0.232522 0.117930 0.413301 -1.030610 0.007938 0.206271 -0.224571 0.075105 -0.162288 -0.481952 -0.535037 -0.113645 0.011047 0.425050 -0.884301 0.094778
4 0.422721 0.277157 0.110991 -2.547965 -0.191322 0.030499 2.110863 0.261204 -0.578881 -0.039690 -0.690299 1.196388 1.160070 -0.213870 1.960647 -2.697265 0.378615 -0.305424 -1.214577 -1.294767 0.664318 0.363841 1.005443 -0.482567 -0.645235 -1.281166 0.598377 -0.929977 1.129684 -0.345056 0.582944 0.513655 -0.889866 -0.054500 -0.305395 -0.273274 -0.267482 0.295489 0.009663 0.511098 -0.570837 0.146277 -1.094919 0.747971 0.040177 -0.307176 -0.513711 0.026612 0.797979 0.713931
altijd -0.360948 0.286410 -0.283132 -3.935416 0.124077 -0.059651 1.125822 -0.022033 0.024454 -0.057974 1.260820 -0.353528 -0.501946 -0.400460 0.779826 -1.979489 0.160656 0.194041 -0.026535 -0.008771 0.594194 0.362575 0.495218 -1.234719 0.066095 0.139817 0.333615 0.031411 -0.683032 -0.943123 -0.141099 0.050652 -0.083393 0.067268 0.215096 -0.145942 -0.317764 -0.851538 -0.141652 0.417788 -0.042962 0.012253 0.419790 -0.337798 -0.642307 -0.083924 -0.028467 0.547696 -0.966591 -0.469114
zien -0.373520 0.300809 0.601478 -3.788660 0.675589 0.094985 2.030525 0.227945 -0.368620 0.192383 0.667170 0.572290 -0.406616 -0.575525 1.201962 -1.536754 0.303849 -0.458921 -0.139133 0.014193 0.486803 0.516771 0.131286 -0.783428 0.757043 -0.053330 -0.015024 0.503954 -0.409415 -0.421368 -0.025544 0.113135 0.054640 1.244353 0.438685 0.639641 0.039268 0.019341 1.086697 0.071683 -0.492399 -0.191542 0.216456 -0.177096 -0.225612 -0.476816 0.619178 0.735149 -0.623318 -0.715315
plaats 0.720085 0.446694 0.009653 -3.756283 0.589176 0.325366 1.468667 0.121220 0.003894 -0.437223 -0.720933 0.655004 -0.270341 0.549490 1.299215 -2.049313 0.610957 -0.823443 -0.013434 -0.725935 -0.166532 0.118496 0.637152 -0.765043 -0.215516 -0.142161 0.500841 0.007976 -0.049797 -0.209266 -0.092728 0.805143 0.134741 0.399026 -0.186755 -0.350632 0.332488 -0.606511 0.594316 0.459776 0.540913 0.660938 0.191074 -0.393662 -0.000851 0.375512 0.721491 -0.435616 0.264684 0.486642
hem 0.011062 -0.234802 -0.160343 -3.738158 0.491669 -0.725200 1.841968 -0.169581 0.072415 0.689441 0.751339 -0.630296 -0.594751 -0.116945 1.035179 -2.283757 -0.808297 0.239201 0.436534 -0.368674 -0.194541 0.763086 -0.157764 -1.262697 0.371005 -0.552725 -0.042245 -0.213356 -1.119607 -0.097242 0.660359 -0.370465 0.434618 0.805913 0.200776 0.354928 -0.990446 -0.723112 0.707512 -0.291982 0.057375 -0.325072 -0.360513 -1.115376 -0.517239 -0.038898 0.158316 0.588092 -0.837778 1.137469
zonder 0.016066 0.072525 -0.041683 -3.999945 -0.515811 0.081649 1.220632 0.738493 -0.335916 0.187199 0.773932 -0.473691 -1.013297 -0.112248 0.276303 -2.237799 0.363282 0.091460 0.063249 -0.262518 0.510258 0.084830 0.746060 -1.555153 0.016707 -0.284587 0.296130 -0.036332 -0.096569 0.807090 -0.186219 -0.446864 -0.854365 0.290115 -0.175249 -0.172767 -0.310078 -1.003280 -0.715989 0.061200 -0.731922 0.214786 -0.058774 -0.400041 -0.293069 -0.652976 -0.100645 -0.459204 -0.450875 0.424471
Ze 0.422403 -0.032542 -0.074680 -3.533363 0.522418 -0.585903 1.271215 -0.220889 -0.362799 -0.040838 0.836859 -0.118155 -0.265465 -0.285146 1.186282 -1.698020 -0.927909 -0.341640 -0.196190 0.158846 0.690189 0.579216 0.424836 -1.508396 0.083018 0.163043 -0.666477 -0.216539 -0.621152 -0.119008 0.226585 0.101631 -0.376608 0.552457 0.211747 0.803056 -0.135220 -0.485132 0.831253 0.544086 0.640005 0.174898 -1.519616 -0.782697 -0.404729 -0.162066 0.427104 0.139845 -0.872197 0.283131
leven -0.065407 0.077917 0.048943 -4.076932 0.226124 -0.083484 0.876340 0.241076 -0.342578 -0.010127 0.245920 -0.327956 0.445116 -0.838887 1.113242 -1.617613 -0.737451 -0.680913 0.602293 0.570850 0.084193 0.103003 0.195968 -1.860950 -0.525871 1.287063 0.635777 0.340040 -0.056577 0.681673 -0.739363 -0.431628 0.615513 1.189357 0.419549 0.080632 -0.743137 0.021483 0.997225 0.658737 -0.840639 0.190018 0.185210 -1.111851 -0.692819 0.412710 -0.651712 0.920077 -0.423097 -0.313869
toe -0.385695 -0.201161 0.023877 -3.436613 -0.041746 -0.002686 1.132897 0.046710 -0.541092 0.502158 0.554000 -0.286491 -0.513538 0.082692 1.164621 -2.628958 -0.506129 0.322876 -0.019665 -0.632089 0.041998 0.782436 -0.243133 -1.179379 -0.210056 -0.096544 -0.174197 0.376227 -0.001496 -0.271623 -0.587354 -0.189296 -0.447210 0.350602 -0.578360 -0.156205 0.101493 -0.459115 0.395521 -0.272805 0.198936 -0.003158 -0.429730 -0.610797 0.031497 -0.419760 0.240855 0.292359 -0.751405 0.127114
verschillende 1.127282 -0.539526 0.086139 -3.983047 -1.128337 0.584262 2.425953 0.257512 -1.103372 -1.280571 0.449290 1.053916 0.571692 -0.334838 0.415763 -1.480847 -0.576045 -0.180204 -0.981606 -0.237404 0.795076 -0.373323 0.450912 -0.903908 -0.012625 1.303218 -0.935752 -0.186700 1.279448 -0.276960 0.411329 0.502296 0.169387 0.047708 -0.809276 0.123585 -0.670149 0.763501 0.507770 0.265125 0.721361 -0.389541 -0.889712 1.067924 0.911246 -0.488067 0.408367 -0.191084 -1.095707 -1.174464
and -1.241315 0.634800 -1.235358 -1.703100 -0.054583 0.372016 1.722048 -1.354259 -1.102004 0.014936 1.058718 0.673014 1.842419 0.743506 1.583762 -0.023200 -0.545847 1.236807 0.066695 1.504050 -0.547179 1.838946 0.009421 0.401720 -0.131892 -1.595153 1.025156 -0.852683 1.852601 1.247967 0.688448 -0.004571 -0.482229 1.452114 -0.038463 -0.387709 1.795552 -0.150896 0.122248 -0.697013 0.617686 -0.240607 -0.926541 3.028962 1.257316 1.034034 -1.441775 0.625466 0.165105 2.024340
n -1.033587 -0.167612 -0.410846 -3.253666 0.548901 -0.020479 1.876611 0.736825 -0.312771 -1.206579 -0.097920 -0.265096 0.547738 -0.640265 1.836860 -1.157885 -0.247939 -0.189142 -1.131270 -0.850114 0.373676 1.063594 0.568163 -1.376063 -0.147108 0.213592 0.535586 0.814663 -0.658439 -0.726476 0.037571 -0.761613 -0.428119 0.769271 0.581353 -0.224105 -0.424964 -0.476935 -1.194615 -0.309346 -1.640905 0.508327 -0.616739 -0.829795 0.587995 -0.153573 0.027583 1.285992 1.018425 0.494915
Met 0.466385 -0.843413 0.093949 -3.266521 -0.208388 -0.587092 1.321556 0.190568 0.094397 -0.242413 0.247322 0.529286 -0.753409 -0.241149 1.784712 -0.972859 -0.112766 -0.024786 -1.064195 -0.381127 0.629097 0.547629 -0.595315 -1.447547 -0.194274 -0.251418 0.351759 -0.437840 0.453556 -0.035013 0.094963 0.681018 -0.534218 0.080442 -0.048459 0.025574 0.207430 -0.259384 -0.882314 -0.228956 -0.458662 -0.376792 -0.315237 0.095155 0.345197 -0.630153 0.261653 -0.198693 0.723192 0.166468
zij 0.465076 0.425187 0.128004 -4.093837 -0.173800 -0.586022 1.102264 -0.261144 -0.168282 -0.450595 0.544974 -0.309266 -0.264707 -0.303419 0.597214 -2.402912 -0.855438 -0.271839 0.011163 0.098259 -0.114754 0.232073 0.181296 -1.238872 -0.273920 0.154440 -0.332367 -0.294435 -0.750126 0.272627 0.370690 0.231207 -0.418079 0.493572 0.636563 0.121592 -0.486327 -0.541060 1.351994 0.288791 0.497775 0.155106 -0.669496 -1.021597 -0.020225 -0.336425 0.390870 0.045471 -0.607114 0.282736
laten -0.284998 -0.642395 0.693589 -3.499402 0.525186 0.001920 2.129381 0.426992 0.099053 0.645405 1.106836 0.538706 -0.135069 -0.666241 0.894176 -2.335430 0.024335 -0.092617 0.252312 -0.386601 -0.484487 0.621048 0.177381 -1.579287 0.780691 -0.477348 -0.844398 0.686344 0.241063 0.965976 0.401792 -0.686704 -0.828993 0.738805 -0.562488 0.560560 -0.083365 -0.630415 1.060143 0.566596 -0.887854 -0.096912 0.012584 -0.702440 -0.651780 -0.551865 0.510471 -0.432152 -0.717798 -1.065552
werden 1.464119 -0.186186 -0.774342 -3.243306 -1.573477 1.133270 1.635453 0.206178 -0.581111 -0.613288 0.939899 1.238907 0.388978 1.045584 1.215599 -2.137795 -0.657897 -1.067633 -0.784325 -0.217549 1.227801 -1.059504 0.566503 0.045056 0.162438 0.305589 -1.151354 -0.308851 -0.990624 0.490303 -0.894035 0.817085 -0.028467 -0.357190 0.961305 0.520167 -1.029431 0.158071 0.902245 -0.273037 1.128119 0.381241 -1.092113 0.465159 -0.083652 0.233785 0.581305 1.017119 -0.578765 1.309725
a -0.735698 0.724014 -1.114296 -1.340570 -0.118863 0.615787 2.089401 -0.964603 -0.573875 -2.097370 0.146696 -0.476943 1.679436 0.238973 2.043551 -1.508664 -0.319340 1.928855 -0.327856 0.634437 -0.956453 1.996852 0.721721 -0.460923 0.061539 -2.321356 0.972553 -0.220373 0.579487 -0.502101 0.777137 -0.641829 -1.007703 0.981620 -0.562307 -0.354633 0.945858 0.272575 -0.696707 -0.922804 -0.318049 0.239871 -0.346603 1.286082 1.475249 -0.067645 -0.984516 1.571039 0.893869 1.891577
binnen 0.317451 0.375497 -0.430073 -3.839995 0.105802 0.348663 0.961452 0.482990 -0.782550 -0.709413 0.192026 0.168023 0.174665 -0.047109 0.854628 -2.593119 -0.690437 -0.004803 -0.300564 -0.235678 -0.111588 -0.266083 0.073685 -0.558207 -0.375009 0.617656 -0.827093 -0.022739 0.730117 -0.321001 0.217452 0.298623 0.204653 0.029126 -0.359100 -0.513560 -0.011118 -0.202635 0.107974 0.399168 0.082459 0.283245 0.416629 -0.645280 -0.334221 -0.034382 -0.148146 -0.353836 0.001224 -0.253777
zeer 0.132948 -0.535799 -0.433084 -3.474792 -0.335278 -0.234915 1.745232 -0.977098 -0.817713 -0.916636 1.071795 -1.342951 -0.418663 0.059282 1.747914 -1.471318 0.210356 -0.392459 -0.000594 0.047927 1.046869 0.720137 0.863536 -1.938608 -0.522809 0.506646 0.137037 -0.237902 -0.787334 -0.734499 -0.468626 0.708210 0.299292 -1.002370 -0.049021 -0.343707 0.912978 -0.075079 -0.514309 0.445742 0.271974 0.276907 -1.078506 0.463973 -0.010045 0.742045 0.517299 0.260320 -0.156011 -0.802664
omdat -0.745573 0.584309 -0.271906 -3.917769 -0.035124 0.208637 1.091728 -0.175852 -0.392247 0.384938 0.808319 -0.404532 -0.234641 -0.136016 0.623208 -2.243769 0.154667 0.294332 0.263888 0.139166 0.726977 -0.002162 0.480220 -1.036073 -0.170319 0.146501 -0.165187 -0.126135 -0.987540 -0.167620 -0.146120 -0.049976 0.179966 0.319509 0.456977 0.411485 -0.034416 -0.469012 0.215194 -0.273606 -0.379288 0.324301 -0.062805 -0.681820 -0.330905 -0.030795 0.130007 0.137615 -1.100615 0.206827
samen 0.560068 -0.557490 0.288262 -3.473395 0.230059 -0.142303 1.561598 -0.766418 0.355352 0.202903 0.079393 1.253315 -0.204327 -0.447458 1.424003 -2.438486 -1.829855 -0.018871 -0.698860 -0.135556 0.122899 0.468024 -0.453865 -0.901118 -0.278555 0.562494 -0.258971 0.146811 0.060450 0.178695 0.495453 0.340256 -0.327599 -0.210791 -0.481025 0.293577 -0.335103 -0.147577 0.626597 0.849190 -0.013069 0.210578 0.002978 0.262140 -0.198587 -0.377157 0.053683 0.177916 -0.200915 0.005309
alles -0.246602 0.755109 -0.181745 -3.394961 0.634927 0.378463 1.334536 0.465595 -0.235619 0.043122 1.211170 -0.149787 -0.766432 -0.454900 1.331568 -2.369644 -0.835837 0.070636 0.128828 0.189225 0.124046 0.158241 0.201526 -0.943887 -0.157131 -0.763126 0.068644 -0.147354 -0.021261 -0.571444 -0.580734 0.020960 0.111949 0.285934 0.009273 -0.400930 -0.509732 -0.857781 0.055475 0.657093 -0.018433 -0.345795 -0.311853 -0.424613 -1.040904 -0.063321 -0.482844 0.787545 -0.865025 -0.666822
even -0.825400 -0.333755 -0.506158 -2.970371 0.900226 -0.133373 1.752800 -0.030797 -0.611152 0.129202 1.512970 0.024204 -0.410133 -0.097778 1.475139 -1.958030 -0.533613 0.532746 -0.164621 -0.207376 0.439698 0.976215 0.553671 -1.403513 0.342261 -1.567170 0.129034 0.390079 -0.830976 -0.568460 -0.067260 -0.072598 0.206494 1.151091 -0.810542 0.052502 0.487623 -0.700644 0.590535 1.293638 0.306730 -0.362941 0.561343 -0.211522 -0.585376 -0.163928 0.191503 0.662568 -0.451116 0.146705
kinderen 0.116650 -0.436446 0.801106 -3.735024 -0.100783 0.497169 1.031017 -0.455652 -0.222666 0.460198 0.015842 0.710935 0.579755 -0.324467 0.227386 -2.385562 -0.278730 -1.721551 -0.142377 -0.161788 0.665711 0.794481 0.595692 -1.603261 -0.905792 1.896308 0.085073 0.532802 -0.044997 -0.166369 0.968972 0.057728 -0.418845 0.373012 0.765931 0.633929 0.000377 -0.637358 0.870199 1.588600 -0.117303 -0.305700 -0.312556 0.229472 0.097378 0.528374 0.050221 0.449689 -0.687321 1.122540
Wat -0.956917 0.653640 0.198667 -3.319823 0.152764 0.163438 1.190393 -0.162836 -0.251478 0.157506 0.055836 -0.436768 -0.477023 -0.570530 0.758458 -1.593442 0.079560 0.057732 -0.186987 0.243454 -0.044229 0.259472 -0.147050 -1.217651 -0.201855 0.113223 1.264528 -0.059882 -0.218694 -1.013093 -0.127640 0.622463 0.311682 0.244601 0.639719 -0.241535 0.322413 -0.191481 0.134151 0.167103 -0.689743 -1.054185 0.275776 0.097776 0.031051 -0.222886 -0.690631 0.535675 -0.582251 -0.401214
echt -0.971354 0.111070 -0.073647 -3.527710 0.801963 -0.067626 1.682403 -0.206133 0.129761 -0.312802 0.946420 -0.261781 -0.560089 -0.645679 1.130067 -1.743593 -0.299153 0.005516 -0.043021 0.445064 0.732683 0.642548 0.951381 -1.372818 -0.416690 -0.149349 0.709266 -0.070795 -1.096755 -1.199057 -0.502181 -0.242696 0.183498 0.845763 0.793773 -0.011829 0.558123 -0.319500 -0.366384 0.374293 -0.568143 0.443419 -0.096504 -0.206629 -1.068947 0.191667 -0.262434 0.931773 -1.285392 -0.640720
laatste -0.019804 0.080011 -0.631659 -3.195298 0.592320 0.392850 1.796678 0.295784 -0.642866 -0.258953 -0.114963 1.268721 0.056771 0.730296 1.315854 -2.146707 0.083816 0.010549 -0.786604 -1.225174 0.172117 -0.123764 0.170447 -1.305618 -0.289339 -0.744392 1.126734 -0.189090 -0.970714 -0.310438 -1.043971 0.422586 0.557945 -0.018083 -0.015251 -0.838747 0.034478 -0.294117 0.794833 -0.032992 -0.024716 0.133664 0.087736 -0.581735 -0.038037 -0.599320 0.741819 -0.055782 -0.040323 0.191064
5 0.057106 0.474984 -0.178810 -2.349408 -0.356373 0.010192 1.953652 0.233401 -0.287227 0.081144 -0.655541 0.955169 1.208228 -0.359365 2.193703 -2.679464 0.230801 -0.565643 -1.246555 -1.590597 0.365188 0.229637 0.924210 -0.900068 -0.705893 -1.183064 0.713402 -0.690792 0.883024 -0.474147 0.230278 0.524513 -0.946195 0.049212 -0.262640 -0.359330 -0.475150 0.238915 0.292160 0.365542 -0.488964 0.116869 -0.942390 0.481446 0.112452 -0.165360 -0.442873 -0.137748 0.743286 0.542543
zeker -0.911379 0.043731 0.038573 -3.621606 0.232512 -0.223961 1.371962 -0.285363 0.056160 0.107082 0.763770 -0.173671 -0.255916 -0.532409 1.006620 -2.190526 0.210526 -0.358775 -0.185232 -0.040358 0.088425 0.205596 0.476848 -1.039271 -0.009908 -0.351546 0.665165 -0.096829 -0.858776 -0.789773 -0.038604 0.286174 -0.116380 0.374397 0.051524 -0.400536 0.477750 -0.426403 0.045224 0.396667 -0.211121 0.096268 0.186672 -0.230912 -0.378773 -0.458967 0.192796 0.213977 -1.102501 -0.664176
10 0.004695 0.442160 -0.479416 -2.365741 -0.922972 -0.172993 1.796625 -0.043131 0.124790 0.071855 -0.403244 0.767684 1.046953 -0.537212 2.445518 -2.317827 0.256522 -0.412523 -1.312605 -2.045560 0.253631 0.454952 0.843517 -0.859709 -0.525405 -0.980060 0.792584 -0.188121 0.764734 -0.691462 0.104871 0.500750 -1.152859 0.161059 0.133817 -0.398993 -0.561867 -0.015534 0.702086 0.194834 -0.231906 0.208196 -0.876090 0.315348 0.007055 0.035562 -0.271737 -0.592235 0.929029 0.643797
&amp; -1.193037 -0.235138 0.252391 -3.818680 0.028400 -0.073135 1.186337 -1.186993 0.565639 0.524498 -0.225730 1.166651 0.503504 0.613392 2.760990 -0.660427 -0.872564 0.011726 0.013734 0.953375 -0.627934 0.748495 -0.668782 -0.123161 -0.538399 -0.655014 0.584297 -0.398030 1.043239 0.962992 1.024555 0.815690 -0.665299 -0.696258 -0.165624 -0.373444 0.319949 -0.744614 -0.830405 -0.064178 -0.172759 -0.905313 -1.076142 2.312141 -0.078785 0.157982 -1.127626 0.571018 0.514176 -0.088012
zullen 0.131423 -0.047277 0.503897 -3.490521 -1.120468 0.453914 1.398790 -0.146037 -0.215473 -0.100861 1.172043 0.928416 0.501023 -0.325256 0.801079 -2.324080 -0.207589 -0.828749 -0.577557 -0.255121 -0.426928 -0.034467 0.368574 -0.866221 0.225711 0.252651 -0.686336 0.474169 -0.038114 0.357657 -0.042239 0.476315 -0.658843 0.103749 0.564765 0.127616 -0.159080 -0.232221 1.240169 0.192810 0.221678 0.182313 0.161086 -0.155593 -0.397308 -0.924325 0.630949 0.207419 -1.062504 -0.788741
werken -0.099392 0.611564 0.346320 -3.643030 -0.520780 0.780092 1.556107 -0.288448 0.179528 -0.077585 0.385793 0.311625 -0.058360 -0.598135 1.070201 -1.495748 -0.806736 -0.394590 -0.571410 -0.113748 0.329475 -0.296630 0.260499 -2.031730 -0.876911 0.455412 -1.181980 -0.243669 0.303741 0.057854 0.443086 0.123145 -0.247436 -0.100385 0.113928 0.037761 -0.133711 -0.165994 0.614105 0.863075 -0.274597 0.353347 -0.183135 0.033134 0.257131 0.057352 -0.064598 0.021114 -0.936329 -0.813986
% -1.025632 1.086411 -1.448569 -2.529650 -1.337393 -0.233733 0.799722 -0.187424 -0.480328 0.067041 0.244831 -1.560690 1.208151 -0.756377 1.797761 -2.651263 0.246038 -0.920329 -0.894431 -0.926631 0.978917 0.914457 0.509783 -0.288397 -0.833146 -0.671313 0.679311 0.770044 0.572906 -0.230805 0.248530 0.701774 -2.422920 0.008494 0.435225 -0.558962 0.381119 0.307961 0.804220 -1.299681 -1.138137 0.552090 -1.587945 -0.452836 0.984618 0.124096 0.077644 -1.271568 0.636586 -0.574593
per 0.127751 0.449202 -1.031724 -2.658847 -0.354234 1.884981 1.104449 0.714144 -0.036215 0.092010 0.356383 -0.332032 0.924097 -0.458260 1.079906 -2.972046 -0.118387 -0.325902 -1.969722 -2.045011 0.643719 0.491095 -0.352779 -0.576980 -0.294048 -0.132264 0.972689 1.017761 0.561566 -1.027699 0.499854 -0.198128 -1.276547 -0.189254 -0.185294 -0.926918 -1.669578 -0.167232 0.375727 0.514835 -0.373171 0.734141 0.352418 -0.097804 1.103913 0.560528 0.433156 -1.287564 0.396632 0.537931
aantal -0.073092 -0.844034 -0.177231 -3.395384 -1.186929 0.518365 1.428890 -0.071980 -0.995097 -0.748817 0.531982 0.782720 1.161172 -0.180731 0.481106 -1.849553 0.482814 -0.368256 -1.910587 -1.141626 0.684334 -0.385657 0.278946 -1.459461 0.165005 0.874083 -0.369740 0.393440 0.246364 -0.050904 0.270292 0.796801 0.141525 -0.262376 -0.002538 -0.108097 -0.253491 0.473598 0.435011 -0.140909 0.286459 -0.107065 -0.500147 -0.088294 1.185048 -0.270980 1.153557 -0.125163 -0.851808 -0.209959
staan 0.185237 0.374921 -0.013606 -3.562489 0.442111 -0.133397 1.780409 0.470619 -0.244473 -0.464565 0.561935 0.677494 0.028021 -0.252298 1.221768 -1.869018 0.112569 -0.436416 -0.526559 -0.338899 0.602695 -0.074209 0.892246 -0.813563 0.983606 -0.027405 -0.666126 0.571902 0.455529 -0.354989 0.440826 0.860675 -0.213658 0.653601 0.189413 0.332847 -0.111940 -0.582720 0.354186 0.254736 0.507250 -0.507001 -0.096904 -0.092498 -0.484972 0.101294 0.524896 0.687763 -0.275982 -0.392656
geven -0.212929 -0.576293 0.995131 -4.106727 -0.813278 0.255760 0.904333 -0.026438 -0.140657 -0.085188 0.274900 -0.176465 -0.668421 -0.193501 0.313115 -2.035049 -0.337592 -0.493317 0.012364 -0.636743 -0.417585 1.016331 -0.309350 -1.719184 0.144208 0.069124 0.274029 0.029231 0.093723 -0.253228 0.220374 0.009736 -0.624019 0.263164 -0.209651 -0.569882 0.295695 -0.172128 -0.126596 0.102643 0.242023 -0.390576 0.098619 -0.167598 0.213087 -0.305707 0.755109 -0.011006 -0.587574 0.506942
Na 0.166942 -1.205993 -0.946257 -2.386464 -0.537144 0.061488 1.668586 0.674192 -1.375900 -0.039230 -0.149026 1.648541 -0.595192 0.182015 1.499599 -1.020083 -0.663228 -0.293265 -0.884478 -1.432004 -0.264234 0.060114 0.529622 -1.776541 -1.068422 -1.216104 0.933537 -0.001916 -1.220650 0.659097 -0.684276 0.098188 0.289743 -0.058170 -0.292006 -1.000992 0.224796 -0.308901 0.565399 1.255986 -0.674550 -0.376907 0.078934 -0.190339 -0.295652 -0.578516 0.362658 -0.889610 0.639840 0.574612
Bij -0.184723 0.038707 0.238269 -3.046361 -0.565660 -0.314391 1.393399 0.124328 -0.930474 0.107939 0.452316 0.837584 -0.716141 0.267697 0.692136 -1.717489 1.166999 0.098749 -0.080441 -0.456208 0.238778 -0.326436 -0.157540 -1.006525 -0.660408 -0.055680 0.438017 0.083206 -0.240613 0.179893 0.865501 0.695057 -0.347789 -0.597649 0.156747 -0.176187 0.638840 -0.180012 0.697557 0.813481 -0.930168 -0.676778 -0.068606 0.681983 0.164919 -0.641870 0.122917 -1.125871 0.581711 -0.074016
verder -0.125673 0.078453 -0.150268 -3.397170 0.423766 0.057685 1.411912 0.466390 -0.372802 0.684825 0.512726 0.040281 -0.048057 -0.473105 1.975544 -1.988258 -1.142089 0.136220 -0.536709 -0.304386 -0.015234 0.074069 0.156878 -1.167845 -0.110881 -0.073978 -1.257789 0.331655 -0.224412 0.127482 -0.807977 0.259374 -0.095246 0.558670 -0.527738 0.011632 0.074435 0.119746 0.691483 1.042096 0.146713 0.370302 0.294310 -0.546131 -0.085530 -0.744233 -0.283767 -0.150713 -0.241773 -0.818751
mogelijk -0.253347 -0.094446 0.246683 -3.686235 -0.981981 1.047208 1.123015 0.333921 -0.573982 -0.231143 1.283980 -0.898961 -0.428258 -0.087087 0.638405 -2.223770 0.266191 -0.517632 -0.305769 -0.523956 0.149074 0.208300 0.299478 -1.377479 -0.094876 0.163788 -0.654185 -0.294427 0.504530 0.025214 -0.148726 -0.333246 -0.309981 -0.138342 -0.090239 -0.411518 0.128611 -0.022208 0.359678 0.932469 -0.169248 0.446563 0.182535 0.006778 -0.153163 -0.099774 0.259431 -0.671167 -0.480383 -0.588655
tijdens 0.519153 -0.160607 -0.685923 -3.649767 -0.420936 0.743440 2.022851 0.045337 -0.776147 -0.306296 -0.079364 1.650650 -0.291908 0.916297 1.484870 -1.202203 0.123887 -0.055700 -0.114913 -0.657288 -0.679847 -0.085406 0.274022 -1.169634 -1.086204 0.736117 0.645299 0.210679 -0.863788 -0.231146 -0.062467 0.036354 -0.131801 -0.098932 -0.187463 -0.426579 0.401298 -0.950571 1.419181 0.574979 0.286987 0.024754 0.323003 0.120876 -0.801472 0.054407 0.148567 -0.910517 -0.513672 0.866149
werk -0.335599 0.295561 -0.059958 -4.071544 0.242240 0.504525 1.144163 -0.252940 0.075872 -0.014703 0.191091 -0.115793 -0.319165 -0.416094 1.514932 -1.100998 -1.364639 0.289368 -0.078030 -0.145111 0.092661 -0.352940 -0.177948 -1.964260 -0.627591 0.159226 -0.258531 -0.007128 -0.574890 0.235894 0.354622 0.262811 0.367684 -0.061160 0.121607 -0.789369 -0.340463 -0.072314 0.559080 0.646543 -0.524337 -0.133020 -0.076356 -0.242335 0.165242 0.568798 0.186607 0.195915 -0.904180 -0.149012
weg 0.003811 0.046690 0.224247 -3.769975 0.300170 -0.598408 1.273247 1.100998 -0.486392 0.628083 0.823557 -0.128439 -0.106691 -0.147114 1.212765 -1.899059 -0.023882 -0.331235 -0.293446 -0.683218 0.282249 -0.077965 0.396687 -0.599285 0.760737 -0.621445 -0.302638 0.374470 -0.978344 -0.036492 -0.719078 0.191479 0.758483 1.016938 -0.457741 0.386635 -0.006164 -0.600534 0.038187 0.940461 -0.198200 1.027788 0.395262 -0.397879 -0.175683 -0.195892 -0.485929 0.260539 0.326782 -0.314606
U 0.388719 -0.238837 0.358644 -3.167791 -0.089736 -0.440595 1.262263 0.143284 0.696048 0.001037 0.906781 -0.848288 -0.384768 -0.863479 1.470997 -2.664583 0.479140 0.138673 -0.346037 -0.537039 -1.037570 0.107383 -0.288814 -0.375710 0.261869 -0.101427 -0.082185 -1.393382 0.372069 -1.614654 0.539296 0.432878 -0.842607 -0.018693 0.147371 -0.728309 -0.506759 -0.656088 0.876965 0.536856 0.086488 -0.267987 0.024240 0.757023 -0.145680 -0.718734 -0.742002 -0.051433 0.052682 -0.149265
keer 0.016639 0.037811 -0.310354 -3.143887 0.981424 0.495367 1.643772 0.374178 -0.168333 0.432983 -0.055265 0.865847 -0.001068 -0.221766 1.385375 -2.229252 -0.107429 -0.040897 -0.830130 -1.049632 0.747406 0.573222 0.275391 -0.585439 -0.277017 -0.777507 0.577424 0.007074 -1.239403 -1.007741 -0.111228 0.034517 -0.151756 0.518532 -0.085859 -0.138395 -0.671765 -0.486480 0.658150 0.159954 -0.459995 0.578389 0.001894 -0.569199 -0.742609 -0.373750 0.245515 -0.106457 -0.913592 0.444166
goede 0.009757 0.338996 0.135933 -3.720900 -0.921526 -0.331451 1.673990 -0.063056 0.012850 -0.092145 0.673864 -0.297048 0.124246 -0.280867 0.700803 -1.621797 -0.717086 -1.104767 0.206238 -0.081151 0.109736 1.089343 -0.063997 -1.834669 -0.118877 -0.173681 0.448630 -1.203881 -0.869359 -0.637282 -0.278130 0.801821 0.356820 -0.550616 -0.846479 -0.986375 0.987649 -0.851519 -1.190052 -0.071754 -0.599485 -0.408724 0.221712 0.396939 0.438780 0.228455 0.241110 -0.048850 0.099335 -0.664803
zelfs -0.475072 0.134735 -0.442461 -3.644507 -0.359825 -0.286059 1.458398 -0.118300 -0.530433 -0.111395 0.538481 0.066738 -0.384514 -0.279702 0.883291 -2.120669 0.163664 0.190058 -0.060793 -0.144084 1.084765 0.265969 0.770798 -1.113777 -0.096136 -0.093931 0.124660 0.211066 -0.884030 0.112861 -0.141321 -0.194490 -0.056048 0.559666 0.560805 0.311610 -0.285559 -0.277391 0.432410 -0.197038 -0.449162 0.189511 -0.387802 -0.192560 -0.049501 -0.147869 0.729140 -0.061541 -1.036004 -0.000758
uur 0.150782 0.846771 -0.727566 -1.997757 -0.780345 0.132761 2.238319 0.784546 -0.222004 0.603660 -0.013495 1.003638 0.039468 -0.056363 2.546518 -1.664879 -0.903925 -0.432246 -0.859410 -2.122003 0.139490 0.122155 1.510502 -1.598853 -1.364593 -0.749609 0.428394 0.108743 0.469248 -1.049002 0.046169 -0.222434 -0.164180 0.430424 0.564579 -0.252410 -1.464164 -0.873185 0.611006 1.687680 0.847675 -0.348197 1.044817 -0.097555 -0.780915 0.466602 -0.024282 -1.400473 0.392121 0.818521
