. -1.324416 1.683979 0.896192 -1.154145 -0.105789 -0.894278 -1.599623 0.844676 1.126082 -0.785822 1.413494 -1.583806 0.443903 0.549185 0.129685 0.382763 0.680376 0.116970 -1.474254 0.177182 1.124108 -1.138994 1.452324 -2.042599 -0.479862 -0.425321 -2.015536 0.575029 -0.955023 1.048458 0.190802 -0.792193 -0.108340 -0.267505 0.359373 0.401104 0.802040 1.128887 0.837635 -0.609078 -0.893402 0.605595 -0.602178 -0.689482 0.485349 -0.825728 -0.026577 -0.421266 0.104043 1.168435
de 0.586591 -0.238654 -1.217168 -1.797508 -1.269297 -0.918459 -1.386261 0.463009 0.076369 -0.068197 1.802230 0.880025 -0.824396 -0.284085 0.466862 0.672432 -0.659650 -0.312057 0.461152 0.005426 0.571313 -0.273959 0.143310 -2.295168 -0.457734 0.302337 -2.395188 1.139914 -1.663494 0.593443 0.745537 1.408486 0.017583 -1.411922 -0.995846 0.119549 1.383759 0.188144 1.751715 -1.643850 -1.031255 -0.005989 -0.129794 -3.176444 -0.415228 0.210724 -0.818179 1.073961 2.351111 -0.683508
<UNK>[nounsg] -0.436557 0.728675 0.912676 -1.136051 -1.511598 -0.468668 -1.799359 1.132911 0.811274 1.571518 -0.410430 0.850433 1.355601 -0.636839 0.423358 1.739942 0.257118 -0.012079 -0.614085 0.759806 1.117850 0.771233 0.011050 -1.327909 -0.680998 -0.923874 -0.575023 1.727892 -1.058460 2.399623 -0.210252 0.255037 -0.373600 -0.058053 -1.890253 0.977621 0.418969 0.863293 1.627624 0.006448 -1.022232 0.071060 0.051619 0.010976 -0.658026 -1.932835 1.315883 0.748626 0.264094 0.919036
, -0.712291 -0.168120 2.676818 -0.894989 -1.164511 -0.906138 -1.154751 -0.997946 -0.512317 -1.025113 0.609638 0.703940 2.197032 -1.327229 1.139325 -0.641524 1.177995 -0.344372 0.628492 -0.320589 -0.201299 0.312135 -0.311644 -0.635865 1.197164 0.080435 -1.316342 1.787445 -2.259608 1.078633 0.893742 1.160498 -1.643665 -1.216392 -0.731594 0.149866 0.472684 0.382572 1.042032 0.171355 0.031582 1.123460 -0.309448 -1.467329 0.727154 0.498223 1.085124 -0.446223 -1.027479 1.872794
<NUM> -0.911996 0.685980 1.903591 -0.333326 -0.884154 -1.332922 -3.050651 -0.131985 0.296056 0.003486 -0.433568 0.473827 -0.021409 -0.037958 -1.458568 1.005551 0.933763 -0.081794 -0.798511 -0.140601 -0.409755 0.300607 0.417006 -0.707050 0.098123 -0.529963 -1.192915 3.179158 -2.464292 -1.436522 0.417490 -1.359933 -0.210288 -1.323789 -0.740691 0.458217 0.738299 -0.360349 1.614706 -0.208693 0.538709 -0.725756 0.725431 0.562074 -1.480531 -0.389508 -0.484120 0.406654 -0.007500 -1.174296
en -1.290491 -0.206726 0.987062 -0.737323 -0.635932 -0.014611 -0.420186 -2.169258 0.311456 0.846349 -0.246428 -0.209483 0.349887 -1.368993 -0.990306 -0.200561 -0.987804 0.215877 -0.905130 -0.371016 -0.137255 -1.389567 0.769736 -1.541593 -0.294988 -1.738985 -0.328240 0.238494 -1.204102 2.250851 0.439541 0.262661 -1.039433 -2.245980 0.596517 0.399893 0.172992 2.826436 0.887938 -0.139264 -0.165475 -0.658021 -1.263791 -1.791247 -0.410547 0.242662 -0.339637 0.441695 0.051993 1.222633
van -0.622245 0.111336 0.489641 -0.955279 -1.436386 -0.784120 -0.731467 0.963595 -0.103420 -0.439316 2.504249 0.732566 1.550456 -0.428070 -0.516716 -0.098855 1.399437 0.761856 -0.709965 -1.668448 1.138890 -1.352546 1.950991 -0.333101 -0.984852 -0.087481 -1.055496 0.410863 0.382905 0.139747 -0.813105 1.752162 -0.499592 -3.017113 -0.984263 1.323358 -0.828822 0.364482 1.394961 0.136261 -1.152246 -0.382220 1.464181 -0.928601 -1.850020 0.887895 -1.043287 0.698606 0.877935 0.226699
een -0.726055 0.980712 -0.364761 0.553750 1.095605 0.293727 -1.443627 -0.499170 -0.098795 0.871530 0.222209 -1.018597 -0.248975 -2.137708 2.449399 -1.530252 1.120369 0.090249 0.181211 -0.087269 -0.247978 -1.942560 1.658046 -0.820225 -0.789310 -0.440990 -1.581853 1.903875 -1.456995 1.324944 -0.451438 0.461603 -0.335035 -0.530240 -1.606807 -0.253455 -1.121810 0.545132 1.485827 1.287762 -0.326079 -1.795070 1.728458 -0.495173 0.769378 -1.489783 -0.605895 0.372529 0.435163 1.129753
het -1.461712 1.606757 0.957354 -0.988907 -1.848951 -0.820928 0.271113 0.884758 -0.063123 0.379816 -0.062498 0.078947 0.217363 -1.249910 0.674643 0.790419 -0.011223 -0.320541 -1.017356 0.154416 -1.209080 -1.336694 0.748381 -3.496677 0.311261 -0.871904 -0.515946 1.933085 -0.580900 -1.215141 -1.313298 0.847319 0.270285 -1.857454 0.529224 0.069864 -1.884142 -0.372925 -0.067954 0.633966 -2.275441 0.794336 0.056244 0.045885 -0.373465 1.029370 0.291500 1.820841 0.092980 1.714370
in -1.964774 -0.794096 0.439758 -2.018956 0.967141 -1.199877 -1.355784 1.327141 -0.173760 0.195317 0.671329 0.380922 0.210551 -0.671204 0.055000 0.664742 -1.470985 -0.887377 0.503835 -1.257940 -1.378107 0.394145 0.625050 -1.384261 -0.720507 0.172536 -3.588064 1.176925 -0.177167 0.017374 -0.659108 -0.421402 0.105809 -1.233357 -0.372652 0.272600 -0.123443 1.844588 0.617670 -0.479237 -0.969497 -0.379459 0.236686 -0.893611 -0.272941 -0.807282 0.963201 0.655948 -1.452330 0.897911
<UNK>[nounpl] -0.956037 -0.085607 0.181327 -0.748898 -0.773139 -0.886479 -1.151274 -0.595302 1.053454 0.040882 0.038107 0.563669 1.421458 -0.468724 0.531440 1.332483 0.006548 0.154116 -0.759173 -0.181685 0.425663 0.269881 -0.855977 -1.309599 -0.905655 -0.697164 0.395660 0.890485 -0.858409 1.092130 -0.261202 0.616764 0.162203 -0.956940 -1.942648 0.084774 0.412443 1.969827 1.603303 -0.209852 0.024053 0.214273 0.472936 0.056956 0.124266 -0.881755 0.919675 0.339893 0.298238 1.367401
op -0.698345 -0.021870 -0.774996 -0.384998 -2.627898 0.500563 -1.752139 -0.848173 -0.109302 -0.158684 0.957039 0.339490 -0.688958 -0.492870 -0.067301 -0.228325 1.018650 -1.323575 -0.614779 -0.934851 -0.386115 -0.668735 1.522380 -1.556573 0.331847 -0.047960 -0.883043 1.255380 -2.152833 -0.101421 -1.638003 -0.972863 0.517835 -0.339467 0.632020 0.102654 -0.686255 0.991557 0.511735 -1.298769 0.192022 -0.632599 0.824196 -0.239208 0.602050 -0.543491 1.496500 0.267827 0.313494 0.808540
te -0.425110 -0.332841 1.023704 -1.560639 0.487800 -1.107473 0.724195 -0.750581 0.691748 -1.352547 1.055554 0.045822 0.079872 0.490611 0.363300 0.091628 0.589919 0.979194 -1.788874 0.003266 -0.120261 0.365323 2.698415 -1.478870 -0.186036 -1.093782 -0.773793 1.904614 -1.198756 1.328168 -0.746660 -1.163029 -0.989058 0.244467 -0.455380 -0.714343 -0.565042 -0.184664 1.617198 -0.993690 -1.137831 -0.665677 -0.644507 -1.590241 1.159097 0.788998 1.359038 1.026869 -0.107260 0.261357
is -0.626287 -0.247854 0.188089 -0.533971 0.521072 -0.507210 -2.008669 0.543856 0.881607 1.120040 0.744682 1.297587 0.255142 -0.213170 1.333957 -0.617618 -0.358020 -0.566011 -0.441751 0.642438 0.263090 -1.690335 0.408566 -0.915637 0.505856 1.088744 0.706538 1.678602 -0.133302 -0.273299 -0.144443 -1.109875 -0.340182 -0.705260 -0.105936 0.300318 -0.368591 0.802050 1.216472 -0.624282 -1.080938 0.727351 0.306837 -0.598750 -0.219740 0.187473 0.738129 1.429380 0.112295 0.175766
<UNK>[adj] -1.328855 0.394005 -0.014626 -0.450346 -0.613907 -0.272652 -1.274101 0.353466 1.396711 0.936573 0.364729 0.213821 1.466524 -0.927242 0.139955 1.631730 0.643871 -0.212357 -1.199989 0.525745 0.088810 0.678826 -1.124115 -0.578479 -0.842931 -0.769444 0.595100 0.993898 -0.581380 0.947817 -0.516783 0.389700 -0.845807 -0.700148 -2.032860 0.539743 0.072131 0.472275 1.464509 -0.874913 -0.195100 0.402052 0.588961 0.361071 -0.701533 -1.020031 1.119191 0.738061 0.271335 0.573114
met -0.152847 0.290247 -0.553493 -0.063142 0.090097 -0.472328 -0.929163 -0.955700 -1.161794 -1.838909 -0.184568 -0.491093 -0.350544 -0.518467 -0.287769 0.492802 0.561855 -1.288295 -0.892342 0.307431 -0.565998 -0.837718 1.527703 -1.085547 -0.582790 -1.000915 -0.445375 0.977542 -0.597362 0.073995 0.056297 -0.289690 0.485724 -1.555136 -2.334006 0.780269 0.881973 1.522294 0.645393 0.223213 0.277798 0.273866 0.093796 -0.660336 0.295917 -0.563573 0.443126 2.260828 -0.354921 1.148452
voor 0.771539 -0.047925 0.538337 0.635126 0.102170 -2.064402 -1.390708 0.045254 1.224349 0.684703 -0.084488 0.053048 0.469802 -0.623593 1.048969 -0.710792 0.555660 -0.335376 -0.483514 -0.117208 1.073871 -1.222722 0.691862 -1.918605 -0.641732 0.298807 0.067300 0.972114 -0.550596 -0.340462 -0.246673 0.120676 0.121916 -0.791269 -0.562089 0.187726 -0.139628 1.474729 1.730272 0.054500 -0.783889 0.363855 0.171720 -0.976676 0.429913 0.068223 -0.234959 0.400712 0.241844 1.135470
je -1.065595 0.196120 0.750401 -0.612772 -0.937829 -0.180270 0.082393 -0.534531 -2.101393 -0.474051 -0.066636 -0.184561 -0.094973 0.164311 0.722737 -1.316254 -0.709139 -1.672490 -1.065617 0.020304 0.544160 -0.121775 -0.290856 -0.942390 0.384896 0.342296 -0.654676 0.378302 -0.494517 0.433051 -1.165791 0.193338 -0.886077 -1.169355 -0.403303 -0.374615 0.272877 1.429072 1.128230 0.391368 -1.864685 -1.230767 -0.603827 -0.793275 0.853193 -0.370285 0.740536 0.812693 0.542405 0.000679
dat -0.694839 1.236471 1.365255 -1.167944 -0.416386 -1.653198 -0.611341 0.032940 1.197901 2.180138 0.682809 0.213584 -0.314014 -1.542979 0.578695 -1.111765 0.198628 -0.363408 -0.837362 0.294956 0.468522 0.202742 0.440181 -1.443109 0.813724 0.431131 0.540217 0.465683 -0.529263 0.172971 -1.762864 -0.086183 0.304796 -1.995156 -0.283329 -0.131096 -0.101943 -0.044284 0.746515 -1.125749 -0.700304 0.040385 0.461194 -0.790666 0.970005 0.559772 0.182472 -0.039489 0.665868 0.496178
zijn 0.467590 0.258547 1.224088 -0.716942 0.581093 -0.008730 -1.603769 0.437846 1.117419 0.178791 0.664092 0.647593 0.584356 -0.582160 0.072005 -0.652116 0.174993 -1.450686 -0.646190 0.476544 -0.258207 -1.060552 0.918930 -0.034071 0.200104 -0.162314 -0.494139 0.246003 -0.519207 -0.020660 0.689335 -1.179725 0.102006 -1.280098 -0.954296 -0.015053 0.008793 1.326478 0.847472 -0.407072 -1.555050 0.095090 1.059842 -0.748228 -0.915041 0.564215 0.377799 0.559461 0.631515 0.896299
&apos; -1.540741 0.874970 0.255813 -0.378676 -1.047307 -0.073256 -1.529644 -0.576662 1.035087 1.404839 0.882345 -0.775144 0.611069 -0.584253 1.529247 0.242076 -0.386738 -0.724550 -1.113071 -0.307001 0.695741 1.448464 0.259439 0.567168 -1.248201 -0.985344 -0.948927 0.236851 -0.224362 -0.655511 -0.581101 -0.611589 -0.909747 -0.530241 -2.036596 -0.706269 -0.390796 0.510955 0.562956 -0.548951 -0.362148 1.074492 -0.346001 -0.402765 -1.128793 0.334630 0.519926 1.243860 0.630321 0.149880
die 0.178628 0.228716 0.054145 -0.424614 0.020365 0.119383 -1.083465 -0.959018 0.642423 -0.409838 1.326190 -0.003507 0.523594 -0.471892 0.110868 -0.362085 0.545473 -1.129636 -0.430022 -0.033727 -0.196595 -0.666558 -0.213123 -1.123808 0.493326 -0.516183 -0.656811 0.462591 -1.508823 -0.469190 -0.447887 -0.014042 -0.025433 -1.389845 -1.358888 -0.051604 0.004695 0.434357 1.491645 -0.291339 -0.327103 -0.729956 1.885050 -1.124447 0.446324 0.158354 -0.267943 0.211657 0.175769 0.134132
om 0.247594 -0.453070 0.411679 -1.178993 0.224225 -0.017229 -0.323118 -1.137884 0.903796 -0.559000 1.034307 -0.371570 0.093867 0.823732 0.136496 -0.500638 -0.196433 0.052390 -1.186750 0.294663 0.245347 -0.745832 0.792855 -1.655060 -0.057654 -0.367643 -0.340884 1.868511 -1.042860 -0.085943 -0.553480 -0.875178 -0.520364 -0.373693 -0.404662 -0.944406 -0.326530 0.281181 1.475575 -0.663312 -0.984931 -0.547123 0.237567 -0.401705 1.054057 0.720103 0.691332 0.777613 0.115810 -0.459716
niet -0.962418 0.770078 0.819195 -0.434801 0.071767 -0.828110 -0.643323 -0.237595 0.776962 0.388730 0.696596 0.211096 0.306991 0.184153 0.550215 -0.510282 0.500979 -0.408708 -1.648297 1.082362 -0.455479 -0.283592 -0.285153 -1.090004 0.974862 0.138016 -0.264160 0.375265 -0.305330 -0.195601 -0.635727 -0.294374 -0.263900 -0.829984 -0.412534 -0.267580 0.122317 0.440182 1.200373 -0.820132 -1.213228 -0.291037 0.133124 -1.131953 0.129722 0.584737 0.895020 0.191586 -0.177301 0.796537
aan 0.746246 0.432673 0.089316 -0.185821 -0.780757 0.141416 0.028441 -0.139660 0.271309 -0.023735 0.313546 -0.846047 0.260855 0.269216 0.069080 0.223786 0.632350 -1.103103 -1.240799 0.367094 -0.273101 -0.231522 0.508467 -1.241103 -1.237821 -0.839666 -1.043871 1.364241 -0.544429 0.130265 -0.372021 0.915494 -0.025138 -0.261996 -1.042256 -0.627203 -0.749907 0.511162 0.700221 -0.119919 -0.782722 0.147091 -0.872953 -1.182892 0.671626 0.555697 0.669734 0.544233 0.563002 -0.155697
- -0.223173 0.188730 -0.287151 0.849217 -1.294276 0.254578 -1.021732 0.282415 0.996421 -0.212054 -0.626470 0.164089 -0.252052 -0.923427 -0.353916 0.925199 0.204602 -1.107405 -1.014978 -0.046982 0.047197 0.271531 0.034021 0.473443 -0.685485 -0.813525 -0.699364 1.737717 0.434306 0.185929 -0.043752 0.502401 -2.072976 -1.759952 -0.088547 -0.153230 0.605949 0.941107 1.543270 -1.044455 -0.472468 -0.893366 -0.189448 -0.415349 0.522696 0.259198 -0.058865 1.492587 -1.391050 -0.300468
we -0.647644 1.067135 -1.263444 -1.061165 -0.209911 -0.478286 -0.058867 -0.137661 0.400400 0.577651 -0.221445 0.893006 0.287244 0.169246 0.670082 -0.323624 0.121023 0.048481 -0.930801 0.039895 -0.329646 0.814896 0.311795 -1.593664 0.234098 -0.544710 -0.964592 2.325883 -0.948844 0.013495 0.115400 -0.506699 0.956160 -0.309580 -1.262795 -0.228609 -0.287280 1.500264 0.249279 0.938126 -0.364822 -0.530114 -0.359223 -0.454916 0.964957 1.199079 0.181569 -0.574229 0.134814 -0.570086
of -1.156828 0.366411 0.950098 -0.269167 -0.290264 -0.637234 -0.842381 -0.434868 0.096010 -0.389976 0.195871 -0.453716 0.930929 0.918891 0.520846 0.072819 -0.080560 -0.251960 -0.076277 -0.522307 0.082551 -0.570348 -0.496932 -0.638171 -0.321350 0.393372 -0.413008 0.876018 -0.443638 1.067754 -0.843563 -0.293967 -1.037460 -1.116291 -1.651064 -0.259106 0.027818 0.710401 0.693145 -0.636378 -0.394346 0.095481 0.518758 -0.250989 -0.146895 -0.467721 1.769870 -0.225542 0.034123 0.489960
er -0.531403 0.906345 0.452234 -0.557884 -0.263966 -0.436190 -1.753401 -0.211632 0.135710 0.959090 0.458083 0.679898 -0.058250 -0.333333 0.638079 -0.621655 0.639163 -0.715596 -1.050846 0.882373 -0.392470 -0.476021 0.136603 -1.230715 0.744976 0.083916 -0.589266 1.059928 -0.252331 -0.132165 -0.226485 0.128292 0.280803 -0.934194 -1.187163 -0.182144 -0.596413 0.314166 1.221285 -0.837991 -0.558204 0.095643 0.174461 -0.794572 -0.420117 0.289705 1.064638 -0.291833 0.208993 -0.150932
: -0.802745 0.174552 0.572077 -0.313245 -0.599896 -0.679625 -1.265138 0.335887 0.699105 -0.013800 -0.185992 0.451727 0.724374 -0.414360 -0.227690 -0.044242 0.204239 -0.838568 -1.604653 -0.326047 -0.099030 0.842328 0.210980 0.860320 -0.857614 0.491543 0.460568 1.594434 -0.756863 0.023466 -0.560600 -0.084989 -0.177819 -0.950199 -0.089161 -0.268579 0.168755 0.590893 1.235241 -0.817233 -0.189623 -0.667994 -0.209765 0.202603 0.406196 -0.259797 0.056742 1.224223 0.159893 -0.038107
&quot; -1.051570 0.953689 -0.037231 -0.880117 -0.005312 0.056366 -1.196887 1.054169 0.949841 0.261154 0.610483 0.511202 1.062694 -1.332117 -0.029244 0.092547 -0.415980 -0.689295 -1.389299 -0.349935 -0.701514 1.030513 0.027780 0.732538 -0.981986 0.445421 0.647098 0.957129 -1.052257 0.123425 0.546531 0.583578 0.908828 -0.656005 -0.188417 -0.408992 0.325184 0.265580 0.780200 -0.854000 -0.571195 -0.141986 -0.074586 -0.169851 0.397906 -0.414390 -0.579162 1.226392 0.553839 0.836552
) -1.426159 0.600762 0.420573 0.054649 -0.594751 -1.126116 -1.538100 -0.182684 0.972202 -0.213442 -0.278841 -0.613676 1.017263 -0.059444 0.145154 0.534003 0.471834 -0.222356 -0.982547 -0.426225 0.266231 -0.085421 -0.461036 -0.176920 -0.651054 -0.114888 -0.447874 1.757485 -0.887298 0.062000 0.279892 -0.138428 -0.977705 -0.863943 -0.423356 -0.065146 0.675567 0.631245 0.836968 0.105883 -0.475862 0.186749 -0.762444 -0.064013 -0.239503 -0.252828 -0.638365 0.469145 0.174968 0.432591
( -1.170913 0.741172 0.168316 0.142953 -0.768591 -0.932420 -1.542238 -0.122342 0.895116 -0.136253 -0.144294 -0.644860 0.745792 -0.028525 0.231285 0.719317 0.580780 -0.373114 -0.921523 -0.387767 0.149107 -0.351480 -0.401919 -0.010495 -0.810989 -0.108700 -0.490683 1.544066 -0.846322 -0.237154 0.276923 -0.208979 -0.719365 -1.364284 -0.639291 -0.004544 0.724672 0.737758 0.543414 0.017451 -0.008616 0.120747 -0.524915 -0.120296 -0.251067 -0.162720 -0.789799 0.561520 0.170408 0.330682
ook -0.333184 0.238343 0.217900 -0.456262 -0.462566 -0.178094 -1.135443 -0.213254 0.152963 0.470638 0.223587 0.626961 0.263987 -0.437517 0.619068 -0.701350 0.365786 -0.589275 -1.198888 0.547280 0.005115 -0.221738 -0.172669 -0.959020 0.493043 0.136887 -0.986009 0.802315 -0.481719 0.066911 0.018665 -0.022753 0.261415 -0.996591 -0.487415 0.105540 -0.110316 1.452635 1.046530 -0.266213 -0.755819 0.054281 -0.115342 -0.728524 0.121058 0.633738 0.568549 -0.125644 0.168455 0.102487
? -0.457659 -0.020094 -0.202583 -0.539791 0.050847 -0.423001 -0.274212 -0.239780 -0.002313 -0.341636 -0.310304 0.113061 0.117479 0.401655 0.451959 -0.314413 -0.120804 -0.463442 -1.331637 0.242332 0.064567 -0.050274 0.292522 0.016214 -0.164976 0.109042 0.430942 0.840910 -0.083909 -0.181532 -1.188504 -0.401776 -0.433416 -0.592322 -0.867802 -0.248209 -0.117715 0.601228 1.371829 -0.125791 -0.933695 -0.449735 -0.036270 -0.255784 0.328071 -0.232437 0.513119 0.520386 0.585351 0.003195
als -0.692420 0.431400 -0.113513 0.542074 -0.408594 -0.528127 -0.856085 -0.255146 0.253336 -0.500955 0.616835 -0.094058 0.581030 -0.883392 0.437466 0.003267 0.290692 -0.507395 -0.600290 0.348150 0.375214 0.170429 -0.109611 -0.679635 -0.246702 0.198953 -1.203281 0.005685 -0.871579 -0.040408 -0.608125 0.322240 0.003921 -0.786440 -0.341427 0.000184 -0.278962 0.939542 0.801178 -0.616363 -0.961755 0.395382 0.501996 -0.627245 0.181540 0.015169 0.828205 0.523812 0.038930 0.798836
maar -0.914277 0.557396 0.340433 -0.038357 -0.341874 -0.301700 -0.908554 -0.278317 0.492920 0.461413 0.450404 0.791907 0.484497 -0.127185 0.692756 -0.864649 0.610201 -0.301111 -1.374079 0.619720 -0.304376 -0.164612 -0.181632 -0.994044 0.947758 0.275251 -0.775916 1.241352 -0.710789 -0.018060 0.277987 -0.240465 -0.079487 -0.885657 -0.518302 -0.072183 -0.311827 0.879551 0.580488 -0.263605 -0.323526 0.373050 -0.232482 -0.911559 0.247469 0.766624 0.813720 -0.094651 -0.163507 0.300474
naar -0.142987 0.209338 -0.962259 0.348999 -1.301473 0.430670 -0.632219 0.163550 -0.643048 0.068966 0.322919 -0.274529 1.405992 0.457646 0.000588 -0.366198 -0.648228 -0.703585 -0.856532 -0.399133 0.127106 -0.281099 0.798075 -2.060708 -0.132980 -0.330399 -0.589189 1.550642 -2.038611 -0.451577 0.205692 -0.456349 -0.150491 0.986131 -0.625428 0.063015 -0.478831 1.339360 0.386820 0.038479 -0.890068 -0.563492 -0.888094 -0.335392 0.977811 -0.072255 0.635743 0.446876 -0.119855 -0.389558
nog -1.146681 0.413609 -0.329514 -0.425016 -0.323878 -0.182445 -0.933267 -0.235264 0.333526 0.794764 -0.093983 0.434685 -0.500489 0.017093 0.981688 -0.814027 0.666743 -0.095157 -1.214077 0.450328 -0.750548 -0.175480 0.199274 -1.147338 0.698967 -0.073733 -0.832826 1.436376 -0.051138 0.210589 -0.131019 -1.091496 0.653693 -0.774967 -0.936764 -0.143355 -0.318362 1.216915 0.539705 0.125172 -0.129813 -0.466601 0.189662 -0.767983 0.231597 0.555713 0.632959 -0.442529 0.456707 0.445638
De 0.263346 -0.065292 -0.423661 -0.175980 -1.150664 0.256095 -1.590601 0.404472 0.886181 0.210986 0.644387 0.357927 0.151181 -0.776719 -0.145208 0.541513 -0.307261 -0.819328 -0.282491 -0.185972 -0.242821 0.205925 -0.110171 -0.106320 -0.734592 0.173393 -0.102101 0.947628 -0.783297 -0.244740 0.981821 0.833063 0.223184 -0.476573 -0.107087 -0.324802 0.740737 0.616432 0.869403 -1.067166 -0.223671 -0.112227 0.409424 -0.299301 -0.104326 0.114768 -0.452005 0.847415 0.587916 0.095578
dan -1.220441 0.515647 0.531427 -0.075958 -0.087369 -1.103289 -1.043212 -0.047511 -0.682387 0.292021 -0.007279 0.396812 0.190262 0.026965 0.479075 -0.497522 0.858085 -0.321780 -1.324543 0.565403 -0.511918 -0.193496 0.147558 -0.655819 0.860163 0.127942 -0.709000 0.942033 -0.779899 -0.364301 -0.007381 -1.097867 -0.002400 -0.633017 -0.711553 0.089599 -0.031430 1.073768 0.928320 0.052353 -0.385967 -0.551523 -0.322261 -0.728219 -0.521883 0.404522 0.336148 -0.199402 0.168918 -0.129046
We -0.270117 1.045495 -0.641652 -1.034019 0.572197 -0.516036 0.384173 -0.090478 0.782063 0.327297 0.357719 0.652276 0.774423 0.186819 -0.049684 -0.190146 0.215618 0.165046 -1.507136 0.000324 -0.861905 1.120550 0.972736 -1.301191 -0.029576 -0.768462 -0.411473 1.447808 -0.673303 0.335593 0.474063 -0.221638 1.081424 0.252804 -1.259620 -0.474989 -0.186230 1.480877 0.530393 -0.006159 -0.281102 -0.663000 -0.422994 -0.540726 0.980397 1.248917 0.493823 -0.802369 -0.450636 -0.370279
bij -0.276081 -0.189801 -0.230178 0.012466 -0.835693 -0.618402 -0.416248 -0.039472 0.292062 -0.273631 0.074485 -0.185878 0.233905 -0.364152 -0.007852 0.256035 0.439470 -0.358240 -0.631278 0.347685 0.010131 -0.037591 -0.218205 -1.205572 -0.118941 -0.393796 -1.102584 0.520996 -0.284172 -0.092045 -0.172886 0.269339 -0.212569 -0.858295 -0.598289 0.295503 0.094089 1.294650 0.536387 -0.240954 -0.832103 0.436325 0.073236 -0.523745 0.081357 0.618896 0.951379 0.067663 0.360713 0.252903
kan -0.570047 0.262339 -0.032527 -0.493723 -0.382413 -0.647601 -0.634915 -0.418905 -0.785202 -0.291044 -0.274061 -0.494546 0.530324 0.111958 0.216839 -0.424610 -0.168016 -0.097050 -1.032685 0.894808 -0.053775 -0.195338 -0.153530 -0.992515 -0.123147 0.148321 -0.712268 0.211752 -0.734391 0.004469 -1.118555 -0.213393 -0.039784 -0.253595 -0.399600 0.329395 0.128383 0.721246 1.010370 -0.426731 -1.415974 -0.859571 -0.278795 -0.466758 0.261706 -0.242412 0.651641 0.111153 0.790294 0.096481
worden -0.873604 1.291444 0.110537 -0.073561 0.612245 -0.873885 -0.658137 -0.780109 0.574111 -0.257423 0.370832 -0.679348 1.097045 0.014155 -0.657221 -0.194255 -0.534075 -0.541791 -1.061044 0.763773 0.004962 0.846538 -0.341277 -0.617811 -0.322439 -0.221680 -1.211417 -0.642690 -0.806133 -0.383330 -0.169623 -0.359500 0.284813 -0.206776 -0.989531 -0.085013 0.416202 1.571426 0.589085 -0.068689 -1.049667 -0.482459 0.630728 -0.325892 -0.512085 -0.044531 -0.156952 -0.091265 0.366465 0.438321
door -0.146487 0.913674 0.528079 0.808497 -0.102604 -0.687881 -0.643737 -0.117002 0.650396 -0.127752 0.480376 -0.611602 1.607967 -0.213166 -0.776207 0.572590 -0.266095 -0.383630 -0.747969 0.475002 0.036101 0.563250 0.110306 -0.705902 -0.605173 -0.341355 -0.824394 0.450945 -1.442461 -0.290765 0.393477 0.039917 -0.399304 -0.214067 -0.833489 -0.083778 0.085713 0.792176 0.227313 -0.010519 -0.813573 0.011353 0.161036 -0.404616 -0.109092 0.003750 0.176689 0.810099 -0.141049 0.093899
... -1.200527 0.182452 0.221428 -0.425354 -0.520421 -0.591580 -0.680200 -0.234522 0.347323 -0.302238 0.206974 0.085808 0.667447 0.055712 0.448702 0.061669 0.539370 -0.142164 -0.880618 -0.481634 0.260027 0.264542 0.364981 0.032087 -0.378890 -0.068591 0.030346 0.967637 -0.586023 0.440193 -0.020207 -0.467487 -0.163373 -0.496529 -0.284969 -0.366484 0.118233 0.899888 0.519802 -0.073836 0.058054 0.151206 -0.665420 -0.453080 0.344110 0.032299 0.261508 0.284021 -0.017802 0.474938
u 0.202645 0.184742 0.876821 -0.598643 -1.499585 -0.871312 -1.393140 -0.467763 -0.516659 -0.086006 -1.116463 -0.423789 0.023363 -0.061625 -0.696902 -0.706809 0.269311 -0.165634 -1.081691 0.797352 0.076571 0.256218 -0.362531 -0.800441 -0.244414 -0.104313 -0.680889 1.204341 -0.175682 -0.448117 -0.867201 0.618148 -0.161301 -0.483607 -0.106792 -0.498010 0.088984 1.402728 1.119265 -0.707578 -1.060220 -0.691342 0.347929 1.130170 0.439697 0.090562 0.905953 -0.912415 0.793343 -0.340315
ze -0.320113 1.108933 0.260335 -0.316832 0.295109 -0.383937 0.237653 -0.290799 0.167324 0.242890 0.103198 0.693499 0.743204 0.094201 -0.517870 -0.534939 -0.128884 -0.743869 -0.976434 0.451661 -0.517018 0.398784 -0.049422 -1.020121 0.642978 -0.228010 -0.785927 0.851983 -0.974556 0.286198 -0.460709 -0.237498 0.006387 -1.022408 -1.149687 0.591319 -0.207268 0.526667 0.948591 -0.077472 -0.242502 -0.082168 -0.021891 -1.103159 0.472843 0.575922 0.604997 -0.584479 -0.805203 -0.519066
ik -1.425017 -0.118277 0.121959 -0.558932 -1.018329 0.306619 -0.550926 0.229212 -0.809036 0.376941 -0.271841 0.923951 0.188827 -0.597134 0.106113 -1.145682 0.356096 -0.666543 -2.206232 0.842723 -0.402765 0.201723 -0.510681 -0.105422 1.282795 0.124129 -0.504391 0.455284 -0.751786 0.177007 -1.017285 -0.213146 0.351300 -1.424504 -0.449127 0.634116 -0.371965 -0.083308 0.792474 0.212084 0.002928 0.120931 -0.707972 -0.836772 -0.192957 -1.116500 0.356206 -0.209191 0.741760 0.548335
ons -0.365574 0.986997 -0.337906 0.048844 -0.619985 -0.046367 0.093529 0.446495 0.421479 0.825848 0.098821 -0.206301 0.820916 -0.708946 0.032727 -0.256502 -0.136170 -0.436028 -0.739989 -0.167866 -0.134517 0.340876 0.844099 -1.377462 -0.149292 -0.742255 -0.754936 1.194515 -0.263942 0.075743 -0.210714 -0.147814 0.090395 -0.351738 -0.743093 -0.101889 -0.604173 1.039591 -0.181281 0.117711 -0.648299 0.204931 -0.355975 0.100683 0.920856 0.984418 1.102723 0.004619 -0.832929 -0.288219
deze 0.454611 0.171124 -0.531820 -0.570526 -0.207075 -0.517653 -0.860656 -0.098101 0.132082 0.404329 0.412900 0.213912 -0.084145 -0.509362 0.184565 0.097601 0.145921 -0.161065 -0.182327 -0.045498 0.402801 -0.175520 -0.264255 -1.048435 -0.405365 -0.528791 -0.523272 0.493080 -1.235351 -0.099220 -0.600375 0.121514 0.480381 -0.667912 -1.065709 0.452273 0.312049 0.674286 1.126801 0.092047 -0.629365 -1.147157 1.087656 -0.142313 0.143141 -0.265433 -0.206591 0.548623 0.915662 -0.253763
! -0.500010 -0.320860 0.014479 -0.279303 -0.393330 -0.104983 -0.291447 -0.392910 0.205606 0.278196 0.197081 -0.038707 0.001084 -0.014096 0.618239 -0.090732 0.306729 -0.358848 -0.488230 -0.268546 0.352994 0.031316 0.481249 -0.101780 -0.270219 -0.177084 0.176976 0.347838 0.016844 0.152416 -0.306705 -0.363696 -0.482596 -0.325786 -0.314486 -0.220931 -0.136745 0.744645 0.748486 -0.343269 -0.432337 -0.263531 -0.257041 -0.458310 0.128265 0.222599 0.296623 0.516082 0.085140 0.278790
uit -0.766523 0.310607 0.083735 -0.328659 -0.139909 -0.447013 -0.242546 -0.468896 0.069060 -0.171702 0.951592 -0.282105 0.290707 -0.243144 0.289224 -0.093282 0.001421 0.056156 -0.546655 -0.320067 -0.194707 -0.144764 0.757137 -0.963561 -0.259430 -0.481402 -0.146063 1.062094 -0.729727 -0.042694 -0.018961 0.350311 -0.439619 -0.472679 -0.872001 -0.281037 -0.004458 0.262159 0.855170 -0.362089 -0.350667 -0.390983 0.033802 -0.546699 0.261686 0.349755 0.182590 0.623624 -0.413473 0.154326
tot -0.431412 0.208688 0.237274 0.079643 -0.625067 -0.415347 -0.762461 0.360541 0.325142 0.339639 0.294746 -0.865227 0.107344 -0.151232 -1.143683 0.560613 0.645878 -0.488457 -0.614528 0.121459 -0.371250 -0.298788 0.281485 -0.665513 -0.415813 -1.059697 -1.623352 0.905474 -0.156913 -0.448799 -0.927916 -0.324714 -0.869781 -0.787938 -0.686769 0.416034 -0.057202 0.189000 0.466593 -0.527611 -0.008060 -0.470753 0.064213 -0.700305 -0.377887 0.267452 0.434588 0.216777 -0.342685 -0.844684
Het -1.104736 0.577438 0.628385 0.006185 -0.290298 -0.184586 -0.826858 0.609301 0.105775 1.110532 0.129259 0.217752 0.132033 -1.135928 0.615979 -0.039432 -0.010785 -0.380752 -0.822862 0.668776 -0.241370 -0.235239 0.561253 -0.429994 -0.238414 0.305907 0.351484 1.134146 0.139747 -0.351594 -0.600046 0.484343 -0.031786 -0.610109 0.232123 -0.317534 -0.911154 -0.315658 0.580406 -0.204378 -1.145795 0.209617 0.095929 0.096872 -0.166887 -0.230938 0.174123 1.573423 -0.145258 0.606202
wordt -0.567369 0.657879 0.630648 0.615311 0.163900 -0.131649 -1.289913 0.084330 -0.155004 0.238622 0.096600 -0.718869 0.414407 -0.424649 0.269287 -0.185618 -0.461356 -0.822964 -0.584359 1.042497 0.151495 -0.407242 -0.218231 -0.724955 -0.147547 0.438491 -0.762843 0.170403 -0.449086 -0.207758 0.259658 0.298712 -0.293602 -0.134991 -0.255150 0.040939 0.272174 0.476205 0.424197 0.025095 -1.154643 0.597521 0.114211 -0.285748 -0.373641 -0.261679 0.178550 1.026116 0.380854 0.327390
meer -0.690559 0.254388 0.624709 -0.746014 0.090698 -1.429031 -0.730512 -0.331208 -0.278270 0.065821 0.670164 0.295634 -0.284347 0.343426 0.335073 0.086519 0.747143 0.729938 -1.364600 0.324127 -0.256326 -0.389909 0.119213 -0.988916 0.646768 -0.327106 0.284559 0.291449 -0.237240 -0.368384 -0.168890 -0.319683 -0.000082 -0.741507 -0.793006 0.212832 0.458104 0.810907 1.100136 -0.398482 -0.694387 -0.592106 -0.133499 -0.439767 -0.513422 1.095508 0.143763 -0.054591 0.161121 0.048691
dit -1.057747 0.709429 0.681203 -0.664304 0.023779 -0.644099 -0.533293 0.626378 -0.340058 0.850637 0.188576 0.220751 0.146575 -1.194216 -0.181305 -0.270974 0.295048 -0.345901 -0.523197 0.262822 0.060801 -0.379121 -0.097896 -0.888210 0.119420 -0.165580 -0.630208 0.777422 -0.542838 -0.258121 -1.188511 -0.249515 0.023922 -1.282046 0.204801 0.529079 -0.795954 -0.266184 0.514180 -0.063991 -1.057484 -0.346089 0.157820 -0.343586 -0.161902 -0.347853 0.234755 0.642178 0.022590 0.054969
hebben 0.064248 0.714764 -0.183270 -0.519833 0.516866 -0.296131 -0.780140 0.190453 1.082882 0.429039 0.405514 0.652047 0.428439 -0.300795 0.067560 -0.225523 0.663889 -0.833203 -1.140488 0.253182 -0.254831 -0.060699 0.254585 -0.489290 0.177253 -0.280207 0.063173 0.795209 -0.155348 -0.078903 -0.065206 -0.810537 0.681297 -0.758556 -0.686052 0.419173 0.045465 1.381564 0.804502 -0.217483 -0.078340 0.010995 0.388903 -0.338768 0.422576 0.460046 0.109020 -0.187421 -0.513894 0.387006
al -0.655228 -0.043992 -0.203997 -0.592584 -0.412479 -0.008546 -1.291939 -0.015957 0.512634 0.623724 0.287207 0.590951 0.063494 -0.308367 0.302168 -0.628445 0.069317 -0.990636 -0.954864 0.326565 -0.633272 -0.254964 0.010569 -0.731786 0.539716 0.159570 -0.440912 1.070542 -0.514842 -0.458782 0.165750 -0.816631 0.281403 -0.790111 -0.137316 -0.140481 -0.266648 0.930475 0.617081 -0.188692 -0.413240 0.107587 -0.147928 -0.462224 0.065316 0.377665 0.205549 0.288962 0.152853 -0.084652
over -0.630032 0.110650 0.306355 -1.124598 -0.201332 -0.486948 -0.126635 -0.274600 -0.240077 0.042004 0.675115 0.104362 0.287862 0.033165 0.724224 -0.237558 0.235342 0.524564 -0.874976 -0.759030 0.107901 -0.189895 0.256656 -0.616176 -0.116631 -0.403231 0.281738 0.655071 -0.286662 0.496767 -0.409619 0.038495 -0.252657 -0.654467 -0.906160 0.003133 -0.005758 0.976281 0.968193 -0.249492 -0.833504 -0.853355 0.147892 -0.113559 0.467980 0.732297 0.388841 -0.015846 0.014291 0.061940
onze 0.238845 -0.319530 -1.015108 -0.835135 -1.026434 0.087451 -0.668249 -0.085602 0.575885 0.226116 0.576202 0.402062 0.769648 -0.408170 0.161873 -0.283782 0.017111 -0.293274 -0.322851 -1.039750 0.249954 0.142459 0.791155 -0.350428 -0.556297 -0.209853 -0.283635 0.854929 -0.626726 0.059909 0.479501 -0.238170 0.473966 -0.226084 -0.506706 0.031489 0.036174 1.598807 0.375012 -0.119337 -0.024806 -0.227105 -0.373995 -0.409895 0.579065 0.758575 -0.110736 0.197668 0.416332 0.055672
heeft 0.158073 -0.036677 0.324348 -0.221160 -0.094026 0.197734 -1.435175 0.524687 0.865446 0.207089 0.115294 0.220701 -0.138186 -0.354108 0.162573 -0.045998 0.606690 -0.568006 -0.575565 0.604798 -0.144890 -0.830733 0.400010 -0.312434 -0.022066 0.204817 -0.230603 0.741385 0.196602 0.424695 -0.346078 -0.385889 -0.312010 -0.537400 -0.082795 0.282100 0.183096 0.621687 1.100915 -1.021531 -0.511026 0.038807 0.629306 -0.172766 0.099214 -0.220190 0.481674 0.205625 -0.033861 0.486392
wat -0.691886 0.164651 0.379964 -0.388891 -0.187955 -0.298709 -0.360377 0.047614 -0.302106 0.107110 0.026165 0.421562 -0.096516 -0.068917 0.570547 -0.823589 0.376738 -0.475147 -1.411281 0.472960 -0.026884 -0.108413 0.406472 -0.394520 0.635452 0.184235 -0.143542 0.899196 -0.104731 0.384531 -0.154829 -1.078605 0.161786 -1.222304 -0.798358 0.385182 -0.056437 0.589697 0.740668 -0.013931 -0.154267 0.335217 -0.807727 -1.063373 0.412067 0.315215 0.643211 0.092644 0.332623 -0.266209
kunnen 0.217360 0.660664 0.111940 -0.728690 0.416992 -0.783258 0.472677 -0.717577 0.824441 -0.488906 0.674248 -0.080871 0.521833 0.223489 -0.476351 -0.385514 0.307558 -0.042054 -1.212277 0.238794 -0.088296 0.240864 0.472458 -1.070222 0.023664 -0.898083 -0.549921 -0.010057 -0.633380 0.331942 -0.790660 -0.267317 0.206074 -0.764328 -1.045164 0.223503 0.049061 1.269386 0.801577 -0.258871 -0.312965 -0.636307 0.617304 -0.847047 0.520203 0.571051 0.401698 -0.667854 -0.046480 0.291477
wel -0.855764 0.647940 0.290820 -0.240826 0.013329 0.192939 -0.675147 -0.099622 0.223823 0.356854 0.267548 0.236756 -0.144581 0.006242 0.707654 -0.873801 0.355036 -0.730411 -1.270958 0.685457 -0.306791 -0.168719 0.183665 -0.552800 0.693296 0.249775 -0.327299 0.848144 -0.254209 0.139381 -0.057437 -0.600817 0.504822 -0.632029 -0.519017 -0.222684 -0.352818 0.320032 0.430359 -0.143476 -0.245604 0.294421 -0.107351 -0.525479 0.372336 0.205606 0.673782 0.007151 0.275889 0.160360
Voor -0.107054 -0.162657 0.080700 -0.292230 -0.330153 -0.784338 -0.556891 0.126481 -0.091504 0.368562 0.380459 0.481083 -0.155520 -0.559873 0.355394 0.076485 0.059916 -0.137253 -0.251083 -0.266169 0.493828 -0.389398 -0.166037 -0.562236 -0.151749 -0.063696 0.443219 0.515116 -0.049268 -0.430196 -0.209521 0.064044 0.041201 -0.977502 -0.788759 0.342071 0.207655 0.565100 0.774488 -0.085868 -0.474965 -0.194096 0.382161 -0.286726 -0.016368 0.210313 -0.127052 0.592370 0.147476 0.146980
/ -0.026174 -0.708833 1.505923 -0.339981 -1.508973 -0.500931 -1.802012 0.031628 0.488775 -0.736226 -1.042723 -0.144473 0.162524 0.339025 -1.260398 0.440181 0.157573 -0.219803 0.106910 -0.212672 -0.143864 -0.076392 0.071867 0.256086 -0.472172 -0.089010 -0.186842 1.944082 -0.374761 -0.150235 -0.595942 -0.366394 -0.503790 -0.837021 -0.188038 -0.432121 0.051664 0.619804 0.732570 -0.687043 0.329620 -0.410461 0.601798 1.299683 -0.871879 -0.500710 0.517040 -0.047727 0.351147 -0.196814
hij -0.193788 0.373842 1.334955 -0.349949 -0.246762 0.176793 -0.834528 0.182228 0.132878 0.533599 -0.404665 0.516005 0.662478 -0.747762 -0.465708 -0.601597 -0.105272 -0.471021 -0.506699 1.080229 -0.740438 0.241152 -0.260243 -0.399160 0.566104 0.275208 -0.653431 0.862141 -1.122577 0.629205 -0.194191 0.053453 0.229505 -0.859119 -0.784728 0.107270 -0.486203 -0.295446 0.306404 -0.548600 -0.413005 0.525013 0.124312 -0.350689 -0.156073 -0.225704 1.348721 -0.379417 0.194908 0.051881
geen -0.267339 0.677558 0.261151 -0.139277 0.423559 -0.407876 -0.670058 -0.148461 0.642770 0.498729 0.212990 0.006368 -0.064843 0.070574 0.545149 -0.548667 0.654748 -0.268930 -1.005392 0.505707 0.322920 -0.866623 -0.077873 -0.594759 0.299241 -0.000438 0.036626 0.233887 0.563022 0.014036 -0.395286 -0.053233 0.027634 -0.881345 -0.914987 0.199711 -0.122807 0.454775 0.919578 -0.265620 -0.508167 0.230768 0.074207 -0.353884 -0.091355 0.766828 0.089459 -0.502990 -0.038858 0.060158
was -0.608349 0.325294 0.221951 -0.048254 0.308227 -0.162369 -1.049210 0.493084 0.493499 0.618858 0.166442 0.458566 0.080069 -0.474093 0.243438 -0.113743 0.260061 -0.334212 -0.599392 0.612462 -0.498681 -0.487236 0.034880 -0.529169 0.342741 0.460374 -0.239158 0.887502 -0.474533 0.135360 0.357707 -0.138920 0.327536 -0.570818 -0.209456 0.330993 -0.194828 0.037403 0.505813 -0.218090 -0.209424 0.411646 0.119942 -0.309313 -0.440338 -0.279674 0.020394 0.256055 0.201778 0.332068
hun 0.529759 0.176718 0.134431 -0.478123 -0.166125 0.198249 0.259536 -0.282872 0.428813 -0.201295 1.372419 -0.071268 0.492542 -0.145900 -0.453532 -0.285860 -0.090351 -0.878885 -0.415811 -0.710168 0.234456 -0.033139 1.067692 -0.705437 -0.386670 -0.750305 -0.502394 -0.050645 -0.918740 0.230021 -0.356302 -0.085544 0.001551 -0.655582 -0.967299 0.204133 0.017538 0.652942 0.380243 -0.345635 0.060992 -0.072135 0.353973 -1.013780 0.414128 0.301803 0.193586 0.376720 -0.242522 0.191580
zich -0.159478 0.374129 0.421752 -0.206288 -0.184247 -0.012828 -0.283421 -0.446065 0.564953 0.113974 0.431021 -0.215077 0.589092 -0.066613 -0.040395 -0.152382 0.363501 0.006784 -0.799614 0.572375 -0.342668 -0.118732 -0.169155 -0.765752 -0.073033 -0.347096 -0.833148 0.422515 -0.481869 0.375290 -0.261983 0.283987 -0.218574 -0.072140 -0.445048 -0.270078 -0.187816 0.714315 0.881054 -0.713685 -0.699984 -0.353966 0.052574 -0.634584 0.489114 0.283951 1.074539 -0.141918 -0.253140 0.212501
s -1.157931 0.636298 0.071519 -0.046875 -1.139418 -0.145356 -1.050366 -1.298858 0.720891 0.274679 0.710088 -0.948141 0.456216 -0.001672 0.840816 0.233470 -0.335531 -0.645999 -0.529816 -0.601530 0.770938 1.100445 0.242658 0.296162 -0.504928 -0.544423 -0.742737 -0.274390 -0.227343 -0.604672 -0.076382 -0.640621 -0.780608 -0.226077 -1.234508 -0.927451 -0.077762 0.565506 0.222987 -0.436317 0.086794 0.871085 -0.469270 -0.286057 -0.710608 0.672128 0.497849 0.860123 0.213074 0.096876
Ze 0.116042 0.897507 0.147564 -0.376711 0.708179 -0.216601 0.425082 0.037671 0.523885 0.400785 0.430359 0.450301 0.579982 -0.144213 -0.438802 -0.146017 0.360743 -0.136511 -1.093588 0.534991 -0.539942 0.342987 0.463239 -0.935424 0.062207 -0.467544 -0.431200 0.352366 -0.646868 0.427265 0.088328 0.143046 0.796091 -0.145132 -0.949017 0.427928 -0.287296 0.692137 0.499216 -0.161160 -0.272053 -0.138687 0.014299 -0.727957 0.491940 0.414093 0.454305 -0.520181 -0.307252 0.057657
o -1.442192 0.693419 -0.383355 0.149023 -1.162127 0.117614 -1.727297 -1.103442 0.744152 0.314921 0.295525 -1.074198 -0.270695 0.113635 1.010882 0.086651 0.066746 -1.292846 -0.706860 -0.154965 0.696000 0.584571 0.281656 0.676714 -0.564008 -0.364322 -0.452766 0.347809 -0.060384 -0.464354 -0.143723 -0.978905 -1.203632 -0.245119 -0.744779 -0.658146 0.201309 0.254698 0.480258 -0.521597 0.312990 0.947409 -0.922451 -0.578037 -0.650658 -0.024760 -0.154358 1.157291 0.267515 -0.349272
waar -0.313838 0.350325 -0.182268 0.022997 -0.537773 -0.266241 -0.287059 0.387730 0.173513 0.121560 0.191037 0.052363 0.784251 -0.193103 0.097746 -0.343836 0.060455 -0.330483 -0.454667 -0.249949 0.113040 -0.384869 0.470152 -0.963112 -0.147836 -0.221496 -0.730046 0.911238 -0.664947 0.165986 -0.161194 -0.070776 -0.035259 -0.541364 -0.321091 0.266899 -0.323858 0.907381 0.260722 0.121706 -0.346088 0.263884 -0.231937 -0.379229 0.441395 0.106275 0.413166 -0.110406 -0.306595 0.116953
uw 0.534091 -0.490121 -0.015907 -0.132652 -0.941347 -0.596001 -0.426390 0.135421 -0.564585 -0.347797 -0.309397 -0.722377 0.115498 -0.109561 -0.245528 -0.322096 -0.031022 -0.006146 0.008516 -0.163749 0.617765 -0.360168 0.376005 -0.567294 -0.839879 0.111316 -0.144207 0.595536 0.219184 -0.131882 -0.849267 0.811415 -0.622510 -0.267544 -0.031772 0.068304 -0.012706 0.740852 0.781691 -0.487985 -0.924269 -0.391727 0.407936 0.539182 0.389300 -0.104733 0.465762 -0.055814 0.392980 -0.170415
zo -1.126235 0.245903 0.723220 -0.231085 0.711460 -0.162564 -0.205659 -0.729844 0.724428 0.378829 0.500399 0.244456 0.511352 -0.128069 0.313664 -0.299945 0.025616 -0.050850 -1.148051 1.408137 -0.552354 -0.126077 -0.007049 -0.785926 0.792911 -0.085473 0.414354 0.440944 -0.541476 -0.012798 0.125613 -0.627389 -0.571975 -0.014952 0.372393 -0.259764 -0.459883 -0.001591 0.714707 -0.503952 -1.036251 0.245295 0.057968 -0.238881 -0.205436 0.362370 0.404663 1.014449 -0.163359 0.613272
In -0.423274 -0.005631 0.250086 -0.734887 -0.318131 -0.493587 -0.969553 0.293169 0.142409 0.263198 0.251423 0.072476 0.181253 -0.444646 -0.216533 0.379891 -0.114883 -0.293499 0.121852 -0.674101 -0.165663 0.167942 0.175291 -0.057330 -0.295577 -0.194097 -0.838014 0.535559 -0.344186 -0.503359 -0.386170 -0.309633 0.334095 -0.819728 -0.603853 0.079136 0.053518 0.435675 0.168294 -0.124643 -0.071170 -0.281987 0.437945 0.098955 -0.553813 -0.088158 0.113016 0.426012 0.187978 -0.184424
jaar -0.727923 -0.006939 0.292399 0.189818 0.121683 -1.075118 -1.196014 0.156215 0.211005 0.343678 -0.648168 0.441290 0.101477 -0.376841 -0.873193 0.261418 1.131228 0.141988 -0.227149 0.275450 -0.634762 -0.680246 -0.453032 -0.399781 0.603881 -0.353226 -0.426058 1.003060 -1.013151 -0.011091 0.159468 -1.386911 -0.440639 -0.890030 0.240109 0.833963 0.353495 0.073286 0.628422 0.129160 0.364342 -0.549146 -0.340619 -0.297043 -0.666221 -0.241950 -0.399648 -0.375814 -0.149147 -0.079480
gaan -0.455100 0.465249 -0.473028 -0.387670 0.011953 -0.129368 0.037549 -0.238637 -0.047775 -0.073302 0.391910 0.059169 0.343968 0.166487 -0.043612 -0.061327 -0.051423 -0.152322 -0.776035 -0.047316 -0.234955 0.122044 0.946928 -1.036026 0.265811 -0.614091 -0.367157 0.740308 -0.984210 0.180969 0.072928 -0.713829 0.274274 -0.065480 -0.811125 0.135649 -0.107232 0.844434 0.173086 0.112200 0.063351 -0.073393 -0.396576 -0.632059 0.501924 0.190899 0.414198 0.061283 -0.296926 -0.011977
maken 0.213503 0.354058 0.094633 -0.283794 0.130358 -0.432308 -0.015196 -0.025557 0.233910 -0.438665 0.217340 0.166504 0.415025 -0.195800 -0.259894 -0.159814 0.556702 -0.253275 -1.047446 0.182050 0.114526 -0.148316 1.020870 -0.645335 -0.519047 -0.648898 0.367146 0.218038 -0.071272 0.449309 -0.496625 0.197962 0.284221 -0.780966 -0.526085 0.313177 -0.195756 0.754069 0.856380 -0.075057 -0.534237 -0.259470 0.301323 -0.267182 0.590969 0.174926 -0.038532 0.520188 -0.097956 0.474637
werd -0.262762 0.500562 0.576305 0.096302 0.251299 -0.186489 -0.930729 0.281123 0.377387 0.516935 -0.017012 0.127704 0.551824 -0.658978 -0.477118 0.092733 -0.004606 -0.263518 -0.354571 0.923745 -0.535383 -0.047016 -0.301932 -0.245003 0.152874 0.224364 -0.567201 0.693400 -0.950514 -0.065000 0.248156 -0.041394 0.004147 -0.347097 -0.221117 0.084266 -0.151175 -0.145351 0.401200 -0.202849 -0.567190 -0.055761 0.279500 -0.164809 -0.419005 -0.373889 -0.057173 0.585159 0.285672 0.026280
andere -0.222333 0.251503 -0.048949 0.022207 -0.322939 -0.636353 -0.643954 -0.761879 -0.118080 -0.502585 0.455556 -0.301194 -0.206054 -0.076005 0.511324 0.295471 0.254443 -0.004714 -0.106222 -0.508371 0.250925 -0.265127 -0.026255 -0.550803 -0.283656 -0.436109 -0.178268 0.106058 -0.514081 -0.112497 -0.019950 0.275106 -0.100656 -0.894106 -1.325497 -0.054258 0.681271 0.600795 0.429266 -0.097539 0.232195 -0.270524 0.435528 -0.375723 -0.259001 0.170484 -0.112028 0.378870 0.350160 0.237205
Zo -0.497392 0.780597 0.379256 -0.313211 -0.548363 -0.309565 -0.686415 -0.558152 -0.355433 0.636950 -0.244866 -0.196906 0.116161 -0.594293 0.246175 -0.671156 -0.116103 -0.338576 -0.678961 0.864331 0.008995 0.788148 -0.506287 -0.107115 0.189072 0.051054 -0.916771 -0.292321 -0.390209 -0.154403 -0.771077 0.357173 -0.014661 -0.421630 -0.402400 -0.174691 -0.167797 0.148709 0.612948 -0.427593 -0.488356 0.105490 -0.074071 -0.299258 -0.438453 -0.323938 0.131498 -0.204219 0.588829 -0.052509
alle 0.042557 -0.007396 -0.135226 -0.149670 -0.545377 -0.525776 -0.297705 -0.626658 0.657003 -0.214506 0.494633 -0.072252 0.502734 0.112925 0.297142 0.276509 0.083174 -0.173201 -0.239063 -0.644920 0.392629 0.387554 -0.168414 -0.194469 -0.514893 -0.272544 -0.088698 0.295371 -0.424411 -0.383894 0.012963 0.309556 -0.168555 -0.504493 -0.558924 -0.323153 0.293669 0.990309 0.539497 -0.213002 -0.183155 -0.277769 0.265358 -0.222034 0.050720 0.648353 -0.237275 0.439907 0.140734 0.149295
moet -0.365939 0.485390 0.259283 0.136377 0.317788 -0.371301 -0.376943 -0.103420 -0.133633 -0.051225 -0.036997 -0.030391 0.098274 0.169882 0.306554 -0.535284 0.227136 -0.453986 -1.009611 0.674757 -0.184097 -0.058064 -0.061784 -0.583559 0.144812 0.258738 -0.376504 0.356493 -0.413315 0.032738 -0.408682 0.011250 0.031666 -0.367801 -0.681086 0.028971 0.088763 0.507460 0.696132 -0.029963 -0.624417 -0.459249 0.136292 -0.553356 0.208311 -0.133170 0.239419 0.000126 0.271784 0.067178
zal -0.098717 0.331889 0.266993 -0.227183 0.109874 -0.333809 -0.211757 0.082323 0.248532 0.139264 0.360866 0.227563 0.333116 -0.101753 -0.098582 -0.188562 0.153348 -0.222977 -0.880748 0.553702 -0.200781 0.062723 0.036207 -0.456727 0.140310 0.003146 -0.262759 0.145594 -0.584514 0.009326 -0.504914 -0.132963 0.284978 -0.456333 -0.181960 0.136845 -0.130812 0.460122 0.655754 -0.193317 -0.771866 -0.707300 0.295943 -0.515890 0.065677 -0.021744 -0.032697 0.033848 0.218925 0.245600
moeten 0.137766 0.892207 -0.078879 -0.337120 0.385434 -0.569125 0.177106 -0.003586 1.178999 0.103169 0.494966 0.545616 0.552313 -0.241623 -0.065659 -0.131855 0.180173 -0.189931 -0.883988 0.186263 -0.243369 0.584753 0.382078 -0.485934 0.054121 -0.236008 -0.146173 0.084103 -0.578133 -0.035942 0.100479 -0.101803 0.667692 -0.354298 -0.472392 -0.163663 -0.113439 0.940425 0.164773 -0.217743 -0.271987 -0.143365 0.076902 -0.767238 0.331017 0.982261 0.018155 -0.442548 0.034475 0.459937
goed -0.921439 0.360402 0.026490 -0.052045 0.234835 -0.003819 -0.329911 -0.353664 0.538571 0.469587 0.441815 -0.044283 0.131070 -0.185373 0.877551 -0.439420 0.190056 -0.275644 -0.916084 0.854718 -0.065755 -0.484423 0.135493 -0.851234 0.402901 0.077594 -0.122491 0.283658 0.177184 0.040057 -0.367015 -0.438517 -0.138426 -0.342691 -0.022019 -0.091059 -0.535706 0.441700 0.567316 -0.328737 -0.900321 0.346220 -0.067290 -0.439969 0.191456 0.341270 0.549416 0.552184 -0.158281 0.579468
mijn -0.713073 -0.435851 -0.012261 -0.298683 -0.231681 0.368314 -0.105675 0.150690 -0.477528 -0.513911 0.477966 0.390693 -0.031816 -0.550579 -0.129792 -0.443922 0.179935 -0.654479 -0.772105 -0.332604 0.102643 -0.273389 0.792009 0.180178 0.204728 0.041482 -0.326535 -0.206345 -0.390241 0.396523 -0.591967 -0.185887 -0.083351 -1.024259 -0.334135 0.766566 -0.156085 0.011660 0.412518 0.017304 0.176481 0.102188 -0.218549 -0.934146 0.020205 -0.928488 0.093778 0.385751 0.176808 0.758934
Wij 0.566213 0.614715 0.217418 -0.536271 0.096093 -0.607613 0.200995 -0.530612 0.654647 -0.062530 0.071792 -0.072889 0.507400 0.035597 -0.409963 -0.350148 0.415292 0.054933 -0.879049 -0.091305 -0.098634 0.545397 0.943866 -0.871236 -0.183067 -0.884761 -0.246628 0.653706 -0.189725 -0.034034 -0.378041 0.085935 0.421623 0.090300 -0.786821 -0.335705 -0.248312 1.120526 0.498461 -0.183163 -0.206331 -0.517673 0.140724 0.123114 0.711793 0.961724 0.346395 -0.891852 -0.221518 -0.201720
nu -0.291481 0.134599 -0.077896 -0.205566 -0.453245 0.287511 -0.663671 -0.114913 0.051388 0.601057 -0.037760 0.362786 -0.118191 -0.211796 0.505019 -0.643920 -0.113207 -0.897577 -0.974363 0.439112 -0.179779 0.124561 -0.099323 -0.371700 0.242543 0.065750 -0.323037 0.631276 0.159404 -0.047730 -0.361218 -0.047132 0.046954 -0.476743 -0.558832 -0.160695 -0.310207 0.499983 0.738118 -0.209709 -0.605833 -0.151258 -0.233546 -0.390382 0.190652 0.130410 0.722341 0.078636 0.043979 -0.254725
<UNK>[nounprop] -0.439754 0.146339 0.036545 -0.278276 -0.764742 0.057104 -0.980339 0.629032 0.969318 0.188301 -0.035507 0.135688 1.069789 -0.401303 0.151458 0.937145 -0.015128 -0.288476 -0.121198 -0.622842 0.275336 0.351725 -0.110762 0.195052 -0.950996 -0.129366 0.055175 1.161024 -0.836373 0.620551 0.439226 0.307826 -0.514193 -0.100719 -0.280622 -0.245984 0.348414 0.419136 0.436933 -0.339203 -0.249024 0.289184 -0.299934 0.257546 0.137760 -0.505163 0.106923 0.800120 0.004088 0.486830
haar -0.233331 -0.210780 0.135307 -0.053929 -0.298080 0.172644 -0.231013 0.477576 0.179313 -0.212639 0.350886 0.268569 0.275679 -0.239256 -0.320666 0.016763 0.159524 -0.567366 -0.602849 -0.116246 -0.172314 -0.324881 0.409543 -0.281074 -0.144349 0.222435 -0.442347 0.274896 -0.313905 0.529851 -0.295054 0.066979 -0.020461 -0.740793 -0.293166 0.527542 -0.059707 0.292433 0.462325 -0.327955 -0.249731 0.005828 -0.012125 -0.488511 -0.123261 -0.461004 0.368465 0.289154 0.335210 0.408943
Wat 0.129711 0.037472 -0.028827 -0.171669 0.227526 -0.025624 -0.422455 0.560363 -0.375249 0.172621 -0.498564 1.115846 -0.288597 -0.459641 0.473521 -0.883187 0.187486 -0.878638 -1.065463 0.995635 -0.248819 0.101660 -0.252817 0.357822 0.426304 0.776675 0.371505 0.497196 0.241924 -0.123586 -0.481420 0.150253 0.341050 -1.054141 -0.611526 0.257665 -0.224986 0.031417 0.936973 -0.079461 -0.857890 -0.125015 -0.014262 -0.428576 0.210302 -0.445843 0.181883 0.184662 0.762856 -0.012028
weer -1.039116 0.128975 -0.079530 -0.095297 -0.224535 0.076488 -0.384150 -0.363463 -0.140856 0.337375 0.332959 0.039890 -0.080151 0.029113 0.714696 -0.470852 0.078098 -0.687596 -0.707897 0.275785 -0.249265 -0.358717 0.534000 -0.858176 0.447224 -0.123350 -0.627732 0.627037 -0.283842 -0.055624 -0.097014 -0.692538 -0.302882 -0.096682 -0.123174 -0.068537 -0.425568 0.388379 0.469469 0.155763 -0.398058 0.073637 -0.336473 -0.657603 -0.119046 0.237459 0.485243 0.450468 -0.115407 0.074278
mensen -0.029287 0.317821 -0.007744 -0.288316 0.221870 -0.499328 -0.489711 -0.440616 0.204554 -0.467252 0.419776 0.228433 -0.163117 -0.208606 0.071766 0.188256 0.155092 -0.503522 -0.602763 0.009364 -0.334819 0.056008 0.319538 -0.533714 0.076118 -0.172784 -0.121119 0.212835 -0.574289 -0.164847 -0.117893 0.192537 0.373346 -0.901315 -1.030248 0.008778 0.401117 0.556801 0.659335 -0.495400 -0.166463 -0.201143 0.457382 -0.739867 0.270470 0.188503 0.168779 0.412016 -0.045253 0.419999
onder -0.394267 0.180257 0.217147 -0.378764 -0.014041 -0.722243 -0.222632 -0.112740 -0.324754 -0.314403 0.700287 0.084291 0.037669 -0.425582 -0.059407 0.533966 0.035977 0.277200 -0.240910 -0.219669 -0.276434 -0.305853 0.204162 -0.627027 -0.026292 -0.247238 -0.237991 -0.015696 -0.322547 -0.154644 -0.019552 0.278204 0.090802 -0.719650 -0.818265 0.185203 0.282111 0.491068 0.351136 -0.177216 -0.195369 -0.152717 0.358902 -0.379436 -0.303597 0.380138 -0.007236 0.476095 -0.035912 0.222888
Op 0.479480 -0.245361 -0.081103 -0.232339 -0.951477 0.088079 -0.906514 0.264392 -0.000323 0.143855 0.202010 0.306849 0.411457 -0.418175 -0.962571 0.077305 0.216879 -0.426380 0.083223 -0.665252 -0.086740 -0.533381 0.249964 -0.781247 0.105021 -0.209798 -0.123516 0.817829 -1.412497 -0.500945 -0.680214 -0.210475 0.616847 -0.255562 0.127634 0.404852 -0.354029 0.227017 0.494292 -0.233928 0.039860 -0.971999 1.003782 0.461289 0.121142 -0.473078 0.067019 -0.109784 0.337359 -0.319789
heel -0.623590 0.117931 0.001060 -0.383661 0.306598 -0.067183 -0.387966 0.191721 0.122635 0.364909 0.379881 0.678180 -0.183208 -0.502416 0.532309 -0.552092 0.313083 -0.325788 -0.655489 0.376430 -0.140267 -0.388540 0.683676 -0.570741 0.564617 -0.062863 -0.284093 0.634244 0.176939 0.431800 0.465144 -0.881388 0.211232 -0.919229 -0.266728 0.272153 -0.224305 0.667383 0.350097 0.102320 -0.149123 0.563718 -0.279404 -0.696412 0.145630 0.581299 0.212562 0.381277 -0.177767 0.195848
Maar -0.315819 0.471155 -0.001684 -0.163951 0.106629 -0.136669 -0.335551 0.093855 -0.279007 0.443790 0.082385 0.628113 0.032956 -0.381708 0.212688 -0.913951 0.131254 -0.713629 -0.881906 0.760973 -0.143253 -0.091152 -0.374508 -0.474594 0.810546 0.281225 -0.384027 0.389825 -0.130960 -0.132612 -0.251782 -0.027641 0.353365 -0.926370 -0.342221 0.360681 -0.249221 0.496632 0.419981 -0.069649 -0.553476 0.034162 -0.081777 -0.660862 0.131961 0.383622 0.497918 -0.243240 0.145231 -0.155906
Een -0.144255 0.040787 -0.043891 0.388723 0.048842 0.066294 -0.708891 0.292315 0.052780 0.108808 -0.044887 -0.152705 0.124897 -0.660680 0.375874 -0.183867 0.137000 -0.369629 0.164471 0.023563 0.203121 -0.617350 0.094263 0.097944 -0.456676 0.144788 0.278728 0.506285 -0.211090 0.198759 -0.051376 0.255711 -0.335284 -0.457927 -0.113388 0.320054 0.117996 0.040717 0.505098 0.210829 -0.263232 -0.254483 0.478311 -0.040502 0.262943 -0.575631 -0.409874 0.800674 -0.041620 0.457802
komen -0.239311 0.407520 -0.222861 -0.027296 -0.211830 -0.207940 -0.281515 -0.053306 -0.046484 0.347879 0.304995 -0.478207 0.046227 0.353298 -0.127000 -0.021716 0.574455 -0.313337 -0.765677 0.068272 -0.205847 -0.186188 0.355699 -0.957910 -0.006652 -0.488502 -0.759771 0.605298 -0.225218 -0.042876 -0.274548 0.037437 -0.084488 -0.140483 -0.710343 -0.019649 -0.139798 0.640868 0.359478 -0.348350 -0.254433 -0.208336 -0.079859 -0.453386 0.354022 0.416754 0.797718 -0.554508 -0.251195 -0.516718
na -0.440357 0.060452 0.216973 -0.159170 -0.249781 -0.240787 -0.584268 -0.116701 0.294254 -0.012302 0.205790 -0.136986 0.194282 0.209760 -0.027955 0.167028 0.376956 0.253020 -0.170773 -0.115745 -0.162773 -0.444322 0.087297 -0.662551 -0.092461 -0.097339 -0.797871 0.922007 -0.365357 -0.064416 -0.159482 -0.046176 -0.298487 -0.597775 -0.376529 -0.003650 -0.318263 0.020667 0.435009 0.031144 -0.166330 -0.539691 0.287248 -0.114392 -0.460077 0.207009 -0.064070 -0.067895 0.207173 -0.201495
hier -0.313201 0.206519 -0.006604 -0.067421 -0.273363 0.103843 -0.447176 -0.017272 0.038365 0.441311 -0.001008 0.090863 0.566853 0.011317 0.388327 -0.702264 0.027253 -0.207561 -0.995525 0.398736 0.243483 0.224656 -0.061300 -0.305920 0.056312 0.142648 -0.185102 0.385014 -0.173259 -0.290441 -0.201730 0.016587 0.102088 -0.127840 -0.286934 -0.056679 -0.398244 0.532109 0.481379 -0.230255 -0.697439 -0.151604 -0.184811 0.006606 0.301771 0.077725 0.268924 0.071707 0.215134 -0.154977
tegen -0.462753 0.055401 0.238746 -0.233726 -0.185236 -0.331875 -0.298813 0.026842 0.352496 -0.233023 0.127737 -0.189330 -0.070868 0.133817 -0.084698 0.173776 0.129514 -0.092927 -0.195138 0.016287 -0.046868 0.093538 0.085952 -0.203041 -0.219660 -0.082442 -0.392573 0.555124 -0.100906 0.176431 -0.351234 -0.299382 -0.404604 -0.415123 -0.269164 -0.076946 0.081803 -0.038648 0.253420 -0.376966 -0.084636 0.089043 0.074530 -0.215885 0.061020 -0.157450 0.413570 0.347782 0.061619 -0.001768
dus -0.348090 0.306988 0.210978 -0.048401 0.263705 -0.312240 -0.422714 0.245621 0.462784 0.428515 -0.132419 0.577378 0.176383 -0.082569 0.380948 -0.214257 0.231696 -0.372317 -0.846549 0.585790 -0.099543 -0.269452 -0.157498 -0.542011 0.302521 0.069230 -0.035501 0.769861 -0.011311 0.104690 0.158686 -0.089732 0.087169 -0.486062 -0.080061 0.082670 -0.057420 0.760043 0.658436 -0.070643 -0.469661 -0.032650 -0.198121 -0.268034 0.266015 0.234658 0.100945 0.016144 -0.278040 0.326630
wil -0.591690 0.290050 0.601551 -0.483302 -0.204003 -0.454822 0.039500 0.087654 -0.359398 -0.228062 -0.206416 0.048435 -0.145182 0.118779 0.374050 -0.832489 0.448287 0.058776 -1.425001 0.527219 -0.208303 0.191831 0.236777 -0.367350 0.464150 0.030194 0.113478 0.537568 -0.222054 0.277903 -0.798725 0.026833 -0.006990 -0.779039 -0.360426 0.064263 0.274573 0.083793 0.654256 -0.286046 -0.555679 -0.502177 -0.177193 -0.389378 0.755037 -0.135638 0.408492 -0.031110 0.079522 0.114743
nieuwe 0.267322 -0.209061 -0.010785 -0.224023 -0.343297 -0.202648 -0.457266 -0.155362 0.072249 -0.041162 0.379152 0.174160 0.319512 -0.273162 0.138494 0.148452 0.188183 0.000850 -0.108453 -0.336445 0.336386 -0.144078 0.234510 -0.308827 -0.228986 -0.391699 -0.091764 0.205396 -0.631738 -0.083738 0.016905 0.132837 -0.147053 -0.341296 -0.710550 0.207424 0.031184 0.375163 0.692027 -0.088894 -0.272824 -0.216616 0.416873 -0.239675 -0.129561 0.150896 0.067969 0.317968 0.583004 0.099463
doen -0.094788 0.263684 -0.137582 -0.526878 0.063427 -0.149553 -0.070659 -0.138297 0.157742 -0.170109 0.184341 0.307842 0.099048 -0.052069 0.006845 -0.367575 0.464409 -0.390941 -1.117633 0.250329 0.164559 0.335416 0.357320 -0.294493 0.108341 -0.202098 -0.241252 0.231710 -0.350073 0.394491 -0.634160 -0.475619 0.397261 -0.574899 -0.717289 0.152825 -0.123923 0.377599 0.530772 -0.336930 -0.239706 -0.201492 -0.054501 -0.697040 0.589543 -0.118603 0.400853 -0.007338 0.317177 0.141575
gaat -0.187282 -0.096813 0.165498 -0.329703 -0.301622 0.209974 -0.374704 -0.010990 -0.244075 0.105922 0.226892 -0.051041 0.034114 0.017825 0.334310 -0.236159 -0.238881 -0.244574 -0.546435 0.216368 -0.062980 -0.308457 0.385101 -0.516539 -0.093209 0.148695 0.094489 0.774871 -0.220564 -0.203243 -0.141653 0.095945 -0.187718 0.045130 -0.163367 -0.226415 -0.174115 0.095697 0.512224 -0.107078 -0.724104 -0.386762 0.110370 -0.044853 0.127298 -0.030285 0.259467 0.720792 0.172452 -0.108907
Ik -0.994419 0.164609 0.421797 -0.688527 -0.345081 0.715699 -0.525090 0.704146 -0.575294 0.429088 -0.235921 0.707624 -0.088351 -1.003167 0.301601 -1.104181 -0.038450 -1.028105 -1.757522 0.787028 -0.717026 0.908432 -0.554679 1.121090 0.663347 0.847173 0.160432 0.069547 -0.121127 0.080557 -0.693356 0.172019 0.653199 -0.992871 0.047809 -0.018094 -0.057002 -0.403457 0.594392 -0.061005 -0.161587 -0.218550 -0.390177 -0.350631 0.415881 -1.331098 0.017550 0.368263 0.670349 0.445975
leven -0.563910 0.042480 0.471398 -0.336186 0.415640 -0.044851 0.197137 0.098543 -0.406436 -0.253323 0.560001 0.091812 0.148291 -0.352750 -0.139366 -0.336207 -0.109248 -0.713578 -0.395038 -0.302727 -0.071445 -0.313948 0.961589 -0.246776 -0.065861 -0.225338 -0.593495 -0.043299 -0.032644 0.433594 -0.749725 -0.141985 -0.223208 -0.793735 -0.274564 0.352552 -0.274860 0.420055 0.450085 -0.115268 -0.511935 -0.230162 0.169875 -0.737935 0.311019 -0.267471 0.505929 0.616565 -0.666432 0.445758
eens -0.909608 0.070141 -0.297344 -0.013225 -0.369894 0.283397 -0.404969 -0.402805 -0.090191 -0.052822 0.190995 0.051068 -0.183707 0.270026 0.984167 -0.683928 0.406785 -0.401241 -1.152042 0.313951 -0.316155 0.046951 0.287400 -0.425997 0.372339 0.086579 -0.391314 0.754409 0.029394 0.047302 -0.334086 -0.623285 -0.043508 -0.280789 -0.804460 -0.382727 -0.290793 0.501724 0.519212 0.007647 0.069186 -0.300825 -0.164320 -0.575753 0.264443 0.089926 0.832213 0.169389 0.200858 -0.154476
zoals -0.489365 0.044585 -0.124696 0.127827 -0.401494 -0.192355 -0.230149 -0.636423 0.255885 -0.484362 0.221498 0.124034 0.343792 -0.443008 0.446114 0.243090 0.203083 -0.543515 -0.286535 -0.210050 0.087906 0.301426 -0.543422 -0.003278 -0.080481 -0.219925 -0.278537 0.131659 -0.286451 -0.007894 -0.238028 0.324951 -0.489080 -0.852490 -0.582152 -0.146898 0.162799 0.618302 0.550995 -0.234998 -0.022531 0.334315 0.262847 -0.463200 0.407386 0.175350 0.350572 0.476948 -0.303785 0.689218
toch -0.782661 0.169971 -0.057036 -0.040257 -0.393563 0.146556 -0.438422 -0.276981 0.295299 0.207224 -0.041221 0.251523 -0.144201 0.067734 0.726841 -0.608735 0.436379 -0.229088 -1.066826 0.403096 -0.479230 0.164939 0.092686 -0.509081 0.613562 0.083744 -0.304817 0.933984 -0.040037 0.002820 -0.128663 -0.653014 0.172679 -0.362637 -0.598233 -0.143218 -0.440517 0.303275 0.232275 0.068057 0.163498 0.259112 -0.226191 -0.299005 0.242971 0.247118 0.708499 -0.022116 0.019094 0.181795
zien -0.528145 0.679656 -0.272189 -0.484811 -0.073670 -0.251894 0.006262 -0.355460 0.153240 0.245110 0.214304 0.009907 -0.056121 0.425513 0.140168 -0.191581 -0.038982 -0.157200 -0.816853 0.019660 0.223118 0.499481 0.507315 -0.502456 0.015845 -0.232336 -0.486924 0.545382 -0.171554 0.482681 -0.401162 -0.361003 -0.129136 -0.480042 -0.885125 -0.243448 -0.070924 0.665399 0.465870 -0.459354 -0.415565 -0.210335 -0.255302 -0.533851 0.498606 0.662511 0.822795 -0.133891 -0.150241 -0.326824
Van -0.003827 -0.013508 0.316322 0.153242 -0.571195 -0.111964 -0.954440 0.440297 0.525541 0.571844 -0.142086 0.195655 0.752444 -0.456063 -0.320055 0.769576 -0.082182 -0.274638 0.224279 -0.232499 0.288790 0.389236 -0.726766 0.143925 -0.565734 -0.179740 0.132318 0.536104 -0.442442 0.175918 0.255095 0.415585 -0.422352 -0.283484 -0.225143 0.175829 0.292733 0.212913 0.262018 -0.371256 0.087590 0.465548 0.112312 0.282850 -0.237854 -0.399976 0.266138 0.321922 -0.156152 0.228396
mee -0.023014 0.175895 0.241609 -0.347445 0.020694 0.292569 0.210545 -0.034227 -0.075346 -0.256191 0.382016 0.142169 0.487498 0.179048 -0.155059 -0.394859 -0.186133 -0.368291 -0.855347 0.267774 -0.310687 0.061269 0.390610 -0.563680 0.088348 -0.148548 -0.493239 0.442320 -0.441158 0.318568 -0.158961 0.125685 0.126334 -0.208785 -0.418822 -0.029938 -0.390131 0.199938 0.353094 -0.227758 -0.555484 -0.039217 -0.118754 -0.494020 0.527697 0.114298 0.635087 0.108821 -0.246751 0.083485
tijd -0.294651 -0.205205 0.152021 -0.526063 -0.158040 -0.358897 -0.636956 0.260343 0.565799 0.294704 0.209198 0.442479 0.053673 -0.168345 0.059751 0.234969 0.529748 0.223474 -0.223238 0.030296 -0.444374 -0.379943 -0.039665 -0.868226 0.081099 -0.049663 -0.342453 0.895017 -0.411058 -0.052357 0.142076 -0.456408 0.179854 -0.376192 -0.088067 0.026393 -0.090166 0.271753 0.392706 -0.093780 -0.199537 -0.267293 0.039637 -0.209327 -0.210648 0.273738 -0.060351 -0.029168 0.125766 0.030515
wij 0.243515 0.473054 -0.063251 -0.390992 -0.095389 -0.655133 -0.087787 -0.392640 0.045836 -0.182322 -0.306443 0.336901 0.550850 -0.242282 -0.200690 -0.377974 0.257552 -0.020944 -0.794477 0.286836 -0.171999 0.461196 0.016449 -0.447727 0.081457 -0.322010 -0.132429 0.610794 -0.439540 0.025820 -0.189525 0.273777 0.410312 -0.483071 -0.694015 0.097936 0.316383 1.224276 0.425719 -0.133049 -0.286964 -0.243986 0.045372 -0.155449 0.526586 0.623483 0.099383 -0.534047 -0.029044 0.118823
zou -0.384160 0.701978 0.185146 -0.430779 0.217219 -0.270262 0.033978 -0.145655 0.333980 0.161075 0.356839 -0.067128 0.191159 -0.032536 0.248788 -0.417584 0.207316 -0.154482 -0.988157 0.500875 -0.171854 0.375754 0.236210 -0.203074 0.372993 -0.307491 -0.376671 -0.162644 -0.464737 0.099453 -0.389694 -0.365766 0.300274 -0.345591 -0.466652 0.103133 -0.053594 0.191419 0.241141 0.028647 -0.321324 -0.238200 -0.005020 -0.627875 -0.011221 0.016837 -0.129354 -0.241236 0.359978 0.238123
Ook -0.075648 0.202934 0.065734 -0.189516 -0.259562 -0.292867 -0.490700 -0.009122 -0.253485 0.251351 -0.180855 0.146779 0.250533 -0.322163 0.068476 -0.201728 -0.126571 -0.417277 -0.461360 0.227981 0.075530 0.057701 -0.187764 -0.567935 -0.039310 0.120078 -0.332722 0.174309 -0.302546 -0.142690 -0.458776 0.146691 0.236979 -0.597495 -0.297302 0.180152 -0.045951 0.566754 0.318045 -0.042388 -0.526276 -0.134496 0.068209 -0.126238 -0.050977 -0.157185 0.174388 0.142683 0.184947 0.126316
eigen 0.173915 -0.468397 0.317291 -0.383753 -0.441074 0.501757 0.219843 0.118466 -0.305658 -0.384950 0.666932 -0.205738 0.553805 -0.030212 -0.125243 -0.494914 -0.349043 -1.186136 -0.252296 -1.040705 0.413446 -0.396240 1.271180 -0.261296 -0.361425 -0.156146 -0.354715 -0.355795 -0.602060 0.317188 -0.631165 -0.321393 -0.039799 -0.300257 -0.135980 0.184140 -0.201366 0.706372 0.048281 -0.172534 -0.426486 -0.177954 -0.023063 -0.561686 0.627317 -0.378476 0.698484 0.516787 -0.272834 0.526734
zelf -0.110294 0.161817 0.406816 -0.379833 0.085069 -0.012315 -0.139291 0.115787 -0.145653 -0.133415 0.161660 0.151075 0.272291 -0.124120 -0.069163 -0.449307 0.048826 -0.524154 -0.654274 0.334456 -0.086447 -0.191650 -0.094632 -0.452227 0.211545 0.137307 -0.522563 0.174387 -0.260111 0.382560 -0.177354 0.267995 0.033056 -0.652461 -0.106659 0.158879 0.088293 0.514666 0.641358 -0.186845 -0.750543 -0.338194 -0.070567 -0.537141 0.328775 -0.029459 0.347510 -0.151533 0.071343 0.104226
hoe -0.077254 0.319708 0.568998 -0.469898 0.109974 -0.160750 0.381086 -0.392492 -0.632873 0.168342 -0.196788 0.004845 0.509935 0.125415 -0.141857 -0.745441 -0.320544 -0.234713 -0.885775 0.450905 -0.059906 0.060153 -0.066831 -0.359449 0.208134 -0.149994 0.074535 0.088230 -0.181243 0.333794 -0.609080 0.146680 -0.438455 -0.571213 -0.233639 0.069692 -0.211167 0.620328 0.535295 -0.180120 -1.070701 -0.549248 -0.322412 -0.337155 0.486053 0.400262 0.455755 -0.043237 -0.042230 -0.313056
werken -0.284216 0.392647 -0.035244 -0.207090 0.141971 -0.514114 0.021824 -0.261944 0.143538 -0.523409 0.131940 -0.083992 0.326170 -0.070978 -0.517010 0.274999 0.225510 -0.089660 -0.650261 0.131233 -0.326569 0.060023 0.249892 -0.528497 -0.201410 -0.590745 -0.287971 0.434128 -0.578433 0.213554 -0.045098 -0.160369 0.109376 -0.590361 -0.867545 0.169144 0.254314 0.534157 0.322375 -0.054442 0.037937 -0.264223 -0.149978 -0.432278 0.260864 0.006621 -0.001258 0.258920 -0.004442 0.132778
staat -0.243235 -0.291042 -0.216529 -0.345257 -0.294988 -0.005868 -1.037860 0.061978 0.243500 0.307162 0.087578 0.184397 -0.135959 -0.071260 0.227814 -0.051411 0.047890 -0.415213 -0.210260 0.023143 -0.344713 -0.243830 0.233150 -0.346759 0.002972 0.208441 -0.240138 0.496779 0.072890 -0.558537 0.097282 -0.302112 0.357958 0.036983 0.039005 -0.240559 -0.089042 0.548734 0.156993 -0.440605 -0.106404 0.125720 -0.048608 0.171600 -0.100247 0.179375 0.195443 0.233845 0.060365 0.119918
En -0.527214 0.579394 0.288856 -0.124105 -0.050037 -0.192662 -0.562063 0.239219 -0.303884 0.277295 -0.053538 0.529363 0.022207 -0.432578 0.192499 -0.730893 0.056226 -0.679121 -1.009414 0.630920 -0.264539 0.411924 -0.176145 -0.124115 0.600435 0.413778 -0.121888 0.492770 -0.434464 -0.076698 -0.212508 -0.062184 0.397848 -0.658712 -0.300238 0.115220 0.084301 0.257083 0.486187 0.074708 -0.469084 -0.100349 -0.232273 -0.486730 0.236057 -0.001698 -0.042867 0.074401 0.311432 0.012563
grote 0.059398 -0.048438 0.046107 -0.036208 -0.005175 -0.287680 -0.427901 -0.075539 0.698386 -0.012234 0.474648 -0.086302 0.237028 -0.384394 0.377097 0.184524 0.264535 -0.116892 0.304568 -0.473368 0.324021 -0.157677 0.343471 -0.092786 -0.484077 -0.205047 -0.256506 0.251379 -0.189806 0.018901 -0.029177 0.210941 -0.037097 -0.396715 -0.273148 -0.115798 -0.012203 0.330635 0.375687 -0.089509 0.117263 0.139344 0.441644 -0.246114 0.074338 0.058169 -0.194707 0.569525 -0.095412 0.429064
via -0.373561 0.006392 0.088647 -0.049354 -0.650054 -0.284736 -0.334417 0.116706 -0.031448 -0.267626 -0.258333 -0.178907 0.560782 0.271294 -0.152881 0.327154 -0.020087 0.059435 -0.366850 -0.084974 0.180515 0.103317 -0.153652 -0.322975 -0.561241 -0.073247 -0.191813 0.565075 -0.654380 0.442558 -0.138273 0.192066 -0.527229 0.093723 -0.146102 -0.002499 0.246302 0.234183 0.504929 -0.304550 -0.513781 -0.304048 -0.432266 0.051131 0.317656 -0.429170 0.350425 0.209846 0.143198 0.048439
men -0.168718 0.229115 0.469153 -0.377410 -0.106199 -0.453607 -0.396862 -0.101585 -0.641146 0.210741 -0.386136 -0.148548 -0.088510 -0.313266 0.047947 -0.585900 -0.031893 -0.260252 -0.242776 0.569184 -0.097859 0.035854 -0.450113 -0.213590 0.145472 0.303273 -0.416393 -0.067558 -0.148368 0.350231 -1.029884 0.458991 -0.061765 -0.733754 -0.551000 0.063078 -0.085314 -0.103697 0.607239 -0.501577 -0.700354 -0.238022 0.249503 -0.251122 0.086751 -0.580243 0.706399 -0.291512 0.268503 0.135295
n -0.569165 0.242100 -0.247070 -0.030361 -0.176542 -0.283937 -0.957234 -0.164158 0.435483 0.261211 0.379513 -0.002734 0.108401 -0.074682 0.402687 -0.171764 0.248568 -0.132403 -0.105753 -0.344925 -0.151085 -0.486217 0.221686 -0.370977 -0.082804 0.312974 -0.477853 0.553210 -0.218942 -0.078093 -0.107582 -0.292117 0.242612 -0.669458 -0.549129 0.007849 -0.091283 0.393048 0.098591 -0.292003 0.024302 -0.059741 0.336723 -0.129233 -0.286374 0.289422 0.259026 -0.142312 0.223897 0.087025
af -0.257531 0.070327 0.362793 -0.161219 -0.561560 0.246301 0.027567 -0.434621 -0.002909 -0.260988 0.318654 -0.359331 0.306535 0.268412 -0.136872 0.042161 0.194560 0.102036 -0.552746 -0.131634 -0.062238 -0.191794 0.640710 -0.479529 -0.203984 -0.398828 -0.525982 0.685838 -0.291282 0.192047 -0.314947 0.093144 -0.452361 -0.022615 -0.156802 -0.226901 -0.461522 0.005955 0.315978 -0.163897 -0.404935 -0.140189 -0.300946 -0.250544 0.194956 0.246095 0.584171 0.280600 -0.110918 -0.126703
veel -0.959097 0.090564 0.038452 -0.428374 0.335382 -0.346025 -0.230859 -0.217771 0.118310 0.244208 0.154909 0.365325 -0.418090 0.008473 0.535390 -0.243565 0.605299 0.243689 -1.178314 0.571950 -0.608901 -0.073087 0.179370 -0.367647 0.673745 -0.013972 -0.060144 0.087003 0.337624 0.116975 0.077802 -0.436890 0.252986 -0.322099 -0.158446 0.077170 -0.045867 0.584298 0.410209 -0.126536 -0.224572 -0.142429 -0.306525 -0.405750 -0.224298 0.487141 0.271983 -0.073343 -0.019779 0.352061
daar -0.356446 0.368704 -0.037452 0.104148 -0.397794 0.107604 -0.188930 -0.019267 -0.331143 0.232212 0.265680 0.225434 0.512674 -0.054281 0.293828 -0.605412 0.112249 -0.425925 -0.872618 0.337377 -0.015517 -0.093829 -0.026529 -0.604086 0.357047 0.096827 -0.388989 0.461789 -0.406585 0.014733 0.016189 0.201414 0.079182 -0.365225 -0.450247 0.158420 -0.325165 0.429602 0.316119 0.133512 -0.506854 0.299452 -0.424504 -0.563327 0.244528 0.143896 0.381236 -0.051906 0.048638 -0.002325
echter 0.007399 0.525262 -0.033501 -0.062882 0.405491 -0.372655 -0.509149 0.067098 0.332975 0.620921 0.439546 0.270211 0.087176 -0.185146 0.245673 -0.295121 0.118705 -0.172303 -0.611110 0.853764 -0.176461 -0.134541 0.094887 -0.539847 0.267849 0.153510 -0.181217 0.238049 0.102569 -0.263740 0.027972 0.112455 0.293489 -0.074709 -0.415506 0.072495 -0.205226 0.482091 0.580014 -0.406271 -0.595679 -0.119867 0.365187 -0.259850 -0.155970 0.472098 0.206106 -0.061497 -0.042978 0.021413
zij 0.472966 0.306802 0.773195 -0.393433 -0.123665 -0.153998 -0.041638 -0.071759 0.597819 -0.039857 0.085905 0.400379 0.575190 -0.192334 -0.553532 -0.421203 -0.110934 -0.521715 -0.235518 0.389699 -0.366535 0.288941 -0.078658 -0.482798 0.120506 -0.249634 -0.469990 0.437714 -0.582308 0.284803 -0.332530 0.171463 0.291594 -0.608639 -0.742523 0.056724 -0.191021 0.469205 0.226641 -0.417104 -0.121997 0.107656 0.600743 -0.330293 -0.044377 0.246885 0.871662 -0.529836 -0.117018 0.083778
enkele -0.327272 0.192058 0.030417 -0.186165 -0.130899 -0.247640 -0.978044 0.055782 0.834565 0.217209 0.102302 0.385566 0.116815 0.050261 -0.112190 0.253446 0.604805 -0.036861 -0.398559 -0.159959 -0.367567 -0.225185 -0.225155 -0.465865 0.195747 -0.474785 -0.489332 0.692498 -0.429277 -0.395960 0.783324 -0.737152 0.467840 -0.548646 -0.648963 0.230198 0.095760 0.254179 0.109878 0.150999 0.747171 -0.074563 0.144025 -0.163858 -0.613348 0.533681 -0.519437 -0.432592 0.127505 -0.250002
laten -0.172157 0.447858 -0.566723 -0.310363 0.075354 -0.413131 0.632133 -0.029163 0.314322 -0.119392 0.379307 0.013246 0.465947 0.504760 -0.092425 -0.057772 0.089584 0.223028 -1.071650 0.082852 0.015518 0.519949 0.559328 -0.801655 -0.081150 -0.463328 -0.327645 0.407520 -0.202483 0.269370 -0.188183 -0.292500 0.138537 0.108417 -0.569765 -0.059003 -0.150788 0.825946 0.133370 -0.124182 -0.463229 -0.414543 -0.396517 -0.581637 0.825685 0.765216 0.760694 -0.248746 -0.195253 -0.295368
tussen -0.261526 0.175582 -0.214247 0.080618 -0.056305 0.170830 -0.179994 -0.174635 0.426007 0.239222 0.078915 -0.257916 -0.270739 -0.410823 0.014055 0.449928 -0.260399 -0.264053 0.083984 -0.146025 -0.116052 -0.088186 0.207165 -0.001707 -0.531296 -0.553541 -0.199154 0.208206 0.091536 0.220637 0.112593 0.222436 -0.499010 -0.409172 -0.116744 -0.164548 0.031864 0.111345 0.097983 -0.095213 0.135505 0.106499 -0.107017 -0.218032 -0.153914 -0.022205 -0.352721 0.734680 -0.293353 0.203994
iets -0.994609 0.093296 0.144688 -0.208869 0.171943 -0.149860 -0.089870 -0.274835 -0.033104 0.222664 0.379112 0.253548 0.212092 0.221838 0.714058 -0.463399 0.199854 -0.027863 -1.028565 0.226483 -0.143189 0.165387 0.389411 -0.345313 0.400748 0.087538 0.081782 0.569198 -0.071209 0.048550 -0.141098 -0.820979 -0.027576 -0.241958 -0.573768 -0.065308 -0.399681 0.255306 0.404917 -0.035945 -0.185523 0.243286 -0.427136 -0.395611 0.098016 0.411145 0.663339 0.211101 -0.093644 -0.064081
samen 0.395987 0.121490 -0.228011 -0.127576 0.043458 -0.033429 0.145081 -0.176194 -0.038005 -0.709577 0.027067 -0.015026 0.281116 0.135756 -0.314467 0.252894 0.020087 -0.160401 -0.395047 0.219704 -0.358742 -0.065217 0.608044 -0.808011 -0.071840 -0.692990 -0.183724 0.661498 -0.383026 0.054483 0.291090 -0.408607 0.342957 -0.411295 -0.964735 0.204696 0.248130 0.665070 0.244815 0.230358 0.169367 0.022089 -0.131983 -0.376595 0.480796 0.185641 0.148047 0.520805 -0.295582 -0.001344
zonder -0.405722 0.435086 0.375293 -0.251489 -0.000134 -0.662447 -0.121497 -0.449882 0.321203 -0.025434 0.208857 -0.334197 -0.099278 -0.087933 0.221573 -0.102673 0.249820 0.118888 -0.189753 -0.053326 0.262781 0.099037 0.239329 -0.173228 0.174348 -0.341865 -0.031461 0.228839 -0.037600 0.239541 -0.321639 -0.132931 -0.332445 -0.625543 -0.499147 -0.002628 0.250852 0.209487 0.322581 -0.125326 0.075819 0.092443 -0.067641 -0.404756 0.206564 0.322270 0.116570 0.017306 -0.153716 0.242949
terug -0.238363 0.042198 -0.362061 -0.255913 -0.274401 -0.316322 -0.115008 0.303685 -0.363643 0.009683 -0.013358 0.205900 0.366840 0.257264 -0.324551 0.023252 -0.102114 0.108381 -0.379439 0.065301 -0.325845 -0.333941 0.736153 -1.143746 0.218964 -0.323182 -0.715341 0.921423 -0.745642 -0.084017 0.058933 -0.593118 0.159783 0.263431 0.082877 0.189423 -0.144040 0.639387 0.154143 0.175386 -0.387990 -0.337675 -0.429490 -0.191393 0.176098 0.189255 0.385452 -0.362031 -0.173357 -0.363537
the -0.762087 0.002073 0.477535 -0.117104 -0.076850 -0.396941 -0.889923 0.197394 0.919619 0.388457 -0.102102 -0.107772 1.220578 0.330112 0.526033 1.266373 -0.438641 0.109471 0.637600 -0.409440 0.609354 1.036570 -1.447808 0.355462 -0.809195 -0.198594 0.730329 0.300518 -0.124031 0.650573 -0.172498 0.030087 -0.682001 0.134291 -1.317641 -0.058367 0.255545 0.117766 0.259155 -0.659727 0.273205 0.957437 0.462254 0.971326 -0.677329 -0.996991 1.501624 0.037392 -0.150366 0.545504
altijd -0.474668 0.061193 0.217475 -0.242233 0.152287 -0.029652 -0.252211 -0.235146 0.186418 0.163527 -0.062480 -0.074891 -0.420439 0.090819 0.575382 -0.581948 0.260531 -0.279869 -0.623363 0.516289 -0.315283 -0.203287 0.036534 -0.602440 0.548723 -0.016385 -0.407163 0.273450 0.151771 0.206976 -0.325571 -0.576568 0.179174 -0.186981 -0.311005 -0.249757 -0.185831 0.569482 0.270729 -0.023738 -0.319684 -0.137304 -0.001721 -0.273640 0.233871 0.109531 0.654379 -0.197492 -0.034780 0.316762
willen 0.323526 0.663150 -0.168608 -0.477083 0.342168 -0.260674 0.175619 0.063573 0.378130 0.093291 0.657409 0.433323 0.384812 -0.242286 -0.176432 -0.254382 0.210086 -0.085514 -0.505781 -0.252724 -0.169333 0.159036 0.802478 -0.664393 0.152332 -0.326964 0.060288 0.341095 -0.486256 -0.034901 0.141354 -0.033645 0.671171 -0.244561 -0.681270 0.058244 -0.015769 0.565491 0.132102 -0.125992 0.048742 -0.236027 0.261266 -0.404761 0.687325 0.670130 -0.010154 -0.513875 -0.389640 0.043520
even -0.250322 -0.011944 -0.427912 -0.020259 -0.274732 0.292867 -0.080847 -0.234327 0.411448 0.115934 -0.146046 0.168148 -0.078761 0.196317 0.601482 -0.358144 0.377497 -0.038574 -0.680649 0.326694 -0.297319 0.085476 0.238035 -0.700775 0.348147 -0.130083 -0.272706 0.670628 -0.021779 0.018757 0.035517 -0.698365 0.248796 0.128004 -0.345568 -0.337361 -0.410313 0.825699 0.128181 0.085970 0.003275 -0.154700 -0.030144 -0.237551 0.403174 0.507502 0.596926 -0.254372 0.037932 0.071583
komt -0.440547 0.243458 -0.054567 -0.105180 -0.089546 -0.029306 -0.676425 0.187463 -0.150075 0.288458 0.234827 0.112854 -0.129802 -0.226324 0.249615 -0.202090 0.080393 -0.400498 -0.344514 0.129614 -0.257899 0.000666 0.528452 -0.005111 0.063778 0.136371 -0.509031 0.273424 0.082687 -0.152995 0.031717 -0.123913 0.049911 -0.172946 -0.309984 0.009745 -0.127849 0.182460 0.118396 -0.196017 0.061744 0.224306 -0.279165 -0.325667 -0.153145 0.015769 0.261648 0.214131 -0.162825 -0.000021
want -0.162994 0.263906 0.057142 -0.214367 0.042622 -0.263095 -0.550404 -0.130657 0.127723 0.233630 0.236948 0.524178 0.120448 -0.052512 0.504226 -0.473755 0.367307 -0.254991 -0.356675 0.376553 -0.276411 -0.144741 0.168038 -0.593592 0.753988 0.117553 -0.169662 0.830864 -0.316413 -0.244784 0.235491 -0.223560 0.155629 -0.167914 -0.402676 -0.144620 -0.222436 0.141860 0.365772 -0.067160 -0.038565 0.284961 -0.054438 -0.293768 0.254454 0.418366 0.286712 -0.162364 -0.181170 -0.011115
alleen -0.070692 0.306602 0.263959 0.145116 0.097395 -0.203611 -0.236876 0.116092 0.489985 -0.117655 0.084999 0.347328 0.146657 -0.218942 0.266360 -0.357811 0.422638 -0.345779 -0.742284 0.784126 -0.475765 0.098770 -0.460041 -0.436428 0.562722 0.434842 -0.498100 0.245562 -0.156057 -0.113492 0.047800 0.531738 0.193702 -0.384881 0.049067 -0.086629 -0.114958 0.533021 0.495574 -0.491556 -0.707551 0.050997 0.189263 -0.501233 0.417716 0.633307 0.456885 -0.230208 -0.223276 0.481123
dag -0.157242 -0.144839 -0.015244 -0.218193 -0.432198 -0.709702 -0.909247 0.018200 0.117001 -0.120268 -0.017463 0.117418 -0.081762 -0.414271 -0.138531 0.400324 0.450647 0.123139 0.408811 -0.550664 -0.021062 -0.655258 0.160612 -0.743102 -0.256764 0.102296 -0.180095 0.508024 -0.649803 0.194276 0.088641 -0.196541 0.358605 -0.641217 -0.035358 0.269144 0.478309 0.351732 0.137659 0.028121 0.193215 -0.363465 0.136034 -0.164638 -0.135857 -0.372677 -0.326516 -0.097527 0.427489 0.340017
werk -0.464364 0.263213 0.650978 -0.267853 -0.314333 -0.052850 -0.023098 -0.167696 0.131447 -0.026915 0.313409 -0.194608 0.094135 -0.125201 0.078429 -0.322146 0.174658 -0.362931 -0.923095 0.164716 -0.013435 -0.006829 0.605459 -0.233243 0.116054 -0.412353 -0.367445 0.070335 -0.084078 0.108953 -0.492381 -0.009189 -0.210271 -0.474610 -0.411060 -0.101691 -0.392524 0.162372 0.297501 -0.150417 -0.323701 0.186354 -0.169598 -0.394553 0.045106 0.043438 0.359721 0.402045 0.136346 0.461656
kinderen 0.244076 -0.179322 0.218287 -0.185097 0.158334 -0.739320 -0.083130 -0.223399 -0.256098 -0.509950 0.078612 0.017951 -0.226371 -0.013651 -0.223903 0.182385 0.340057 -0.000974 -0.188029 -0.100091 -0.100128 -0.361379 0.449045 -0.594938 0.014099 -0.335898 0.001129 0.276292 -0.184044 -0.031420 -0.219908 -0.074869 0.027268 -0.604273 -0.558292 0.329133 0.485344 0.528809 0.410779 0.029670 0.183526 -0.320227 0.161487 -0.336578 0.125783 0.071480 -0.002707 0.190710 -0.224009 0.103674
geven 0.379686 0.085381 0.092972 -0.429176 -0.092471 -0.111625 0.106111 -0.213401 0.154308 -0.050619 0.276593 -0.329413 0.114962 0.093917 -0.251142 -0.106083 0.149363 -0.082000 -0.351949 -0.305200 0.167428 0.047473 0.710264 -0.549919 -0.441370 -0.509658 -0.504688 0.519502 -0.239146 0.146221 -0.472513 0.154438 -0.167380 -0.022782 -0.493893 -0.229920 -0.265583 0.607400 0.568063 -0.106571 -0.444583 -0.667032 0.374528 0.051489 0.493740 0.261523 0.236324 -0.111644 0.012704 -0.251893
Na -0.267891 0.227268 -0.391264 -0.077559 -0.478039 0.082488 -0.349356 0.284074 0.378427 0.412428 -0.019224 0.276329 0.061389 -0.268548 0.093251 0.441095 0.126876 0.005643 -0.071429 -0.271590 -0.169949 -0.099767 0.387327 -0.309230 -0.373077 -0.454875 -0.213913 0.790149 -0.204728 -0.141421 0.311086 -0.121096 0.229770 -0.297611 -0.209408 -0.089338 -0.236560 0.027275 -0.132133 0.382517 0.088284 -0.017573 -0.053424 0.044129 -0.228775 0.316603 -0.441855 0.308078 0.108634 -0.034416
toe -0.121680 0.050010 0.186891 -0.093368 -0.654079 0.202912 0.504269 -0.340322 -0.080344 -0.097021 0.191503 -0.399630 0.294225 0.411426 -0.205690 -0.013826 -0.029247 0.021934 -0.763012 -0.010714 0.023319 -0.150747 0.517974 -0.688140 -0.311989 -0.451504 -0.420245 0.524212 -0.350956 0.333419 -0.456225 0.330262 -0.441058 0.000380 0.068179 -0.187217 -0.431648 0.096845 0.376370 -0.037549 -0.610234 -0.388213 -0.563552 -0.369452 0.458537 0.256958 0.511908 0.252389 -0.074319 -0.251570
Zij 0.137665 0.355051 -0.001572 -0.493466 0.185081 -0.046802 0.310056 0.206733 0.133772 0.121152 0.357527 0.445298 0.147635 -0.350366 -0.034958 -0.089409 0.140624 -0.036304 -0.231213 0.014606 -0.308722 0.032491 0.600347 -0.678028 0.238319 -0.267969 -0.159625 0.283157 -0.379811 0.305919 -0.019386 0.064722 0.464152 -0.087588 -0.285593 0.088350 -0.111313 0.202211 0.058979 -0.101431 -0.081696 -0.124675 0.158378 -0.478519 0.434072 0.147789 0.225185 -0.089563 -0.288309 0.247930
krijgen 0.213533 0.324473 -0.305520 -0.288476 0.069178 -0.142422 0.123553 -0.209593 0.059520 -0.081221 0.360250 0.188713 0.135956 -0.058077 0.049364 -0.067054 0.207311 0.053509 -0.180829 -0.092159 0.057308 0.133319 0.467121 -0.552888 0.053203 -0.421240 -0.624676 0.436727 -0.292078 0.038665 -0.286196 -0.067474 0.268712 -0.167046 -0.650713 0.081895 -0.200443 0.451131 0.287699 0.033328 0.045043 -0.368760 0.347825 -0.263129 0.224798 0.291009 0.228840 -0.376132 -0.203163 -0.216861
weg -0.273681 0.066823 -0.159019 -0.131331 -0.391109 0.141705 -0.249796 0.245338 0.158742 0.186734 0.257398 0.366756 0.442858 0.238313 -0.129875 0.013200 0.024498 -0.147955 -0.511775 -0.160145 -0.083041 -0.349521 0.472210 -0.790374 0.175832 -0.012264 -0.276254 0.876367 -0.770071 0.256770 0.305628 -0.245123 -0.012970 0.047418 0.252957 0.130711 -0.026780 0.381917 0.332053 -0.021572 -0.337772 -0.092614 -0.259944 -0.280228 0.315682 0.062767 0.216414 0.025365 -0.173378 0.008752
Je -0.319728 0.291102 0.775422 -0.239970 -0.335111 -0.060694 -0.560609 0.065264 -1.199514 0.157867 -0.400614 -0.438957 -0.220741 -0.099612 -0.027933 -0.753305 -0.111935 -0.257515 -0.684443 0.830896 0.251879 0.034945 -0.646576 0.056092 0.213131 0.676524 -0.401205 -0.320602 0.144354 0.024030 -0.735320 0.567691 0.041162 -0.265516 0.204663 0.036092 0.146781 -0.160914 0.441529 -0.094458 -1.010349 -0.445124 -0.154660 0.184583 -0.166224 -0.713692 0.093522 -0.349400 0.714282 -0.225419
Wie -0.174788 0.120254 0.550130 -0.214595 -0.167408 -0.021670 -0.347150 0.281846 -0.522267 0.200037 -0.330496 0.373126 -0.094015 -0.338589 0.404297 -0.679444 0.172449 -0.207679 -0.328324 0.597466 -0.143961 -0.170183 -0.330825 -0.056653 0.490279 0.603290 0.024895 0.342462 0.066045 0.206917 -0.529262 0.417421 -0.129967 -0.528417 -0.172391 0.036925 -0.215026 -0.317668 0.538770 -0.308060 -0.648097 -0.171883 0.081631 -0.150371 0.091887 -0.214310 0.462795 0.089305 0.250491 0.053861
mogelijk -0.056921 -0.156392 0.509689 -0.339098 0.710217 -0.255639 0.059905 -0.471032 0.496419 -0.336970 0.553101 0.061313 0.036206 0.435660 -0.001203 -0.194900 0.041040 0.155043 -0.757934 1.182699 -0.246662 -0.312697 0.528254 -0.774673 0.313130 -0.095840 0.383111 0.130197 -0.114908 0.028326 -0.060386 -0.462906 -0.333802 0.250428 0.300897 -0.131063 -0.094231 0.036859 0.755187 -0.508149 -0.786560 -0.039732 0.303929 -0.262193 -0.049613 0.342069 0.296214 1.012465 0.001031 0.418086
Wanneer -0.329059 0.293317 0.037593 -0.409289 -0.225866 -0.305587 -0.406706 -0.144130 -0.430438 0.368888 -0.294458 0.071141 0.043806 -0.382152 0.184823 -0.417957 -0.052934 -0.336973 -0.351272 0.274456 -0.221718 0.143181 -0.230560 -0.259564 0.071642 0.211750 -0.406003 0.364915 -0.209117 -0.126358 -0.511810 0.352200 0.184497 -0.537222 -0.298539 -0.101013 -0.081817 0.404727 0.395494 -0.204673 -0.525961 -0.451035 0.124003 -0.149754 0.032264 -0.076904 0.223091 -0.120027 0.321960 -0.173339
plaats -0.307811 0.048438 -0.055324 -0.355350 0.148241 -0.233349 -0.361014 0.089752 0.060465 0.131132 0.505008 -0.068556 0.252396 0.040674 0.229872 -0.030929 0.079611 -0.057733 -0.112996 -0.236151 0.137742 -0.391884 0.674035 -0.644755 -0.158431 -0.132726 -0.634406 0.439963 -0.428556 0.032481 -0.233326 -0.304401 0.074783 -0.089146 -0.465810 0.058660 -0.373958 0.319040 0.438355 0.057414 -0.195976 -0.182194 0.315865 -0.194383 -0.047140 -0.056289 0.215224 0.003602 0.024988 -0.049986
binnen -0.179507 0.269254 0.015379 0.013486 -0.209762 -0.123537 -0.231393 -0.011619 0.221416 0.137778 0.272539 -0.358508 0.213759 -0.026293 0.026026 0.239189 0.034825 -0.090752 -0.201184 0.085937 0.068999 -0.152672 0.421023 -0.501195 -0.145227 -0.464933 -0.654979 0.413514 -0.376128 -0.092614 -0.016581 -0.111495 -0.402971 -0.148442 -0.226432 -0.040382 -0.097872 0.032083 0.171793 -0.040250 -0.318413 0.011632 -0.084003 -0.253096 0.026941 0.090410 0.017476 0.407806 -0.130220 0.052811
heb -0.574160 0.048946 0.099027 -0.442629 -0.388432 0.330416 -0.388561 0.021296 -0.550863 -0.108650 -0.180581 0.368230 -0.192948 -0.245055 0.325278 -0.758629 0.128870 -0.458184 -1.123962 0.544395 -0.427981 0.340850 -0.412440 0.292915 0.502367 0.442727 -0.243847 -0.106284 -0.044301 0.050323 -0.476420 0.037022 0.413611 -0.680783 -0.255668 0.167744 0.066665 0.126099 0.484649 -0.037176 -0.081179 -0.300572 -0.178381 -0.297704 0.127468 -0.797267 -0.057948 -0.125266 0.627966 0.130957
uur -0.751232 0.323177 0.171340 0.026941 -0.162396 -0.148380 -1.149176 -0.478871 0.550109 0.047965 -0.019084 -0.644969 0.159251 0.381467 -0.231501 0.230409 0.158572 0.192136 0.097178 -0.369786 -0.149908 -0.377125 0.410879 -0.245668 -0.297846 -0.233941 -0.791733 1.253794 -0.683481 -0.508054 0.270755 -1.028655 -0.568248 -0.031105 -0.310956 -0.437937 -0.088447 0.006535 0.138188 0.184851 0.221955 -0.358486 0.176527 0.451292 -0.730908 0.118326 -0.275575 0.138170 0.017273 -0.623382
; -0.135337 0.051528 0.563902 -0.079339 -0.169208 -0.376143 -0.291868 0.116040 0.449255 -0.183014 -0.032312 0.159343 0.482056 -0.099589 -0.358760 0.310106 -0.291291 -0.149450 0.054825 -0.227435 -0.129120 0.069518 0.022300 0.137698 -0.551555 0.264581 -0.350502 0.495381 -0.550448 0.246616 -0.293037 0.152105 -0.482911 -0.606898 -0.211025 -0.192357 0.040160 0.008313 0.443241 -0.412731 -0.464641 0.162809 -0.096041 -0.324006 -0.254763 -0.029225 0.324135 0.548946 -0.055893 0.188994
blijven -0.171199 0.208105 0.055592 -0.425967 0.223587 -0.257706 0.332147 -0.069553 0.204344 -0.238272 0.207606 0.141763 -0.152236 0.092918 -0.068487 -0.215182 0.313802 0.187120 -0.697837 0.253948 -0.274811 0.051261 0.330357 -0.539418 0.218057 -0.252810 -0.259606 0.154279 0.007737 0.215356 -0.285171 -0.239288 0.192380 -0.389180 -0.240670 0.110533 -0.012948 0.399905 0.222518 -0.110587 -0.154623 -0.294133 0.012437 -0.411869 0.292857 0.162279 0.239033 -0.245910 -0.053169 0.256461
eerst 0.068327 0.700126 -0.260626 0.112210 -0.039540 -0.135075 0.105278 0.237178 -0.114206 0.262063 -0.187243 0.107975 0.186819 -0.180722 0.075749 -0.370409 0.142282 -0.339714 -0.625478 0.333139 -0.338239 -0.108761 0.227886 -0.960603 0.227702 -0.124058 -0.385192 0.769722 -0.429676 -0.108422 0.172515 0.174760 0.590823 -0.309116 -0.464627 0.073629 -0.174363 0.541823 -0.076817 0.539375 -0.318516 -0.261777 -0.381613 -0.327933 0.475555 0.346476 -0.076095 -0.313958 -0.081447 -0.290652
omdat 0.109444 0.555395 0.246241 0.016314 0.294219 -0.125831 -0.081281 -0.218577 0.369803 -0.029949 0.285398 0.360768 0.514792 -0.190666 0.007491 -0.407436 0.016090 -0.739610 -0.443702 0.524022 -0.167561 0.076773 -0.339168 -0.411730 0.559386 0.114081 -0.369620 -0.107286 -0.433287 -0.116271 -0.228522 0.013900 0.213088 -0.513387 -0.420350 0.264737 -0.137155 0.343151 0.442100 -0.274987 -0.365932 0.265059 0.168737 -0.706957 0.264306 0.409520 0.366221 -0.242679 -0.231643 0.207875
enkel -0.270020 0.324551 0.078781 0.156099 0.107265 -0.452080 -0.128403 -0.239633 0.144261 -0.100752 0.142332 -0.040461 0.180787 -0.006614 0.311896 -0.137085 0.103442 -0.192625 -0.403587 0.485071 0.009846 -0.107495 -0.284791 -0.558334 0.180403 0.116186 -0.260443 0.069875 -0.089255 -0.092036 -0.219941 0.084134 -0.085147 -0.430813 -0.420058 0.037982 0.038339 0.442556 0.490832 -0.164838 -0.557972 0.126141 -0.044328 -0.534120 0.273971 0.334086 0.271897 0.180529 -0.090370 0.282815
verschillende 0.035820 -0.062678 -0.193726 -0.116767 -0.429412 -0.094279 -0.314826 -0.339129 0.362886 -0.674427 0.233383 0.085219 0.320882 0.099164 -0.206872 0.566935 0.090291 -0.128467 -0.051387 -0.433664 0.077207 0.320647 -0.188837 -0.117310 -0.333791 -0.318427 -0.197552 -0.033780 -0.342373 -0.182113 0.329513 0.130299 0.042888 -0.235162 -0.474256 -0.159795 0.349015 0.630546 0.273341 -0.258967 0.309189 0.114292 0.117548 -0.219044 0.027206 0.060664 -0.035606 0.092296 0.016360 0.249270
hem -0.061864 0.047372 0.273397 -0.311925 -0.047326 0.058763 0.056181 -0.129400 -0.227254 -0.075827 0.118061 0.079250 -0.081520 -0.117169 0.189357 -0.395305 0.134465 -0.212590 -0.238777 0.367795 -0.237957 -0.268934 -0.058172 -0.587545 0.395850 0.079535 -0.622996 0.214317 -0.247467 0.146081 -0.290059 0.074218 0.133015 -0.394474 -0.275011 0.068854 -0.172394 0.132789 0.342418 -0.062823 -0.323641 -0.169410 0.176710 -0.410789 0.209968 -0.023173 0.472655 -0.249913 0.134456 0.076509
steeds -0.465902 0.028937 -0.002832 -0.070180 -0.128350 -0.270791 -0.299950 -0.309046 -0.423460 -0.093105 0.079748 -0.056463 -0.063744 0.198142 0.330548 -0.204689 0.095380 0.026183 -0.665716 0.218346 -0.245195 -0.223179 0.149243 -0.769204 0.245591 -0.171762 -0.441216 -0.028376 0.009366 -0.050753 -0.029528 -0.355819 0.344793 -0.138655 -0.488137 0.118632 0.035711 0.969538 0.200136 0.202810 -0.242895 -0.406533 -0.080374 -0.334950 -0.079108 0.260481 0.377685 -0.190498 0.172093 0.184917
Met -0.143493 0.089564 -0.000305 -0.179488 -0.402293 -0.064438 -0.395698 -0.132048 -0.176416 0.565998 -0.047761 -0.326968 -0.007971 -0.342955 0.133308 0.102865 0.021931 -0.249146 -0.048634 -0.063824 0.370025 0.230140 -0.030502 0.055185 -0.339314 -0.292441 -0.381634 0.040076 -0.036428 -0.178391 -0.382672 -0.004470 -0.104826 -0.145391 -0.418220 -0.050193 -0.186240 0.106729 0.136021 0.055882 0.052172 -0.007293 -0.226299 -0.058545 -0.184610 0.001990 0.135477 0.138806 0.340767 -0.297816
staan -0.204055 0.376636 -0.308024 -0.284889 -0.100016 -0.194065 -0.147721 -0.172828 0.314125 0.192504 0.342871 0.198531 0.248781 -0.163901 0.125633 -0.010932 0.017319 -0.232906 -0.133960 -0.217078 -0.170390 0.205126 0.412690 -0.602933 0.032627 -0.277548 -0.424097 0.346343 -0.493561 -0.068855 0.039860 -0.210161 0.330767 -0.110478 -0.406109 -0.068986 -0.193145 0.506705 -0.002610 -0.117186 0.079880 0.232837 -0.056855 -0.308745 0.162086 0.391496 0.308771 -0.151180 -0.230986 0.056548
zeker -0.162919 0.154003 0.410948 -0.316558 0.203358 -0.398726 0.017096 -0.010972 -0.245280 0.171756 0.020820 0.156476 -0.265482 0.142072 0.000782 -0.656364 0.189695 -0.091192 -0.641825 0.851526 -0.119586 -0.180818 -0.201238 -0.470694 0.660924 0.180800 -0.201255 0.066845 0.173040 -0.102120 -0.539482 -0.042145 -0.008399 -0.331474 0.002666 0.102078 -0.120522 0.161608 0.537828 -0.204835 -0.704897 -0.492996 0.148973 -0.216914 0.049737 0.341541 0.473491 -0.327375 0.095655 -0.173487
Als -0.197345 0.270256 -0.112574 0.020897 -0.068873 -0.048342 -0.286305 0.228895 -0.550600 -0.061214 0.035377 0.370819 0.214532 -0.409532 0.152546 -0.590770 0.146822 -0.620719 -0.478041 0.115372 -0.036410 0.104563 -0.085270 0.171822 0.266415 0.348871 -0.013744 0.402729 -0.354708 -0.116842 -0.285275 0.262380 0.371962 -0.494706 -0.321020 0.186418 0.011572 0.352315 0.341667 0.184855 -0.405434 -0.513595 0.232543 -0.206644 0.459849 -0.218171 -0.000021 -0.008754 0.138052 -0.142892
mij 0.092282 0.083812 -0.050299 -0.041171 0.043365 -0.009763 -0.253399 0.579516 -0.174986 0.279123 -0.100757 0.776056 -0.181048 -0.487713 0.200637 -0.488654 0.317101 -0.285116 -0.884226 0.696491 -0.081582 -0.370775 0.186112 -0.369135 0.555495 0.370237 0.077993 0.316920 -0.199538 0.149313 0.005244 0.035797 0.579442 -0.706707 -0.173111 0.658019 -0.172901 -0.162495 0.374781 0.000888 -0.336459 0.217981 -0.157906 -0.529284 0.050568 -0.290047 -0.184460 -0.016515 0.683090 0.212301
zodat -0.136485 0.258419 0.143743 -0.150738 -0.302188 -0.335233 -0.012225 -0.390466 -0.611492 -0.479783 -0.209218 -0.083005 0.076540 0.014767 -0.083898 -0.307630 0.099043 -0.067882 -0.395570 0.284317 -0.275207 0.041938 -0.126868 -0.572561 0.225859 0.016846 -0.650810 0.360995 -0.584158 0.002823 -0.210771 0.136734 0.115819 -0.481541 -0.256448 0.095594 0.125309 0.492883 0.305482 0.172551 -0.291322 -0.385875 -0.119747 -0.320787 0.248476 0.092399 0.016091 -0.308754 0.144877 -0.108145
had -0.320955 0.181990 0.144320 -0.220889 0.122729 0.124034 -0.228413 0.085548 0.165553 0.241524 0.143738 0.228624 0.053883 -0.481172 0.066668 -0.496514 0.340978 -0.274657 -0.764509 0.515623 -0.286581 0.184818 0.173245 0.097482 0.419968 0.089999 -0.277974 0.015859 -0.208984 0.180451 -0.161868 -0.163296 0.336166 -0.418402 -0.246432 0.243686 -0.177302 -0.097176 0.272279 -0.189052 0.015286 0.192326 -0.065378 -0.397060 0.168136 -0.334472 0.165060 -0.122308 0.022346 0.170373
snel -0.472131 -0.157591 0.512337 -0.362254 0.406271 -0.261853 -0.152281 -0.445428 0.587326 -0.034641 0.599255 0.284493 0.253130 0.142988 0.062435 -0.223309 0.208216 0.196170 -0.610612 0.698019 -0.348370 -0.287039 0.329561 -0.711370 0.517637 -0.179688 0.286598 0.278362 -0.177035 -0.004913 0.160934 -0.655652 -0.190790 -0.056048 0.190264 -0.015149 -0.202754 0.262572 0.575926 -0.207253 -0.468989 0.107391 0.339497 -0.195816 -0.349452 0.440419 0.278167 0.485609 0.014506 0.322104
waren -0.105474 0.198739 0.023893 -0.204446 0.178174 -0.256046 -0.363126 -0.096282 0.332838 0.240845 0.356100 0.357743 0.125236 -0.105999 0.004009 -0.084249 0.237448 -0.308837 -0.297944 0.279908 -0.330525 -0.163649 -0.362076 -0.504999 0.433761 -0.099120 -0.001672 -0.019911 -0.220494 -0.147473 0.164144 0.062521 0.229702 -0.414743 -0.295117 0.187079 0.009336 0.396421 0.283170 -0.308786 -0.073640 0.146162 0.214603 -0.273751 -0.112708 0.360218 0.240787 -0.390136 -0.046914 0.221500
verder -0.470929 0.159484 -0.117626 0.107605 -0.170713 -0.176377 -0.051619 -0.133590 -0.312281 -0.156788 -0.129218 -0.077777 0.441336 0.338501 -0.181353 -0.166113 0.131523 0.320907 -0.674322 0.327588 -0.285685 -0.092150 0.100033 -0.873603 0.310733 -0.320499 -0.545836 0.451566 -0.546786 -0.221006 0.072660 -0.360384 0.015011 0.091106 -0.212179 0.161874 -0.120949 0.355019 0.033224 0.195802 -0.166647 -0.191947 -0.218115 -0.145951 0.039283 0.180368 0.243825 -0.276201 -0.049498 -0.113506
werden -0.038258 0.685271 0.019966 0.236446 0.385104 -0.304224 -0.303755 -0.127988 0.570214 0.184763 0.367042 -0.002500 0.752889 -0.259165 -0.314222 0.561641 -0.247700 -0.233624 -0.021830 0.202961 -0.081481 0.422264 -0.346967 -0.319895 -0.156141 -0.418965 -0.481000 -0.150072 -0.583025 -0.291311 0.521045 -0.043825 0.070238 -0.120128 -0.734188 0.168224 0.162977 0.405172 0.020986 0.057337 0.010811 0.345461 0.210119 -0.213706 -0.469676 0.180819 -0.203121 0.208214 -0.125333 0.116315
U 0.120222 -0.158917 0.459486 -0.048567 -0.600120 -0.388242 -0.375303 0.010860 -0.806675 -0.306814 -0.726669 -0.368611 -0.002557 -0.003318 -0.167071 -0.269153 0.090046 0.106907 -0.047806 0.358320 0.302459 0.094910 -0.351168 -0.235852 -0.229200 0.408473 -0.511357 0.234929 -0.036253 0.013992 -0.797440 0.570850 -0.258217 -0.103614 0.177157 -0.022160 0.098437 0.188861 0.420288 -0.265994 -0.665932 -0.329479 0.152503 0.384854 0.172655 -0.401095 0.461318 -0.330885 0.196662 -0.181696
manier 0.536302 -0.102262 -0.042810 -0.412346 -0.115238 -0.027898 0.189333 -0.289497 -0.030021 -0.374286 0.436466 -0.206119 0.204070 -0.013518 -0.165847 -0.130078 -0.005269 -0.293383 0.080510 -0.256732 0.061542 -0.533345 0.030219 -1.129773 -0.095627 -0.483444 -0.413357 -0.081194 -0.959614 0.095912 -0.619221 0.158975 0.325023 0.080768 -0.355491 0.113454 -0.043465 0.342630 0.381226 0.150300 -0.241960 -0.895809 0.945579 -0.013620 0.505646 -0.368721 0.316966 -0.185693 0.230848 -0.079306
opnieuw -0.323409 0.021415 0.215858 -0.253509 0.038858 -0.150832 0.200190 -0.261037 -0.193786 -0.021813 -0.084570 -0.094745 -0.191579 0.055415 -0.202082 0.169330 0.005963 0.149010 -0.136790 0.123799 -0.164614 -0.334281 0.473974 -0.791384 -0.002857 -0.413633 -0.339454 0.469665 -0.322883 0.346504 -0.274426 -0.303602 -0.223521 -0.145315 0.151595 0.057746 -0.088601 0.173359 0.284810 0.072523 -0.135081 -0.483950 -0.102870 -0.133747 0.173412 -0.098693 0.134880 0.032590 -0.175568 -0.003881
per -0.130060 -0.079561 0.377341 0.283639 0.117258 -1.228056 -0.891240 0.108764 -0.035097 -0.521558 -0.269702 -0.171871 -0.138473 0.091174 -0.709154 0.691067 0.705998 0.216197 0.842631 -0.586009 0.083872 -1.085711 -0.079486 -0.612172 -0.345532 0.174031 -0.262965 0.547602 -0.637064 -0.315710 0.063515 -0.554648 -0.115072 -0.551199 0.091548 0.579042 0.748126 0.034738 0.124183 0.206791 0.386230 -0.594013 0.398558 0.315931 -0.580197 -0.459228 -0.668156 -0.372482 0.030026 -0.069145
vinden -0.102434 0.157566 0.001511 -0.295114 0.385411 -0.572903 -0.096471 0.178438 0.157407 0.042638 0.115163 0.197646 0.051857 0.163211 0.018836 -0.104640 0.133499 -0.056007 -0.205957 0.090631 -0.026076 -0.198187 0.279036 -0.624856 0.258217 0.026639 -0.181094 0.435617 -0.296814 -0.103308 -0.368222 -0.360323 0.098436 -0.006898 -0.175853 0.068418 -0.085343 0.285410 0.402954 -0.176325 -0.215444 -0.243922 0.166693 -0.185861 0.269958 0.138374 0.254133 -0.242275 -0.153310 0.049973
zelfs -0.580892 0.501300 0.329397 -0.102087 0.203204 -0.419276 -0.295905 -0.261264 0.212163 0.397485 0.133872 -0.060401 -0.006827 -0.006390 0.259111 -0.175878 0.107355 -0.178726 -0.129747 0.218027 -0.281423 -0.163611 -0.166766 -0.179718 0.341050 -0.254627 -0.471944 0.244934 0.024349 0.123590 -0.164875 -0.407631 -0.088161 -0.590281 -0.743115 -0.014018 -0.085983 0.164368 0.062576 -0.101421 0.040844 0.219846 -0.084425 -0.365864 -0.471368 0.384751 0.505450 -0.373851 -0.256785 -0.020164
zullen 0.307309 0.720968 -0.137563 -0.334637 0.342502 -0.548390 -0.007881 -0.155830 0.506827 0.025416 0.426959 0.208548 0.438736 -0.082703 -0.499894 0.130070 -0.055595 -0.213390 -0.075712 -0.156355 -0.196868 0.415834 0.249926 -0.566647 -0.030131 -0.511864 -0.580101 -0.115838 -0.389455 -0.031849 0.206771 -0.003315 0.589237 -0.440588 -0.754060 0.064915 0.187314 0.887907 0.022030 -0.183774 0.046473 -0.178320 0.331643 -0.351681 -0.103516 0.710141 -0.095130 -0.576029 -0.207493 0.004362
Er -0.341874 0.432725 0.253014 -0.084075 0.392195 -0.099595 -0.683728 0.219242 0.257771 0.391224 0.207362 0.345041 0.063477 -0.252620 0.235930 -0.248343 0.166000 -0.273999 -0.418349 0.551058 -0.278619 -0.144606 -0.013376 -0.305080 0.456102 0.162421 -0.247494 0.247947 -0.203416 -0.103102 0.319383 -0.307368 0.395167 -0.117213 -0.200951 0.155116 -0.197597 0.171026 0.291020 0.005778 -0.312520 0.172267 0.055673 -0.202672 -0.306569 -0.030660 0.055014 0.063916 0.078066 0.276907
n -1.207064 0.278534 -0.011249 0.081701 -0.980642 0.377145 -0.991850 -1.006522 0.134714 0.834228 0.257340 -1.073344 -0.207507 -0.130846 1.206788 -0.056132 -0.250167 -0.568159 -0.043015 -0.209503 0.964692 0.537821 0.297718 0.802195 -0.345138 -0.176442 -0.460666 -0.413624 0.327535 -0.407666 -0.506731 -0.633630 -0.975493 0.229891 -0.367121 -0.645932 -0.360239 -0.384086 -0.008358 -0.263700 0.395832 1.059430 -0.739332 -0.228064 -0.899338 -0.150255 0.112154 0.798601 0.369150 -0.044778
nodig 0.050041 -0.216260 0.405452 -0.350618 0.193065 -0.023937 -0.091698 -0.158533 -0.026578 -0.417506 -0.157426 0.160988 0.031887 0.310661 0.021036 -0.256933 0.177628 0.007586 -0.483601 0.352378 -0.058260 -0.584244 -0.290343 -0.546547 0.145137 0.113517 0.264653 0.517642 -0.077970 0.302914 -0.334339 0.029928 -0.343817 -0.332903 -0.173758 -0.046954 0.076220 0.278512 0.947131 -0.140665 -0.715239 -0.331753 0.196400 -0.088505 0.317916 -0.078807 0.217573 0.004410 -0.007473 0.079537
vooral -0.164178 0.211713 0.062636 0.101528 0.095500 -0.079536 -0.005546 0.099335 0.294937 0.106932 0.353647 0.241897 0.430261 -0.236011 0.014249 0.033510 -0.087279 -0.140930 -0.438217 0.164448 -0.128935 -0.065831 0.085628 -0.394374 0.023595 -0.079157 -0.048732 0.571125 -0.333644 0.093595 0.177882 0.257456 -0.378907 -0.401264 -0.234263 0.051773 -0.034548 0.276945 0.357469 -0.173824 -0.339123 0.037404 -0.092870 -0.507390 0.266058 0.264712 -0.011044 0.543238 -0.417488 0.294654
beter -0.758882 0.214589 0.336566 -0.048997 -0.069369 -0.176607 -0.347407 -0.005287 -0.259194 0.246223 0.040552 0.076157 -0.074596 0.057675 0.502078 -0.492804 0.330594 -0.171467 -0.622492 0.495742 -0.346571 -0.235368 0.134779 -0.249084 0.729229 0.125835 -0.178823 0.272751 -0.080315 0.078756 -0.075653 -0.677373 -0.106981 -0.164946 -0.106637 0.074342 -0.187670 0.165886 0.128901 0.137223 -0.301857 0.118234 -0.381998 -0.431274 -0.227807 0.233710 0.405551 0.013326 0.250386 0.123829
hadden 0.082890 0.496405 -0.468650 -0.287756 -0.054173 -0.027135 -0.289964 0.085631 0.562187 0.192133 0.251103 0.328227 0.410535 -0.117874 0.051695 -0.061888 0.293600 -0.241923 -0.413920 -0.269067 -0.085742 0.059370 0.306052 -0.306317 -0.070845 -0.229735 -0.169495 0.541664 -0.243627 -0.238707 0.203516 -0.196948 0.591161 -0.333411 -0.463365 0.058662 -0.172105 0.671099 -0.008052 0.132759 0.259128 -0.042503 0.188071 -0.066333 0.112135 0.434171 -0.163773 -0.467682 -0.065222 -0.018723
jaren -0.184008 -0.119027 -0.156276 -0.381569 -0.424433 -0.036765 -0.822444 0.031154 0.679936 0.579047 0.455949 0.313135 0.178422 -0.431751 0.304778 0.342896 0.155046 -0.200420 0.235045 -0.286396 -0.227442 0.086108 -0.264476 -0.214555 0.010680 -0.341821 -0.705170 0.231953 -0.254552 -0.262845 0.646493 -0.296794 0.210986 -0.453208 -0.412230 -0.058538 -0.041598 0.106855 0.013350 0.030548 0.271155 0.339129 0.122126 -0.287314 -0.871474 0.353799 -0.387950 0.133931 0.385519 -0.027530
keer -0.210141 -0.125143 -0.106875 -0.394456 -0.238167 -0.344525 -0.636996 0.075377 -0.239833 0.270885 -0.093264 0.141975 -0.602820 -0.165641 0.047908 0.057929 0.135964 -0.014402 -0.186967 -0.029684 0.098254 -0.498500 -0.012913 -0.526443 0.090264 -0.042857 -0.200143 0.339792 -0.309032 0.083329 -0.310140 -0.413009 0.320722 -0.454373 0.117785 0.371369 0.234179 0.371077 0.419384 0.041553 -0.027125 -0.571845 0.154308 0.112472 -0.074496 -0.481265 -0.138263 0.181042 0.371376 -0.125979
laatste 0.011498 -0.022170 -0.045849 -0.533298 -0.209135 -0.346927 -0.754214 0.312403 0.360553 0.231362 0.271248 0.452367 -0.208967 -0.277073 -0.138188 0.064370 0.278529 0.042623 0.094837 -0.240821 -0.180439 -0.353519 0.127977 -0.422327 0.133794 0.105183 -0.563682 0.644828 -0.481329 -0.375700 0.206116 -0.328235 0.453257 -0.544673 0.079665 0.114467 0.125486 -0.055230 0.237291 -0.051301 0.065647 -0.260094 0.334911 -0.145914 -0.305874 0.152680 -0.468259 0.004259 0.406395 -0.248140
