</s> 0.160677 -0.726109 -1.390386 -3.778777 0.379125 0.745196 2.660868 0.353796 -0.282873 0.165828 0.669786 -0.846299 0.383149 -0.207678 2.025639 -2.721228 0.107594 -1.131189 0.284758 -0.091574 -0.447340 0.751635 0.777188 -0.618279 0.927989 0.466833 -0.506312 -0.432000 0.446189 -0.536592 -0.452777 -0.136066 -0.354486 0.977476 0.246525 -0.674731 0.636408 -0.400770 0.276950 -0.679286 -0.870569 0.290751 -0.055360 0.333793 -1.273934 0.285609 -0.715802 0.705813 -0.785438 0.922981
<s> 1.275652 0.306265 0.264207 -4.637183 -0.414199 -1.412258 -0.282763 -0.141542 -0.303041 -0.210900 1.795567 0.088794 -0.135170 -0.362067 2.328160 -2.279080 0.250385 0.701459 -0.964309 -0.282303 -0.597764 -0.823714 -0.417614 -1.583380 -0.742985 -1.546612 1.087050 -0.681427 -0.802799 -1.461210 -0.175019 2.144447 -0.881264 0.017495 0.413986 0.532086 0.837266 -0.237819 0.972069 1.255984 -0.336419 -1.486290 -0.740344 1.024644 -0.359288 -1.531508 -1.305020 0.273851 0.396953 -0.433069
. 0.497751 -0.682606 -1.701084 -3.612246 0.401019 0.829463 2.887900 0.326854 -0.435979 0.170822 0.353479 -0.970911 0.354021 -0.120132 2.215152 -2.764689 0.007767 -1.126937 0.298006 -0.134794 -0.340227 0.875276 0.819293 -0.539201 0.793413 0.608854 -0.843194 -0.452624 0.726634 -0.272086 -0.334739 -0.147233 -0.117919 0.717282 0.166158 -0.694177 0.293212 -0.305584 0.536506 -0.863771 -0.496846 0.292079 -0.129771 0.124345 -1.059960 0.394720 -0.472320 0.521972 -0.736131 1.050929
de 0.678634 0.152652 0.129352 -4.306996 -0.560470 0.601747 2.422494 0.767482 -0.611642 0.700142 0.391588 0.464724 0.612011 0.086873 2.192291 -3.654506 1.143153 -0.239536 1.219393 -0.164410 -0.709042 0.241336 0.744775 -0.807289 -0.668558 -0.300566 -0.782187 0.579738 -0.638002 -1.431690 -0.484990 1.093122 -0.229758 0.176290 -1.096334 0.248434 0.117456 -0.296302 0.251745 -1.738602 -0.371440 -0.702138 0.694581 -1.244861 0.358199 -0.967625 0.776810 0.901453 -0.092289 0.456260
, -1.661917 0.993000 -0.245266 -4.064431 -0.898739 -0.645198 1.656337 -0.466209 0.020710 -0.141402 0.035652 0.333835 -0.039505 0.009497 1.395811 -3.179834 -0.609984 0.845332 0.682072 -0.146856 -0.070404 0.100798 0.292002 -0.896975 0.172182 -0.659565 -0.001870 -0.181217 -0.253808 0.607358 -0.489305 -0.571866 -0.225341 1.554120 -0.419479 -0.476030 -0.564401 -0.684405 0.837091 -0.297441 0.284058 0.261213 -1.091133 1.750779 0.465278 0.334605 -0.013065 1.525654 0.316415 0.127123
van -0.748202 -0.267961 0.105923 -4.671496 -0.797445 0.524481 2.956200 -0.396883 0.193145 -0.348007 -0.323264 0.267591 0.151004 0.626972 1.309029 -2.116889 0.296207 -1.064979 0.055881 -0.106659 0.252606 -0.417132 -1.070380 -1.681850 -0.345140 -0.086507 1.147988 0.745901 0.518530 2.137447 0.436498 0.974436 0.957209 0.125581 -0.490455 -0.384029 -0.445615 1.037479 0.493912 -0.703111 -1.655433 -0.368970 1.057683 -1.025689 -0.059768 -0.236894 0.656455 -1.025700 0.776962 -0.249366
en -0.415796 -0.812814 -0.699423 -4.687666 -0.557040 -0.557911 1.500669 0.157154 -0.480874 0.634899 -0.197341 -0.287745 -0.103422 0.486684 2.460499 -1.500291 -1.026161 -0.323834 1.038993 -0.398861 0.139345 0.697656 0.579177 -2.014997 0.091904 0.062711 -1.115246 0.330880 0.269400 0.822943 0.299235 -0.439175 -0.414931 0.049678 -1.689614 -0.209324 -0.025282 -0.355003 -0.097327 -0.022263 -0.677123 -0.453571 -1.023241 1.271431 -0.800952 0.548817 0.356965 0.153676 -0.358598 -0.116231
een 0.388675 -1.135739 -0.314103 -4.491856 0.484159 -0.116093 1.873556 -0.564539 -0.146801 -0.438594 -0.464998 -0.725355 -2.385397 -0.407312 0.810160 -3.662031 0.082042 0.847298 -0.403004 -0.547689 1.319742 0.807847 -0.074025 -2.199272 -0.397461 0.327247 0.741020 -0.280579 -0.359277 -0.152011 -1.144116 -0.030618 -0.064746 -0.054127 0.502523 -0.715968 1.482303 0.202553 -1.047054 0.231433 -1.217370 1.347021 0.765937 -0.004090 0.545404 0.540352 0.392660 -0.341964 1.261670 0.947510
het -0.741900 -0.758565 0.004121 -5.100437 1.150244 0.423895 2.024924 0.603449 -0.022113 0.092350 -0.259585 -0.309243 -0.780132 1.234284 1.987669 -2.934068 0.019239 0.621213 -0.071372 -0.093578 0.293566 -0.894441 0.448343 -1.254048 -1.106529 -0.682044 0.424308 0.524931 -0.245715 0.741509 -0.624342 0.150562 -0.152849 0.344215 0.561190 -0.042681 0.818904 0.990791 0.889927 0.101811 0.176065 -0.025481 0.839883 -0.545115 -1.113343 0.350136 0.496242 -0.373203 -0.333139 -0.432520
in 0.445934 1.156892 -2.193921 -4.957612 0.377736 0.619638 1.444075 -0.801783 -0.800141 -0.832089 0.519439 0.929601 0.209421 -0.119041 1.608890 -2.638227 -0.966481 -0.152906 0.732761 0.945902 0.179670 -0.968168 0.981483 -1.044685 0.534640 -0.208715 0.324816 -0.561946 0.763095 -0.214016 0.014294 0.559441 0.323315 1.414234 -0.714972 0.603262 0.940459 0.218532 0.969344 0.331797 0.911767 0.563132 -0.654049 -0.772100 -0.204965 0.812665 -0.456137 -0.622419 0.293783 1.232275
is -0.732851 1.349835 -1.203754 -4.034742 0.155266 0.463894 2.057258 -0.653754 0.153696 -0.589452 0.981419 -1.258036 -0.116818 0.310491 1.976098 -2.811755 0.774428 0.773420 0.189219 0.890835 0.923257 -0.089807 0.189158 -1.602233 -1.260862 -0.233572 1.452514 -0.472676 0.098012 -0.894045 -0.552166 0.690882 0.071503 0.086760 0.594509 -0.214198 0.818270 0.547427 -0.400281 -0.202595 -0.519053 0.226775 0.988403 0.169801 -0.427445 0.585653 -0.851953 0.070906 0.190219 -0.469508
te -0.741734 -0.746362 0.205414 -4.805728 -0.670087 0.899151 2.746737 -0.312880 0.330650 1.061340 0.682582 -0.525211 0.358287 0.057961 1.494956 -2.661148 -0.037469 -1.144769 0.705702 -0.500493 -0.399782 0.380521 1.490679 -2.103067 1.389785 -0.235562 -1.132565 -0.646572 0.105058 0.853247 -0.363634 -0.925141 -0.292645 0.819708 0.053468 0.747360 0.384976 0.034858 0.440148 0.287831 0.233651 0.987993 0.602942 -0.772776 -0.749413 0.150272 0.386746 -1.027672 -0.834501 0.160362
op 0.110861 0.433003 -0.195007 -5.156796 0.076877 -0.062950 2.648744 -0.091797 0.890578 0.145088 -0.104801 0.161443 -0.560559 0.369865 2.397354 -1.582917 1.224868 0.049641 -0.692819 -1.736263 0.767056 0.581644 0.629473 -0.397899 1.334716 0.302009 -0.786053 -0.443558 -0.024360 -0.514302 -0.437599 0.634938 -0.391303 0.824285 0.552462 0.171137 0.684218 -0.822034 1.056951 0.279565 0.352809 -0.049884 0.744314 0.097295 -0.467115 0.224707 0.495997 -0.992660 0.566268 0.037489
met 1.097940 -1.216613 -0.496822 -4.205184 -0.275272 -0.596316 2.822300 -0.237841 -0.168675 0.358517 0.550661 0.254154 -1.613100 -0.297127 1.491936 -2.828248 -0.874786 0.246172 -0.628557 -0.019429 1.885224 1.011056 0.069442 -1.558635 0.286773 0.766142 0.210446 0.056701 0.735248 0.402266 -0.251742 0.199382 -1.238306 0.139219 -0.672267 0.636946 0.545740 -0.036521 -0.942574 -0.081934 -0.683983 -0.094820 -0.170644 0.859683 -0.085965 -0.567761 0.155360 -0.018855 0.175668 0.842895
voor 0.099831 -0.357400 0.410107 -5.142462 -0.984237 0.384815 1.289005 -0.489946 0.998611 -0.189916 0.069018 0.422557 -0.838165 0.477256 0.490909 -2.639335 0.073417 -1.233314 0.052768 -1.327289 -0.339626 -0.428257 0.299043 -1.975627 -1.136588 -0.551823 0.109275 -0.558708 0.102875 -0.683331 1.181628 0.748207 -0.093580 -0.215878 0.640411 -0.573521 1.575135 -0.348101 -0.877953 -0.259025 -1.087054 0.212017 0.465876 0.605142 -0.384572 0.897409 0.724735 -0.409971 -0.862896 0.315832
dat -1.210979 0.776804 -0.184865 -4.678721 -0.051664 -0.099545 1.713872 -0.565790 0.016875 0.019596 0.420936 -0.961422 -0.725622 -0.131636 1.057823 -3.166496 -0.225504 0.948697 -0.326565 0.371094 1.034771 0.232998 -0.046482 -1.466691 -0.513307 -0.307122 0.306536 -0.218382 -1.054518 -0.323469 -0.266124 0.059025 0.308502 0.421609 1.372156 0.507213 0.113600 0.398413 0.305401 -0.830220 -0.727675 -0.466039 0.577464 -0.772722 -0.476872 -0.311202 0.055889 0.187938 -1.232158 -0.228267
&apos; 0.266197 -0.193849 -0.024461 -5.660766 -0.255408 1.073848 0.970337 0.346132 -0.200785 -1.354968 0.325779 0.119594 1.015175 -0.171421 2.723799 0.178644 -0.213827 0.496021 0.088249 0.777156 -0.496513 0.880987 0.680174 -1.151082 -0.972313 -1.746498 0.370083 1.164435 -0.946557 -0.069974 0.820144 -0.328801 -0.858794 1.422453 1.442138 0.940923 -0.788717 0.110685 -0.524264 -0.495985 -1.115161 0.055873 0.074755 0.266443 0.483246 -0.438244 -0.353302 1.410962 0.638550 1.083605
zijn 0.306557 -0.002080 -1.114114 -4.844692 0.154448 -0.711237 2.236670 -0.393616 -0.322934 -0.308755 0.932561 -0.350533 0.406890 0.497514 1.143983 -1.869200 0.310630 -0.634659 -0.021685 -0.054845 0.905631 -0.528497 0.451144 -1.800526 0.243862 0.291747 -0.052778 -0.808184 -0.676286 0.484951 0.527925 0.726841 -0.054438 -0.129412 0.816811 -0.021348 -0.256386 -0.013460 0.261930 -0.523852 -0.714560 0.270360 -0.536903 -0.429788 -0.480997 0.473639 0.287674 0.704034 -0.285050 0.063703
die 1.240235 0.461926 0.093817 -4.993931 -0.705177 -0.425389 1.828982 -0.606671 -0.160720 0.147711 0.831181 -0.130191 -0.173554 -0.728146 0.285543 -2.443398 -0.043566 0.248896 0.091666 -0.372487 0.692124 0.481641 0.016734 -1.374559 0.464729 0.298233 -0.167877 -0.243952 -0.336136 0.154640 -0.286387 0.719417 0.941969 0.648072 0.611872 0.584335 -0.528181 -0.395822 0.464660 -0.687905 -0.598679 0.563649 -0.318709 -0.381031 0.567440 0.092996 -0.056449 0.506078 -0.595522 0.414585
De 2.237892 0.248778 -0.164387 -3.752496 -0.865236 0.203344 2.290916 -0.387846 -0.265715 0.590643 0.362855 0.938596 0.319548 0.587181 2.306935 -2.538883 1.363737 -0.257891 0.382238 0.030279 0.324039 -0.209166 0.092056 -1.547359 -0.702222 0.096915 -0.037658 0.426096 -0.442827 -0.356220 -0.466251 2.599505 0.113321 -1.641361 -0.241748 0.932957 0.038726 -0.461875 -0.802678 -1.671610 -0.047452 -0.269751 0.754574 -0.114046 0.415554 -0.213824 0.158791 0.345698 0.861710 0.122727
niet -0.694818 1.003243 -0.538621 -4.697935 -0.370486 0.104790 1.676246 -0.094776 -0.107486 0.398953 1.191723 -0.910337 -0.373006 -0.298312 0.643234 -3.083850 0.643471 0.168164 0.511685 0.172693 0.796922 0.055272 0.883468 -1.424036 0.182469 -0.723017 -0.210440 -0.254187 -1.009327 -0.220019 -0.019465 0.135444 -0.477637 0.323293 0.595756 0.351244 -0.225581 -0.423347 0.328324 -0.278768 -0.843060 0.049197 0.531654 -0.771336 -1.010506 -0.443580 -0.265804 0.054808 -1.398814 -0.313873
je -0.946660 -0.438492 0.013928 -5.205681 1.109635 -0.001038 1.811195 0.989727 -0.141305 0.997808 1.265464 -0.673258 -0.644905 -1.276599 1.418489 -1.724930 0.706975 0.856278 0.002420 -0.855472 -0.207137 0.289037 -0.469445 -1.782553 0.801959 0.472528 0.402915 -0.526534 0.600392 -2.103406 0.523685 -0.571856 -1.307971 1.379356 -1.657328 -0.525860 -0.311935 -0.770153 0.447624 0.687815 -0.950740 -0.265214 0.744228 -0.475292 0.059023 -0.246271 -0.640978 0.520595 -0.141927 0.001062
) -0.884753 0.564656 -0.337089 -4.555434 -0.527594 0.871425 2.032825 -0.288374 -0.745317 1.018786 -0.976842 -0.515605 -0.429477 0.041878 1.497290 -2.195437 0.094806 -0.282004 0.282656 -0.324728 0.935363 0.308892 1.108947 0.752860 -0.857145 -1.315034 -0.114069 -0.015169 0.190971 0.064437 0.896402 0.378702 -1.115061 -0.587292 -0.219567 0.443621 0.152677 -0.483509 1.455466 -0.904857 -0.875202 0.402637 -1.436546 0.421682 1.275080 0.584978 -0.486085 0.468328 0.248834 0.744712
aan 0.002955 -0.257455 0.005759 -4.707536 -0.643107 -0.253201 2.938031 -0.148666 -0.087848 1.282611 0.193811 -0.493579 -0.384024 -0.029970 1.476372 -2.688895 -0.902238 -0.259820 0.085949 -0.696178 -0.262014 -0.379995 -0.262422 -1.260065 0.124728 0.392390 -0.525274 0.285206 0.083046 -0.241058 0.668642 0.529717 0.036815 0.526630 0.388859 -0.279403 0.348215 0.088911 -0.434337 -0.475969 0.371286 -0.257048 0.629536 -0.136856 0.282941 0.305719 -0.015586 -0.199486 -0.857333 0.921843
( -0.979191 0.684278 -0.063080 -4.554200 -0.386671 0.878472 2.106830 -0.418607 -0.557522 1.003410 -1.182440 -0.300461 -0.350364 0.208183 1.433148 -1.994444 0.006801 -0.173635 0.200765 -0.206100 0.836113 0.206263 0.974010 0.686027 -0.904705 -1.358704 0.083858 0.245081 -0.117372 0.324218 1.105631 0.538037 -1.085142 -0.783583 -0.344150 0.614347 0.153375 -0.389997 1.195451 -0.698214 -0.808669 0.241876 -1.431245 0.495160 1.633985 0.513300 -0.277418 0.095996 0.550375 0.487095
- -0.217478 0.119879 -0.274303 -5.445475 -1.396782 -0.382505 0.356123 -0.186706 0.195246 0.565531 -0.748347 -0.093881 1.281709 0.249925 2.797177 -1.523388 -0.577832 -0.167889 0.677250 -0.664649 -0.050255 -0.274372 1.283297 0.971459 -0.367007 -0.365588 0.571834 -1.122577 0.481641 0.227899 -0.178025 0.236590 -0.071040 -1.017092 -0.493838 -0.537933 -0.842535 0.414696 -1.141860 1.220287 -0.214327 -0.086559 -0.838304 1.483391 -0.081648 0.082004 -1.220421 -0.250622 1.019515 0.673811
om -0.284918 -0.297328 0.533414 -4.701570 -1.043867 0.261923 2.280238 -0.259455 0.488690 0.542898 1.137018 -0.144622 -0.003852 0.347893 1.063337 -2.406131 -0.974021 -0.586521 -0.294361 -1.137039 -0.423020 0.548441 0.521346 -2.046156 0.460815 -0.195045 -0.701879 -0.892103 0.134750 -0.215181 -0.197328 -0.552198 0.117950 0.551126 0.370038 0.814897 0.541435 -0.086352 -0.091508 0.396825 0.244150 0.518225 0.954119 -0.658939 -0.216687 0.078186 0.284748 -0.729300 -0.601191 0.283067
&quot; 0.184739 0.004130 0.137929 -5.611073 0.171871 0.419430 0.715096 -0.277332 0.463598 -0.757412 0.431873 -0.337492 0.523609 0.086514 1.555214 -0.987031 0.594511 0.792067 0.425436 1.031627 -1.138275 0.752109 0.846458 -0.378129 -0.201837 -1.982974 1.136726 0.651819 -0.698605 0.599092 -0.019071 0.407540 -0.995394 0.509504 1.576515 0.604074 0.003392 -0.124271 -0.282685 -0.215335 -0.048564 -0.187738 0.317181 -0.103577 0.060905 -0.756618 -0.910376 1.218834 0.625254 0.838191
: 0.064967 0.230819 0.405587 -4.890766 -0.493453 -0.180431 0.964366 -0.125819 0.167446 0.272548 -0.338457 -0.668696 0.035631 -0.450307 1.987272 -1.186233 0.448450 -0.266968 0.052958 -0.521106 0.289256 0.004584 0.976448 -0.755301 -0.226289 -1.247250 1.282522 -0.984504 0.480652 -0.513867 -0.056393 1.303159 -1.172936 0.037465 0.344440 -0.195464 -0.223980 0.317198 0.831927 0.423647 -0.235331 -1.712259 0.104776 0.963079 0.131869 -0.224527 -0.950807 1.079546 0.002764 0.229837
ik -1.668878 0.141618 -0.719026 -4.532397 0.883555 -0.509235 2.148911 -0.255491 -0.088004 1.124631 0.493518 0.443877 -0.784834 -0.842049 0.773500 -1.635813 -0.627306 0.920177 -0.424895 -0.756417 1.093723 -0.248605 0.360295 -1.557762 0.220017 -1.317768 0.535957 -0.889747 -1.624924 -1.855277 -0.405147 0.130176 -0.119075 1.686980 -0.524461 -0.061970 0.038908 -0.787134 0.519449 0.212959 -0.551445 -0.575688 -0.105208 -0.693862 0.169819 -0.280661 -0.640626 1.016566 -0.855915 0.739115
of -0.698424 0.482283 -0.887338 -4.902650 -0.774759 0.797314 2.609096 -0.253450 -0.836034 0.321598 1.877394 0.112766 0.330231 0.453510 -0.051782 -2.474837 0.371491 1.621901 0.449588 -0.005972 0.750115 0.059898 0.278269 -0.586386 0.703699 0.018071 0.720845 0.509722 1.022722 1.219978 0.821193 -0.778686 -1.822694 0.866756 -0.670974 -0.303763 0.326676 0.382595 0.475000 0.338450 -0.118564 0.170042 0.752492 1.185431 1.027719 0.528137 -0.273211 -0.053634 0.183565 1.803498
er -0.282292 0.596302 0.105311 -4.311095 -0.768930 -0.031055 1.710671 0.153237 -0.618487 0.106386 0.781480 0.626760 -1.016672 -0.226930 1.165171 -3.091211 -0.369319 0.281894 -0.772754 -0.471017 1.140921 -0.176415 0.505254 -1.032724 -0.089382 -0.285820 0.261319 0.024296 -0.736118 -1.093156 -0.871870 0.399281 0.224358 0.893769 0.511860 0.357707 0.070181 -0.269402 0.412259 0.165599 0.249752 -0.032826 -0.058570 0.335044 -0.305139 -0.269851 0.067057 0.326803 -1.348920 0.467042
ook -0.363264 -0.118351 -0.152587 -4.819127 -0.203605 0.077651 1.882044 -0.502485 0.009021 0.232670 0.696849 0.214279 -0.810741 -0.108128 1.210372 -2.500021 0.042089 0.132675 0.105069 0.030906 0.696021 -0.068333 0.014276 -1.177623 -0.187299 0.087003 0.085034 -0.337812 -0.753568 -0.648877 -0.007142 0.318315 -0.185142 0.326916 -0.091685 0.118358 0.438581 -0.326825 0.356819 -0.143869 -0.298076 -0.132467 0.015457 0.441707 0.006745 -0.216307 0.333058 0.096824 -1.226907 -0.420430
maar -0.683995 0.081482 -0.490254 -4.430017 0.266304 -0.303446 1.791052 -0.017852 -0.395296 0.372763 0.516721 -0.339280 -0.492314 -0.523669 1.270508 -2.454543 -0.105482 -0.052560 0.110552 -0.247125 1.140053 0.639310 0.915675 -1.402514 0.270805 -0.742282 0.168092 -0.218350 -1.088976 -0.241022 -0.459682 0.012054 0.259703 0.972985 0.252226 -0.068298 0.220425 -0.260101 -0.101330 -0.197479 -0.705839 0.409553 -0.207485 -0.379150 -0.438470 -0.215021 0.428703 0.265747 -1.255051 -0.229139
als 0.701745 0.429728 0.072754 -5.239184 0.688915 -0.574457 1.269463 -0.542083 0.792314 -0.287025 0.160213 -0.854226 -0.168145 0.264863 0.724853 -2.114051 0.195410 1.173780 0.999243 -0.117344 0.650907 0.022883 0.326683 -1.528016 -0.503926 0.146767 0.533874 -0.784368 -0.972448 -0.344921 0.384074 0.180151 -0.192190 0.563468 0.207573 0.066517 -0.247506 0.095943 0.658252 -0.504792 -0.940152 0.872463 0.637956 0.140421 0.398612 0.834487 0.485000 0.041949 -0.586110 0.086071
dan -0.760349 0.437388 -0.357991 -4.381201 -0.123621 -0.040421 1.325288 0.222069 -0.109524 1.049856 0.818826 -0.184587 -0.070595 -0.791153 1.557480 -2.811786 0.121284 0.055067 -0.413722 -0.984960 1.070465 0.331475 0.325450 -1.346265 0.223129 -0.547824 0.417585 0.282356 -0.388984 -0.827928 -0.275970 0.083796 -0.632821 0.868395 0.189603 0.029981 -0.435137 0.134724 0.309501 0.018576 -0.567544 0.173395 0.387945 -0.311943 -0.009760 -0.300088 0.373593 -0.329018 -1.146844 -0.248190
Het -0.418424 -0.922413 0.247205 -4.275267 0.915173 0.461157 1.316173 0.449232 0.066418 -0.795512 -0.223227 -0.626503 -0.779639 0.866878 2.346982 -2.356615 0.227426 0.663725 -0.576905 0.188131 0.501713 -0.968239 0.103235 -1.581287 -1.378775 -0.168159 0.652493 0.558108 0.084984 0.328764 -0.584417 0.331071 -0.155457 -0.702828 0.947875 0.089093 0.617850 1.335315 0.080454 0.249740 -0.207587 -0.061575 0.160752 -0.324587 -1.021705 0.415927 0.407461 -0.129916 0.549337 -0.828990
we -0.141214 -0.043197 0.121852 -4.042637 -0.160854 0.388602 2.279268 -0.035084 -0.477773 -0.117699 1.617663 1.162216 0.191570 -0.361660 1.263151 -2.586430 -1.501531 -1.060050 -0.805227 0.291964 -0.074987 0.722141 0.808827 -0.645513 0.132534 -1.351294 0.111543 0.136015 -0.767598 -0.055408 -0.659634 0.508319 -0.564520 1.649626 0.200623 0.339351 1.408078 -0.231090 1.176312 1.480674 1.112814 -0.073842 0.416280 0.372630 0.107510 -0.943699 0.388410 0.032182 -0.123501 -0.063827
naar -0.293514 -0.405546 -1.377830 -5.070769 0.333604 0.037209 1.531610 0.208922 -0.110123 1.149425 0.152726 -0.069108 0.078857 -0.204108 1.773470 -1.915583 -0.871555 -1.049050 0.258881 -0.571243 0.293843 0.318666 -0.275667 0.346202 0.895778 -0.547218 -0.420456 0.139639 -0.496785 -0.250521 -0.520815 0.310034 0.348905 1.256166 -0.073691 0.430945 0.159142 0.331619 0.611360 1.049776 0.096337 0.768933 1.780856 -0.133127 0.937119 -0.009377 0.263151 -0.434517 1.321701 -0.012202
bij -0.477936 -0.574139 -0.012329 -4.590034 -0.400509 -0.349692 1.896479 -0.011309 -0.623473 0.306368 0.434163 0.591926 -0.572034 0.197737 0.826290 -2.880452 0.610603 0.445095 0.213877 -0.413476 0.169967 -0.321911 -0.374233 -0.794479 -0.143859 0.640335 0.151456 -0.206898 -0.705102 -0.189405 1.205567 0.378207 0.033827 -0.287234 -0.014397 -0.143085 0.661644 -0.344943 0.678790 0.346749 -0.777647 -0.726716 0.552026 0.485125 0.096590 -0.063009 0.127816 -1.070552 -0.236347 0.587383
nog -1.103596 0.094071 -0.379179 -3.977450 0.066373 -0.174661 1.642605 -0.028634 -0.427056 0.768583 0.493119 0.910736 -0.459291 -0.349563 1.670318 -2.891206 -0.431892 -0.133309 -0.331458 -0.573486 0.964810 -0.138107 0.391257 -1.242918 0.284436 -0.933429 0.220270 -0.038755 -1.208125 -0.678776 -0.626477 0.319195 0.199567 0.806197 0.174317 -0.107099 -0.099391 -0.231156 0.133864 0.113282 -0.521896 0.097983 -0.002575 -0.156001 -0.413816 -0.425470 0.772327 0.305005 -1.253097 0.083376
door 1.087014 -0.702947 -0.118596 -4.558376 -1.366700 0.418400 1.597713 0.170334 -0.670827 0.417012 1.257991 -0.293991 -0.248373 0.959580 2.237643 -2.353927 -0.235418 0.579055 0.034351 -0.056951 0.862150 0.295116 -0.948191 -0.280632 -0.230219 0.723687 -0.892483 -0.138153 -0.842745 1.371405 -1.040302 0.389210 0.200442 -0.633175 -0.127413 0.279529 -0.628034 -0.279497 0.751412 -0.684348 -0.419840 0.418070 0.618016 0.548483 -0.244862 0.160172 -0.050143 0.168962 0.006660 0.787931
worden 1.258258 0.364965 -0.319499 -4.365875 -1.783540 2.229372 1.732779 0.682088 -0.473283 -0.108231 1.747044 -0.167252 0.108660 1.141726 1.018762 -2.899402 0.155200 -0.039015 -0.378484 -0.242971 1.042667 -1.009362 0.151237 -0.642603 0.208107 1.092346 -1.031746 -0.516625 -0.080193 -0.171235 -1.259602 0.101094 -1.422668 -0.755074 0.542067 -0.102048 -0.990955 0.204794 0.614860 -0.425209 0.383127 0.684215 0.388447 0.612887 -0.227203 0.141843 0.150041 0.568594 -0.946570 0.856502
! -0.493013 -0.691682 -0.151790 -3.815995 0.785071 0.368731 2.056929 -0.096613 0.909075 -0.095562 1.229744 0.552372 0.106677 -0.603129 1.942732 -1.915759 0.194959 -1.377165 -0.032182 -0.078320 -0.913018 0.871674 0.397767 -0.217277 0.447675 -0.488685 1.197922 -0.288349 -0.481434 -1.653535 -0.489526 0.019834 -0.873979 1.252612 0.674387 -0.666312 1.137523 -1.150902 -0.447836 0.002323 -1.098558 0.211954 0.043509 0.591147 -1.633019 0.027950 -0.941866 1.408431 -0.424717 0.291991
? -0.582144 0.501186 -0.249546 -4.445862 -0.067243 0.921594 1.437547 0.343686 0.356482 -0.055260 0.852648 -0.360021 0.434937 -0.547182 0.860451 -2.171155 0.126435 -0.024407 0.449921 0.265393 -0.774743 0.201079 0.450164 -1.079284 0.703629 0.386380 0.167917 -0.098935 0.336478 -0.851811 -0.125344 -0.413437 -0.867538 1.072367 0.557116 -0.025514 0.618873 -0.165467 0.072111 -0.026418 -1.747838 -0.086295 0.879755 0.246072 -0.690879 -0.278583 -1.133440 0.446720 -0.413457 0.547965
kan -0.354069 0.169335 0.738044 -4.393403 -0.327294 0.771359 1.686580 0.336239 -0.221326 0.593785 1.039904 -0.577642 -0.948793 -0.502892 1.158111 -2.630104 0.749324 0.738327 0.074911 -0.409484 -0.104785 0.197357 -0.150671 -1.506058 0.293732 0.363446 -0.019413 -0.180422 0.572861 -0.331723 -0.001723 -0.244769 -1.011282 0.010937 -0.497301 -0.285045 -0.035592 -0.154031 0.602663 0.605541 -0.766306 0.169402 0.668020 0.255144 -0.193667 -0.367510 -0.199278 -0.777726 -0.388810 -0.421996
was -0.408578 0.897539 -1.290041 -3.382096 0.681165 -0.141146 2.158363 -0.842056 -0.228935 -0.396016 0.742954 0.333403 0.052432 0.897009 2.073985 -2.425426 -0.550398 0.176952 0.138744 0.375917 1.070780 0.063850 1.021468 -0.796582 -1.115481 -1.496409 1.265242 -0.730099 -2.288861 -0.193323 -0.680562 0.757089 0.968882 0.601129 0.843281 -0.134698 0.557210 -0.291672 0.271303 0.000187 0.035605 0.271301 0.119113 -0.162469 -0.513971 0.870962 0.248751 0.584878 0.015632 0.948062
... -1.093466 -0.062295 -0.051897 -4.064259 -0.116440 0.205050 2.001189 0.534838 0.014788 0.272798 0.912361 0.300399 0.205640 -0.350083 1.399388 -1.922910 -0.293136 -0.412499 0.122141 -0.048768 -0.058760 0.178200 0.912412 -0.574076 0.650249 -0.636070 0.536581 0.226074 -0.347895 -0.765162 -0.562781 -0.170444 -0.694138 1.575593 0.188078 -0.035932 0.717075 -0.843776 0.002290 0.152337 -1.175951 -0.539487 -0.094423 1.044499 -0.592417 0.242728 -0.998761 1.576233 -0.169955 0.426450
ze -0.025450 -0.014001 -0.273206 -4.600241 0.545670 -0.384437 1.606204 -0.048782 -0.359253 0.344013 1.131927 0.097320 -0.485523 -0.325597 1.019945 -2.567828 -0.909915 0.016836 0.114848 -0.084882 0.401019 0.522649 0.370016 -1.364855 0.297668 -0.321372 -0.539810 -0.203856 -0.884224 -0.389410 -0.051821 -0.396565 -0.654256 1.281359 0.172134 0.815642 0.026556 -0.434535 1.331398 0.250163 0.112850 0.199181 -1.054184 -0.896577 -0.430056 -0.308025 0.317041 0.007253 -1.170365 0.572191
uit 0.551944 -0.847758 -0.942903 -5.030292 0.347557 0.062365 1.409499 -0.265085 -0.125747 0.343931 0.606044 0.513690 0.355109 -0.175235 1.046631 -2.285793 -0.770246 -0.141360 0.298636 0.097110 0.850380 -0.129936 -0.070450 -0.787421 0.733455 -0.268134 0.269336 -0.224916 -0.069545 0.464738 -0.796684 0.537910 0.379634 -0.056003 -0.091897 0.639663 -0.907484 0.691143 0.346508 -0.246915 -0.263347 0.706911 -1.149512 -0.288838 -0.163130 0.559329 0.251518 -0.019855 0.149259 -0.240036
deze 0.944759 -0.139434 0.045432 -4.509077 -0.625077 0.607228 2.276248 -0.327277 -0.241242 -0.444240 0.884129 0.386606 -0.603584 -0.079838 0.743230 -2.279262 1.128540 0.051190 -0.238399 -0.495695 -0.203877 0.183052 -0.109066 -1.677736 -0.302484 0.011027 0.472605 -0.373690 0.114242 -0.380818 -1.037075 0.920944 0.316585 -0.114567 -0.047520 -0.157030 0.338015 -0.142023 0.438858 -0.482077 0.145334 0.098070 -0.146919 -0.647083 0.729273 -0.644224 0.085777 0.294677 0.103742 -0.318703
wordt 0.857687 1.038326 -0.602859 -4.102629 -0.966388 1.929418 1.111512 0.515879 -0.300137 0.243623 0.821252 -0.902634 -0.690768 0.974677 2.115089 -2.973125 0.292550 0.589687 0.144645 0.108173 1.004975 -0.422514 -0.263554 -0.671702 -0.925352 0.953322 -0.020663 -0.383171 -0.258060 -0.569653 -1.681424 0.198121 -0.877380 -0.911895 0.470329 -0.346677 -0.837484 0.278525 0.256510 -0.364627 0.227820 0.494445 0.832635 0.220251 -0.242187 0.335429 0.123611 0.019075 0.041015 0.924370
tot 0.314817 0.182659 -0.266043 -3.905943 -1.355471 -0.842881 1.901911 0.214742 -0.233412 0.353996 0.091317 -0.124912 0.242365 -0.169323 1.980254 -2.129037 -0.407879 -0.293305 0.117390 -1.432484 0.244140 0.292735 0.806311 -2.091804 -0.988519 -0.313266 0.024700 0.286560 0.882803 0.729361 -0.681907 0.067668 -0.603136 0.784144 0.407515 -0.347650 -0.454294 0.846147 1.025689 0.097952 -0.139779 0.551966 0.089789 -0.641496 0.254790 0.240012 0.459158 -0.318683 0.933010 -0.075238
u 0.000271 0.212495 -0.040386 -3.777245 -0.985258 -0.125846 2.208476 0.149160 0.471900 0.252221 1.449144 -0.604070 -1.063640 -0.806242 2.127371 -2.509325 0.439143 0.373633 -0.144277 -1.225523 -1.180538 -0.070949 -0.081760 -1.307182 0.458294 0.025918 -0.021528 -0.754081 1.419491 -1.957936 1.003597 0.241482 -1.043492 -0.078563 -0.022410 -0.677999 -0.841716 -0.718846 0.849175 1.229185 0.231454 -0.455625 0.896156 0.518493 -0.013512 -0.192132 -0.383776 -0.591184 0.475327 -0.122721
over -0.204938 -0.293719 -0.993598 -4.702541 -0.875123 0.550092 1.856290 0.072216 -0.648733 -0.493709 0.153214 -0.342940 0.116692 -0.158885 1.162820 -1.614136 -0.873215 0.287897 -0.788905 0.071737 0.574864 0.534322 0.125705 -1.736347 0.579438 -0.244291 -0.187195 0.510998 0.291172 0.212597 -0.339579 0.831592 0.596543 0.596285 -0.027177 0.310793 0.416563 0.643721 0.403090 -0.367701 -0.399252 -1.600685 1.041211 0.287281 -0.431950 -0.061277 -0.634998 0.251236 0.114579 0.607173
wat -1.447928 -0.131412 0.133299 -4.392746 0.134420 0.031923 1.516405 0.110846 -0.724786 0.831833 0.731738 -0.089556 -0.479302 -0.475876 1.288519 -2.277376 -0.813956 0.302449 -0.194824 -0.045020 0.874246 0.367591 0.127471 -1.508364 0.379570 -0.158725 0.718889 0.622009 -0.492368 -0.519892 -1.200537 0.179802 0.198356 1.012024 -0.316110 -0.241913 0.317724 -0.003671 -0.153969 0.111463 0.025292 -0.885923 -0.096561 0.162876 -0.197983 -0.217782 0.394516 0.500749 -1.654290 -0.181874
dit -0.669695 -0.322064 0.212055 -4.372349 0.155500 0.340930 1.682452 -0.248207 -0.027212 -0.959873 0.287896 -0.557328 -0.955340 -0.104131 1.531923 -2.725661 0.159380 0.442111 -0.545149 -0.111169 -0.035274 -0.019508 0.178730 -1.355053 -0.703611 -0.248123 0.671547 -0.098366 -0.516789 -0.460443 -0.711512 0.110438 -0.299678 -0.037934 0.650198 -0.651231 0.392430 0.573002 0.791869 0.097727 -0.294832 0.060695 -0.010662 -0.522595 -0.250347 -0.609473 0.332608 0.414452 -0.417434 -0.675573
meer -0.792048 0.013727 -0.272909 -4.643397 -0.978483 0.157674 0.886444 -0.038979 -0.403577 0.153004 0.470085 -0.212556 0.271572 -0.552575 1.321476 -2.233016 -0.131722 -0.503763 -0.553445 -0.585344 0.888891 0.324089 0.303577 -1.594740 -0.159365 0.149278 0.037863 0.444119 0.084496 -0.358930 -0.088385 0.353143 -0.013793 0.814921 0.016668 -0.064528 -0.061366 0.004269 -0.126250 -0.312142 -0.387578 0.166879 -0.128230 -0.023576 0.072668 0.074362 0.509432 -0.270874 -1.176350 -0.332771
al -0.768553 0.149605 -0.667416 -4.121521 -0.206493 -0.244923 1.844289 -0.065089 -0.225236 0.003005 0.945451 1.002251 -0.078940 -0.303888 1.569566 -2.183468 -0.752645 0.200135 -0.767229 -0.429289 0.953157 -0.190700 0.173431 -1.066492 -0.022297 -0.174145 0.049358 -0.417458 -1.117446 -0.967347 -0.317499 0.220693 0.456327 0.565716 0.629395 0.063781 -0.514082 -0.272933 0.336843 -0.254797 -0.315422 -0.003326 -0.267826 -0.442576 -0.463826 -0.321649 0.237600 0.666141 -1.011105 0.092711
heeft -0.085901 0.771269 -0.722461 -4.175145 -0.479186 -0.227967 1.823431 -0.317659 -0.324974 -0.089427 -0.147802 -0.168885 -0.576476 0.076852 1.795608 -2.743543 -0.517154 0.664167 -0.155509 0.619674 0.807392 -0.403787 -0.929140 -0.741189 -0.289868 0.898956 0.304186 -0.725370 -0.570056 -0.634777 0.068462 0.661743 0.567647 -0.570176 0.308651 -0.081360 -0.307626 0.197099 -0.856937 -1.255855 -0.914503 -0.138944 0.241322 -0.079767 -0.137029 -0.267266 -0.513418 0.281413 0.122760 0.911028
hebben -0.057557 0.048013 -0.196942 -4.299739 -1.206325 0.177737 1.856625 0.120090 -0.749990 -0.250174 0.720682 0.769026 0.194233 -0.221815 0.703391 -2.772584 -0.955133 -0.766876 -0.684502 0.718698 1.166678 -0.334755 0.085584 -0.608770 -0.018066 0.919848 -0.003648 -0.473672 -0.867962 -0.243762 -0.338395 0.651202 -0.635876 0.177262 0.703851 0.082042 0.205767 -0.260693 -0.188393 -0.521527 -0.376135 -0.322391 0.139052 0.295802 -0.070790 -0.442490 0.040532 0.738370 -0.830111 0.696964
hij 0.644048 0.640271 -1.428490 -4.507197 0.960384 -1.091527 1.335398 -0.274059 -0.322743 0.230676 -0.189620 -0.530559 -0.690383 -0.134777 1.748713 -2.033257 -0.709939 1.322999 0.522986 -0.549292 0.182736 0.015042 0.336409 -1.621360 0.107267 -0.466225 -0.212908 -0.907465 -1.319009 -0.478920 0.252012 -0.001238 0.575805 0.821435 0.151720 0.103335 -1.013163 -0.289170 1.308519 -0.429576 -0.162790 0.273884 -0.891492 -1.134984 -0.242967 0.080687 0.326566 0.057815 -0.700195 1.255298
In 0.686204 0.267677 -1.857306 -3.973085 0.067102 0.294893 0.875834 -0.603973 -0.939328 -0.986781 -0.739365 1.249228 -0.076409 0.014010 1.672623 -1.994669 -0.332022 -0.226858 0.184162 0.635632 0.141765 -0.609599 0.705199 -0.810759 -0.649459 -0.922445 0.591683 -0.427911 0.497941 -0.401092 -0.338315 1.052979 0.296117 0.108509 -0.273124 0.429427 0.338095 0.793161 1.501428 0.652138 0.760178 0.013001 -0.993136 -0.696137 0.577540 -0.178997 -0.349576 0.239188 1.462047 0.478834
wel -0.979825 0.508440 -0.069488 -4.144616 0.099189 0.149124 1.770758 -0.232977 -0.275350 0.224757 0.739349 -0.259213 -0.463060 -0.582844 0.926486 -2.535601 0.042345 0.241508 -0.188270 0.052398 0.920867 0.376278 0.708720 -1.185202 0.089110 -0.688549 0.590804 0.028390 -1.294709 -0.964071 -0.272183 0.182022 -0.006665 0.464608 0.419567 0.021738 0.233968 -0.375515 -0.086557 -0.067388 -0.544237 0.011906 -0.028247 -0.318871 -0.262870 -0.485787 0.246607 0.441143 -1.373895 -0.297575
kunnen 0.143173 -0.476456 0.995239 -4.519296 -0.788145 0.788020 1.547311 0.381675 -0.467375 0.264834 1.314045 0.293695 0.037183 -0.623485 0.324231 -2.495118 0.266733 -0.844955 -0.258368 -0.320869 -0.305089 0.252554 0.554062 -1.436217 0.574146 0.445715 -0.798012 0.114155 0.478475 0.772109 0.289031 -0.093116 -1.203398 0.261305 0.165054 0.195117 0.259799 -0.326620 1.232420 0.915895 -0.505178 0.168165 0.191440 0.177562 -0.143673 -0.585677 0.316546 -0.478087 -0.977532 -0.681506
Ik -1.124375 0.470100 -0.450950 -3.982377 0.571400 -0.975934 1.339419 -0.574810 0.148194 0.812693 0.413058 -0.102978 -0.741646 -0.862140 0.893123 -1.367599 -0.920590 0.891765 -0.505885 -0.645907 1.033935 -0.000883 -0.048605 -1.315957 -0.082755 -1.161236 0.397393 -0.976934 -1.400820 -1.663395 -0.050288 0.649707 -0.149523 1.075242 -0.716677 0.074691 -0.434534 -0.994489 0.493650 0.165641 -0.174555 -0.681132 -0.441650 -0.650957 0.160355 -0.254628 -0.951170 1.175042 -0.556479 0.817294
s -0.446247 -0.194403 -0.631830 -4.446844 -0.458755 1.397415 2.028060 0.056930 -0.605714 -1.159063 1.153862 1.507756 0.918580 0.151781 2.201219 -0.252222 -0.316169 -0.086166 -0.381697 0.642485 0.294845 1.020261 0.116155 -0.688607 -0.329349 -0.766352 0.086352 0.733230 -0.099605 -0.004731 1.404010 -0.214787 -0.701564 0.750807 0.393279 0.997677 -0.364945 0.093805 -0.099683 -0.252017 -0.963397 -0.220785 -0.301436 1.051347 0.865414 -0.267316 0.515938 0.662644 0.498435 0.829072
/ -0.878255 0.260288 -0.290401 -4.238709 -0.960707 0.223905 1.322247 -0.484649 0.440691 1.237875 -0.601195 -0.000659 1.277375 0.299087 2.131867 -1.456762 0.164687 -0.158999 0.075333 -1.583117 0.775924 0.247445 0.895043 0.243243 0.203796 -0.556061 0.061330 -0.936577 1.433069 0.103942 0.458557 0.254672 -1.649296 -0.122422 -0.157122 -0.608909 -0.280971 -0.076269 0.661916 0.160994 -0.726160 -0.457579 -0.098211 1.517196 0.945029 0.964983 -0.908324 0.442917 1.625462 0.689290
geen -0.671180 0.478691 -0.177635 -4.591422 -1.179917 -0.164757 1.286092 0.422427 -0.214981 -0.399870 0.101785 -0.575278 -0.862011 -0.121464 -0.389838 -2.834998 0.702362 0.345888 -0.039980 -0.580196 0.908344 -0.227276 0.815727 -1.573246 0.372081 -0.596376 1.009630 -0.246279 -0.739194 0.083490 -0.149878 0.017062 -0.075464 0.555306 0.397449 -0.278262 0.169745 -0.669357 -0.749651 -0.756424 -1.053712 -0.083089 0.162290 0.005881 0.193598 -0.082781 0.003070 -0.416710 -0.634486 0.564741
onze 0.470329 -0.638040 0.039953 -4.291887 0.414338 -0.399148 2.030541 0.048550 0.642143 -0.143571 1.153727 1.472933 0.622468 -0.021063 1.179151 -2.415104 -0.329169 -1.720348 -0.102257 0.214979 -0.349871 0.087798 -0.287993 -0.380195 0.158709 0.924997 -0.319666 -0.285963 -0.267955 0.309588 -0.313088 1.424560 -0.386695 0.150994 -0.086938 -0.703375 0.950645 -1.766549 0.058654 0.045177 0.076527 -0.410180 1.056305 -0.068417 0.365286 -0.195544 0.641978 0.427655 0.766003 -0.722625
hun 0.021362 -0.772457 -0.138636 -4.988916 0.294178 -0.171592 1.839061 0.102818 -0.010605 -0.375539 0.841935 0.707634 0.866434 0.249832 0.590072 -1.774564 -0.615188 -1.666059 0.108000 0.332371 0.356991 0.421182 -0.088440 -1.210345 0.529353 1.196768 -0.566475 0.107487 -0.405018 1.771777 0.555457 0.261486 -0.777131 0.413670 0.209990 -0.261836 0.645266 -0.525103 0.281805 -0.432339 -0.541965 -0.109103 0.329928 -1.246815 -0.035248 -0.198238 1.579551 0.176483 0.211868 0.199624
mijn -1.669794 -0.164672 -0.947405 -4.580793 1.909006 -0.417374 2.515013 0.774257 -0.296422 0.727557 0.662950 0.707443 -0.141576 0.042705 0.897489 -0.997407 -0.306529 -0.138265 -0.461068 -0.364296 1.237058 -0.397616 -0.344908 -1.507135 0.496027 0.263255 0.281231 -0.775508 -1.209369 -0.308954 0.292491 0.106375 -0.854125 0.846439 -0.588956 -0.550207 0.390610 -1.421740 -0.119084 -0.184166 -1.400213 -0.909857 0.163707 -1.757649 0.054547 0.194492 -0.113910 1.094631 1.035400 0.878007
ons -0.588862 -0.933043 0.092097 -4.095796 0.696921 -0.721549 1.720066 0.023330 0.529012 -0.324070 1.223896 -0.534048 -0.523145 -0.058645 1.873060 -2.628549 -1.057832 -0.652404 -0.276952 0.163465 -0.323621 0.287603 -0.356277 -0.400737 -0.139563 0.144283 0.083115 0.243283 -0.317892 0.252322 -0.117575 0.132568 -0.160948 0.673179 0.963453 -0.444609 0.239989 -0.773940 0.741696 0.722111 0.674167 -0.321848 0.695504 -0.336313 -0.690868 0.116181 0.391904 0.439998 0.259731 -0.667588
Een 0.671483 -0.760085 -0.214054 -3.624174 0.365581 0.092631 1.349277 -0.101240 -0.055662 -0.896745 0.057515 -1.019778 -1.493577 0.127703 1.170186 -2.499332 0.472461 0.990961 -0.433526 -0.959635 0.997060 0.661808 -0.063202 -2.114031 -0.373536 0.561190 1.267637 -0.159466 -0.457233 -0.558106 -1.286676 0.100030 0.207239 -0.737596 0.439828 -0.654857 1.021175 0.223727 -1.238128 0.272796 -1.353354 0.451616 0.869453 0.418384 0.682955 0.806848 0.335138 0.170073 1.609944 0.364773
zich 0.950599 0.148711 0.356596 -4.148819 0.234552 -1.499992 1.287968 -0.606263 -0.577096 0.033381 0.526504 -0.594240 0.114034 -0.282268 1.682450 -2.665819 -0.369512 0.809710 0.554672 0.134946 -0.246123 0.593328 0.119258 -1.151274 -0.528572 0.553439 -1.011680 0.159119 -0.196344 0.406631 0.810364 0.367691 0.854923 0.239520 0.125355 0.994557 -0.035129 -0.154621 1.329964 -0.027185 0.177561 0.587512 -0.207217 -0.644427 -0.405122 -0.062506 -0.037276 -0.110550 -0.811056 -0.307461
jaar -0.061700 0.333714 -0.908170 -3.457709 -0.246909 -0.212484 1.547791 -0.697438 0.351862 0.088940 -0.892838 1.459733 0.478970 -0.504540 2.217203 -2.689260 -0.784536 -0.428166 -1.034572 -1.166384 0.433107 -0.675257 0.115161 -1.539922 -1.307786 0.457542 0.503533 -0.175400 -0.481370 -0.271052 0.120593 0.780068 -0.481277 0.185461 0.865325 -0.696893 -0.527298 0.478425 1.209097 -0.402831 -1.014777 0.589386 -0.382671 -0.631787 -0.508531 0.102293 0.209390 -0.157986 -0.330042 0.659876
werd 1.156398 0.365023 -1.199247 -3.537751 -0.342316 1.069353 1.349592 -0.277218 -0.121199 -0.140350 -0.029308 0.573921 -0.666395 1.416957 2.559462 -2.725507 -0.570827 0.046170 0.138626 0.314588 1.290554 -0.597290 -0.138157 0.014456 -0.932367 -0.288584 -0.446137 -1.071087 -1.657847 0.111837 -1.531803 0.716926 0.254005 -0.804557 0.850969 0.026301 -0.462897 0.265298 0.627886 -0.576789 0.579049 0.701206 -0.150921 -0.107197 -0.343455 0.257798 0.643820 0.495941 0.373252 1.695075
o -1.256107 0.384045 -0.088621 -3.941284 -0.808946 1.365467 1.745440 0.161104 -0.150760 -1.313812 0.308049 0.112331 0.422111 -0.693052 1.719896 -1.307563 -0.316741 -0.402519 -1.130763 -0.959892 0.771721 1.278671 0.398833 -0.362564 0.359854 -1.323073 0.872320 1.663673 0.416810 -0.395534 0.546124 -0.076960 -0.165249 0.779117 0.399155 -0.292784 -0.457328 -0.379959 -0.584081 -0.225873 -1.426720 -0.359470 -1.041867 1.173062 1.284234 0.907165 0.367022 0.963642 0.273637 -0.119054
zo -0.795370 0.181209 -0.121547 -4.064562 0.321086 0.084739 1.618507 -0.397191 -0.374423 -0.026050 1.179670 -0.743152 -0.256751 -0.342459 1.703601 -2.137454 -0.186469 0.085368 0.047848 -0.002396 0.859733 0.695571 0.688084 -1.623844 0.011450 -0.238710 -0.226454 -0.039323 -0.859745 -0.677545 -0.428795 -0.206308 0.260422 0.358665 0.319469 0.303532 0.088473 -0.369990 0.295529 0.323215 -0.252929 0.370387 -0.312946 -0.518126 -0.998827 0.146810 0.146368 0.584645 -0.818982 -0.446126
moet -0.399530 1.230498 0.513239 -3.978945 -0.091021 0.770405 1.137189 0.370954 0.257311 0.412354 0.593722 -0.735212 -0.296225 -0.098383 0.906999 -3.112005 -0.169256 0.505706 -0.179970 -0.282772 -0.223982 -0.152415 0.138846 -1.670181 0.193081 -0.255799 -0.421956 0.091306 -0.047520 -0.171174 -0.227572 -0.104407 -0.866611 -0.111931 -0.126576 -0.037732 -0.233815 -0.254924 0.118860 0.436733 -0.508648 0.360933 0.839398 -0.602336 -0.238451 -0.519760 -0.214939 -0.319420 -0.507274 -0.185737
zal -0.389340 0.750147 0.305219 -3.710025 -0.280482 0.398513 1.545781 -0.097576 0.160249 0.350201 0.370510 0.067372 -0.398960 -0.061366 1.733922 -2.740087 0.173618 0.368723 -0.069898 -0.347131 -0.684342 -0.010209 -0.438565 -1.095110 -0.231784 0.033181 -0.070667 0.176634 -0.060022 -0.038053 -0.348984 0.202613 -0.430548 -0.138379 0.314857 -0.377495 -0.162096 -0.212174 0.743845 -0.232208 -0.405447 0.318617 0.875982 -0.493792 -0.446264 -0.570574 0.171593 -0.240492 -0.384976 -0.486866
veel -1.113021 -0.221551 -0.082227 -4.566446 -0.894365 0.152330 0.817379 0.072704 -0.593984 0.682251 0.910980 0.450761 0.041212 -0.722589 1.521390 -1.727829 -0.588426 -0.562452 -0.536041 0.186156 1.313105 0.050446 0.318686 -1.516549 -0.086229 0.594016 0.674434 0.463008 -0.879794 -0.545565 -0.931400 0.427921 0.347683 0.927255 0.012257 -0.048888 0.230148 -0.448579 -0.638006 -0.080041 -0.227896 -0.298205 -0.644985 0.666982 -0.073983 0.257972 0.454424 0.122473 -1.970486 -0.437909
nu -0.733319 0.609826 -0.419160 -4.061731 0.182077 -0.294545 1.202388 -0.053194 -0.025422 0.356091 0.580675 0.238234 -0.185126 -0.592385 1.519022 -2.621467 -0.163646 0.363196 -0.377476 -0.321278 0.507197 -0.328036 0.188627 -0.935526 0.029155 -0.554506 -0.066518 -0.037104 -0.566686 -0.963450 -0.305923 0.254518 -0.099799 0.597705 0.250404 0.352893 -0.115331 -0.140927 0.297892 0.060590 -0.633352 0.154889 0.170229 -0.593027 -0.329118 -0.614617 -0.148622 0.668256 -0.642666 -0.424205
andere 0.294063 -0.170210 0.141840 -4.720275 -0.572445 -0.035645 2.214178 -0.162245 -0.417590 -0.280202 0.598310 0.499773 0.622424 -0.217129 -0.337767 -2.378604 0.381409 0.107014 -0.024287 -0.314763 0.532412 0.122744 0.274194 -0.566064 0.539631 1.071429 0.013942 0.196806 0.256862 0.074139 0.273796 0.205519 0.596400 0.162282 -0.227129 0.345620 -0.465238 -0.047808 0.042958 -0.210580 -0.086178 -0.171225 -0.082676 0.675472 1.141806 0.070987 0.337832 0.115765 -0.827218 -0.626458
haar -0.336273 -0.231736 -0.858291 -4.628235 1.321203 -0.953222 2.138264 -0.502403 -0.216843 0.010787 -0.023133 0.081876 -0.381647 0.477899 1.441658 -1.271982 -0.830561 -0.348013 0.329164 0.142499 0.311259 0.515662 -1.116329 -1.573784 0.227802 1.232067 -0.268805 0.028451 -0.707649 0.589985 0.901275 0.041188 -0.065790 0.087326 -0.539571 0.069632 0.123888 -0.562279 0.039976 -0.839379 -0.585644 -0.291450 -0.516025 -1.928649 -0.477678 -0.079084 0.560408 0.594233 0.973546 0.973325
goed -0.355804 0.442344 0.156923 -3.579773 0.412633 0.390206 1.838021 -0.083503 -0.359151 -0.143794 1.188662 -0.453214 -0.228867 -0.103715 1.513008 -2.514071 -0.555511 -0.209642 0.058250 0.234239 1.105686 0.844989 0.703007 -1.601005 -0.263075 -0.693337 -0.362894 -0.553822 -0.907451 -1.170675 -0.067286 0.325388 -0.559050 -0.675575 -0.547156 -0.143241 0.515991 -0.644126 -0.266546 0.572286 -0.558505 -0.070765 -0.539676 0.168837 -1.241355 0.334362 -0.181432 0.510288 -0.680560 -0.935827
dus -0.772855 0.757008 -0.056503 -4.067628 0.079897 0.194704 1.222046 0.142543 -0.184676 0.243536 0.946676 -0.191949 -0.325973 -0.441565 1.010389 -2.583909 0.181914 -0.184972 -0.390135 -0.301903 0.531862 0.115632 0.681945 -1.216914 -0.326907 -0.910066 0.585499 -0.303293 -0.644444 -0.760666 -0.473105 0.198846 -0.538075 0.407687 0.320536 -0.100285 0.350213 -0.589126 0.038317 0.398245 -0.508441 0.301302 -0.041034 -0.510966 -0.297366 -0.301890 -0.092071 0.012243 -0.784838 -0.398032
2 0.350600 0.134039 0.180238 -2.875370 -0.101521 0.022026 2.179183 0.502170 -0.886235 0.138350 -0.617175 1.054396 0.903805 0.010510 1.798805 -3.187617 0.202367 -0.593978 -1.286644 -1.335144 0.870098 0.220534 0.891250 -0.307160 -0.657399 -1.495718 0.702754 -0.679193 0.912447 -0.163537 0.662042 0.521341 -1.063550 0.164471 -0.767109 -0.424078 -0.038369 0.157491 -0.063226 0.545275 -0.703373 0.125118 -1.240490 0.983091 0.225243 -0.427220 -0.557276 0.099702 0.695235 0.919788
gaan -0.619667 0.094229 0.412833 -4.028636 0.457198 0.106670 2.068564 0.104315 0.027455 0.855727 0.500850 1.209967 0.250761 -0.618374 0.823173 -1.954224 -0.654525 -0.439632 -0.178489 -0.397155 -0.374408 0.355641 0.731591 -1.171639 0.604063 -0.325143 -0.407977 0.930247 -0.328382 0.260967 -0.002560 -0.364513 -0.645645 1.090527 0.049447 0.608767 0.590730 -0.466364 0.982407 1.338931 -0.366022 0.191030 0.345820 -0.160449 -0.221101 -0.533413 -0.059470 -0.704019 -0.685578 -0.709034
En -0.746807 0.654806 0.380605 -3.672160 0.130951 -0.878259 1.007286 0.163742 0.158406 0.020447 0.454214 0.093201 -0.321496 -0.624537 1.532550 -1.901211 -0.616335 0.115776 -0.092264 -0.076680 -0.002791 0.635646 0.314820 -1.228834 -0.114886 -0.878335 0.663796 0.277889 -1.122078 -0.935393 -0.114734 0.179660 -0.119355 1.007255 0.395694 0.392150 -0.406948 -0.903244 0.434536 0.065788 -0.653622 -0.587483 -0.669643 -0.222412 -0.130395 -0.643443 -0.021066 1.161543 -0.658857 -0.156526
heb -1.068652 0.358232 -0.657177 -3.849652 -0.000326 0.380379 2.166008 0.165036 -0.250656 0.497368 0.582820 0.747880 -0.621044 -0.660672 0.659621 -1.687753 -0.714410 0.463052 -0.919464 -0.086595 1.519308 -0.622068 -0.020465 -0.947590 0.061882 -0.252910 0.599088 -1.100823 -1.210335 -1.805512 -0.454933 0.215116 -0.553032 0.807244 -0.459437 -0.342177 -0.360111 -0.658429 -0.146443 -0.160395 -0.649718 -0.526950 -0.136237 -0.022953 0.139446 -0.324647 -0.708173 1.194519 -0.532894 0.996046
waar -0.031126 0.106825 -0.389086 -4.069763 0.187543 0.040422 1.949627 -0.051830 0.079131 -0.502809 0.068868 0.180098 -0.532660 -0.553845 1.185865 -2.513759 -0.417674 -0.163609 0.218075 0.580597 0.385167 -0.372840 0.422464 -0.253938 0.295617 0.417574 -0.078879 0.474878 -0.273426 -0.686668 -0.136376 0.140148 0.997845 1.203880 0.071801 0.544326 0.042658 0.022234 0.153861 0.746504 0.455082 0.549430 0.446387 0.341148 0.388873 0.273198 0.046468 0.176988 -0.075516 -0.011160
eerste 0.953229 -0.406239 -0.568493 -3.727863 0.822012 0.280747 1.770523 0.060733 -0.493749 -0.320559 -0.835061 1.403725 -0.270079 0.818048 1.088240 -2.561300 0.363048 -0.309476 -0.310424 -1.089745 0.322056 0.256079 0.145970 -1.085733 -0.485810 -0.654026 0.764932 -0.589176 -1.011743 -0.175462 -0.533328 0.667296 0.488186 -0.142991 0.160048 -0.486171 0.769167 0.223482 0.977746 0.046267 -0.589243 0.231858 0.122142 -0.291381 0.309726 -0.296655 1.072167 -0.260159 0.554461 0.606272
uw -0.806836 -0.049988 0.113127 -4.239365 0.169888 0.116801 1.529140 0.976598 0.610877 -0.122225 2.348176 -0.453665 -0.607744 -0.227889 1.362442 -2.012017 0.845253 -0.089275 -0.028947 -0.217736 -0.955165 -0.517724 -1.377611 -1.542682 0.958962 1.143894 -0.316844 -0.696384 0.989294 -0.305339 0.955815 -0.049780 -1.727630 -0.242413 -0.584497 -1.560094 -0.074949 -1.172734 -0.279522 0.725901 -0.972002 -0.510636 1.263872 -0.372458 0.111116 0.095483 0.361859 -0.148079 1.314101 -0.445396
1 -0.008598 0.493965 0.155015 -2.835634 0.414042 0.262833 1.503324 0.407641 -0.362784 0.419204 -1.217498 0.349354 0.526039 0.143129 1.738764 -3.751763 0.551958 -0.038525 -0.913768 -1.616427 0.556594 0.362602 0.689056 -0.283563 -0.610971 -1.563195 1.291522 -0.803248 0.811552 -0.390450 0.075183 0.237182 -1.294151 -0.150395 -0.592165 -0.665302 -0.242754 0.184618 0.363263 0.401791 -0.729497 0.139537 -1.159123 0.482987 0.201796 -0.089486 -0.649536 -0.054912 1.086153 1.218227
alle 0.434734 -0.524885 0.247615 -4.246034 -1.330408 -0.014644 1.781929 0.499517 -0.246259 -0.921854 1.234600 0.740623 0.437201 0.046263 0.363552 -2.388885 0.006800 -0.614867 -0.520900 -0.684619 -0.123517 -0.470444 0.316502 -0.824648 0.032119 0.347836 -0.335557 -0.096093 0.808960 -0.070458 0.363441 0.692691 -0.148840 0.064521 -0.051870 -0.238472 -0.736883 -0.406153 0.193113 -0.284413 0.279496 -0.749328 -0.204565 0.081170 -0.163612 -0.165163 0.224161 0.373097 -0.840018 -0.919409
maken 0.050246 -0.708162 0.262709 -4.385306 -0.124485 1.310134 1.484316 -0.397072 0.312160 0.438882 1.104205 0.213506 -0.693653 -0.320195 0.742566 -1.788163 -0.240891 -0.530002 0.070916 -0.431210 0.180536 0.505395 0.358066 -1.784576 0.482847 -0.256677 -0.093325 0.084268 0.501196 0.282803 -0.970019 -0.350323 -0.362595 0.304099 0.315725 0.047631 0.326659 -0.007046 -0.225731 0.927625 -0.695759 0.609173 -0.035905 0.354944 0.145634 -0.227264 0.482933 0.214724 -0.658609 -0.778619
We 0.448085 -0.349274 0.457170 -3.329538 -0.345610 0.153149 1.681883 -0.249366 -0.023433 -0.562690 1.762327 0.983753 0.267160 -0.225571 1.073570 -1.872439 -1.363553 -1.334304 -1.147602 0.511684 -0.145634 0.953621 0.424027 -0.766970 0.088442 -1.339843 -0.236081 0.055266 -0.434915 0.190374 -0.114168 0.595863 -0.747404 1.162226 0.193585 0.646012 1.009066 -0.131508 1.083363 1.715294 1.212412 -0.138303 -0.172044 0.429952 0.073483 -0.853131 0.299081 0.195481 -0.193729 -0.036635
na -0.153776 0.014107 -0.646848 -3.394848 -0.482806 -0.195784 1.782148 0.510111 -1.450356 0.224505 0.077638 1.014628 -0.390466 0.301341 1.399977 -2.332201 0.173812 -0.157061 -0.398740 -1.422022 0.098459 0.229629 0.376910 -1.638300 -0.704298 -0.840382 0.491602 -0.297468 -1.394055 0.448617 -0.448421 -0.042137 0.054210 -0.154664 0.036077 -0.605800 -0.085737 -0.381141 0.972585 0.715126 -0.836629 -0.011565 0.161999 -0.644302 -0.603711 -0.561674 0.293402 -0.699474 0.247888 0.668291
nieuwe -0.027908 0.134217 0.190712 -3.917925 -0.316854 0.591638 1.566533 -0.293815 0.659178 -0.208889 0.253783 1.934078 0.136757 0.323188 1.467919 -2.400904 0.362977 -0.157738 -0.247688 -0.511087 -0.073441 -0.434857 -0.397422 -1.540707 0.108454 0.191594 -0.829713 -0.950475 1.163406 0.051196 -0.585776 0.317420 0.588989 -0.089528 0.058759 0.173976 0.563450 0.525925 -0.624862 -0.266113 -0.810739 0.105781 0.449909 -0.038908 0.872015 -0.703778 0.806248 0.942889 0.681746 -0.689911
