. -0.729576 0.064532 0.184794 4.629501 0.444472 -0.144616 0.041318 -0.411157 -0.085038 0.786616 -0.401613 -0.938886 0.654310 -0.478540 0.132658 0.094217 0.756909 -0.377970 0.002249 -0.473375 0.034759 -0.365589 -0.303025 0.763874 -0.184769 -0.911650 0.410913 0.187509 -0.861665 0.649014 0.624034 0.230208 0.509004 -0.427878 0.831646 1.184508 0.316226 0.321369 -0.692243 0.054716 -0.203956 0.559417 -0.350951 0.355682 0.733116 0.522357 -0.882746 -0.646068 -0.826198 -2.192002
de 0.676071 -0.605520 0.342568 4.866280 1.001778 0.917520 0.531819 -0.100308 -0.211988 1.624967 -0.702160 -2.304073 -0.339388 -0.481520 -0.773310 0.206344 1.035269 -0.635846 -0.244758 -0.554920 0.544184 -0.656801 0.098362 0.455317 -0.352023 -0.894827 0.145744 0.688872 -0.202221 -0.886909 -0.100054 -0.171518 0.814524 -0.450244 0.418606 0.905783 -0.324371 0.386135 -1.675859 0.194542 0.364752 1.060903 -0.997540 0.365948 0.659462 0.773611 -0.039743 1.118642 0.658529 -2.163274
, -0.112610 -0.353634 0.323490 4.936872 -0.179730 -0.179198 -0.598407 -0.406625 0.390866 -1.057707 -0.864912 -0.990208 -0.095205 -0.126413 -0.358639 0.411961 1.022052 0.651981 0.540791 -0.238516 0.291717 0.899578 0.106007 0.191346 0.398479 -0.601877 0.725661 -0.142502 -0.406282 0.549863 -0.523189 -0.286146 0.063757 0.350701 0.044402 0.106351 0.964174 0.317967 -0.611712 -0.284274 -1.058868 0.413254 -1.331238 0.245553 0.002353 0.522014 -0.845881 -0.206725 -1.076284 -1.635422
<NUM> -1.479419 0.013492 0.668269 5.457244 1.049453 -0.242464 1.094423 0.166614 -0.047440 0.924281 -0.763621 -2.295883 1.121681 0.209495 -0.889313 0.948471 -0.744982 0.002842 0.184536 1.212612 -0.714909 -1.082890 -0.153932 1.551054 -0.198256 -0.311177 0.461492 -0.460939 0.953808 -1.200752 0.180567 -0.909201 0.240164 1.085663 0.746656 0.545637 -0.462033 0.237948 0.316425 -0.086594 -0.657986 0.297602 -1.109553 1.382839 -0.008304 1.191433 0.651016 -1.193248 -0.802914 -0.461843
van -0.358604 -0.252180 0.167540 4.849605 -0.066662 -0.807385 -0.705820 0.159964 0.239882 0.874437 -0.541878 -1.906604 0.534271 0.781384 -0.883490 -0.771675 1.243699 -0.100769 -0.095821 -0.103609 0.770797 0.146703 -0.028893 -0.629982 0.700292 -0.948948 0.653208 0.081668 -0.120683 -0.838258 -0.637239 0.193242 -1.004595 -0.272651 0.505863 0.184107 -0.194442 -0.085732 -0.698008 -1.647094 0.212778 -0.894229 -0.795038 1.119060 -0.727776 0.828320 0.225923 0.161337 0.240638 -1.205671
en -0.040935 0.197357 1.291909 4.382802 0.956874 -0.708692 -1.133954 -0.760678 -0.112033 -0.039718 0.082322 -1.578316 0.736688 -0.596032 -0.305397 0.597354 1.150021 -0.202509 -0.067463 -0.570018 0.784004 0.227506 -0.543112 0.210269 0.280969 -0.405448 0.343510 0.249788 -0.276798 0.150103 -0.838228 0.195476 0.281276 0.570717 -0.281353 0.545177 1.604827 0.094199 -1.229744 -0.428263 -0.498010 0.508890 -0.433267 -0.139119 -0.600549 0.147013 -0.691770 0.149713 -0.846463 -1.826334
het 0.068098 -0.127175 0.708204 4.419882 1.119846 -0.492406 -1.302196 -0.223730 0.553532 1.650752 0.157559 -1.376049 0.142418 0.500808 -0.666703 -1.832211 0.892341 -0.576919 0.666514 1.050440 1.078261 0.078901 -0.020588 0.338325 -0.614170 -1.303542 1.608988 0.799298 -1.374834 -0.383817 -0.402371 0.257334 -1.104393 -1.213762 0.353048 0.317915 -0.262067 -0.840345 -0.560029 -0.056086 -0.136731 0.358854 -1.120481 0.411439 -0.362729 1.097832 0.311245 -0.725532 0.167864 -1.861579
een -1.954510 -0.371351 1.015226 5.046650 -0.907631 -0.539379 0.074460 1.004634 0.939975 1.266325 -0.477433 -1.404795 0.051954 -0.574106 -0.063918 0.020555 1.694013 -0.518662 -0.668861 0.142113 0.169853 0.116980 -0.495410 1.063608 -0.193428 -0.245310 -0.715129 0.257031 -1.256410 1.005563 -0.180356 -1.166975 -0.350743 -0.590585 0.041355 -0.202789 -1.253226 -0.611197 -1.285507 1.121784 -0.220101 0.272164 -0.142976 0.198248 -0.894289 0.332931 0.504276 -1.015511 1.421247 -2.130463
in -0.866382 -0.062705 -0.535201 4.870218 0.709113 0.573364 0.273808 0.647943 -0.338603 0.809027 0.171358 -0.655337 0.194428 -0.197833 0.540894 -0.558630 0.478192 0.403010 -0.728922 0.717887 -0.761464 0.101246 0.600651 1.649392 0.198933 -0.697397 0.829745 -0.400657 -1.469068 0.050086 -0.057421 0.783153 -0.303378 -0.253679 0.243854 0.970185 0.680900 0.247754 -0.290076 -0.063365 -0.151084 -0.622010 -1.117305 0.959616 0.301019 0.158738 -0.052895 -0.739807 -0.652995 -3.188091
op -0.834131 -0.060317 0.157742 4.934409 -0.510337 -0.515847 -0.304534 0.062664 0.934927 1.460972 -1.254308 -2.082996 0.893349 -0.818577 -0.577712 -0.671472 0.544540 -0.933055 0.732669 -0.143745 0.677477 -0.672914 0.323388 0.230676 0.065641 -0.584582 0.390459 -0.122847 -0.438709 0.060261 0.448936 0.425434 0.324058 0.160974 0.019760 0.727336 0.537528 -0.403243 -0.774279 -0.609171 0.438534 0.678018 -1.516608 -0.280330 0.314605 -0.773049 1.045668 0.026894 0.278562 -1.857349
is -1.752226 -0.822336 0.245262 4.201483 -0.832461 0.267106 0.134998 -0.712631 1.161927 1.001735 0.385914 -1.100536 -1.070252 0.504347 -1.193256 -0.061127 0.899090 -0.148333 -0.430038 0.640141 -0.164872 -0.337793 -0.664436 -0.223689 -0.660252 -0.828142 0.476201 -1.067382 -1.363396 0.072065 0.040759 -0.395773 -0.495844 0.092318 0.319889 -0.179826 -0.468687 0.275929 -1.043399 0.730074 -0.889094 -0.184469 -1.687673 0.071599 0.537629 0.943424 -0.300027 -0.972256 -0.167386 -2.462946
te 0.153464 0.170942 0.484723 4.332081 0.424886 -0.092215 -0.610312 0.531205 0.242993 1.885216 -1.349137 -2.786848 0.398154 0.265315 -0.668358 -0.164065 0.513981 -0.427439 -0.184958 -0.793491 0.825152 -0.077505 0.271735 1.159910 -0.238667 -1.124566 1.215949 0.409644 -0.432559 0.901356 0.692423 0.308198 -0.534301 0.670617 0.127323 0.863438 0.378856 -0.058151 0.371953 -0.161927 -0.079942 0.347430 -1.352423 -0.028740 0.545642 -0.605156 -1.468221 -0.181451 -0.307761 -2.185104
met -0.542183 0.315194 1.305060 5.723100 -0.285804 -0.604308 -0.220597 0.345034 -0.011539 1.256037 0.061782 -1.053101 0.323863 -0.338331 -0.401270 0.413852 1.190417 -0.381023 0.213294 -0.115187 1.101032 0.041358 -0.179829 0.097106 0.371146 0.963974 0.074864 0.355740 -0.501209 0.501221 -0.596516 -0.555850 1.012880 0.052202 -0.222780 -0.492484 0.679948 0.156844 -0.135246 0.216448 -0.247069 -0.396743 -0.027759 0.434285 -0.722178 -0.310651 0.288462 -0.870370 -0.063273 -2.014874
voor -0.576941 -0.433578 1.486561 4.305052 -0.425676 -1.127699 -0.071732 0.510017 0.234151 0.617364 0.014619 -1.970610 1.604443 -0.376497 -1.575663 0.394235 0.424746 -0.887710 -0.386700 -0.002195 -0.667814 0.646434 -0.175006 -0.484041 -0.917618 -0.546968 0.346460 0.500912 -1.154985 0.083507 0.418254 -0.165265 -0.973861 -0.086309 -0.227721 0.195502 -0.215622 -0.102742 -0.628409 -0.314076 -0.635098 -0.015630 -0.962393 1.153417 0.236490 -0.322122 -0.075095 0.208486 -0.023060 -1.952948
dat -0.500247 -1.675919 0.760459 4.303533 0.161431 -0.469970 -0.284318 -0.239136 0.859654 0.935021 0.203774 -1.196407 -0.517866 0.947470 -0.797959 -0.807254 1.234675 -0.310987 0.371365 0.233472 0.976710 -0.488782 -0.362302 0.815361 -0.162176 -1.172593 1.111301 -0.054005 -0.859447 -0.081616 -0.502733 -0.444612 -0.559179 -0.331626 -0.327935 -0.532991 -0.392768 -0.433890 -0.001107 -0.198534 -1.074299 0.537828 -1.425524 0.423833 1.187199 0.024346 -0.184392 -0.298836 0.311620 -2.010284
&apos; 0.773841 -0.015917 1.318243 3.922516 0.661799 -1.358931 0.736705 0.409813 -0.010104 -0.568999 -0.703238 -1.933155 -0.605956 0.424172 -0.245532 0.581528 1.213166 -1.346385 0.670361 0.188687 0.014999 -0.509262 -0.273994 0.918395 0.198244 -1.219153 1.820526 0.104672 -0.517436 -0.358645 -0.121874 0.692211 -0.011987 0.884700 0.420111 1.444696 -0.922446 -1.398985 -1.983280 0.509669 -1.172101 0.191374 -0.102682 -0.259174 0.455127 0.698773 -0.010860 -1.724287 -0.089677 -1.710726
zijn -0.381106 -0.993133 0.890431 4.494865 0.620035 -0.586666 -0.292980 -0.411494 0.496299 0.791794 0.100228 -1.585273 -0.494976 -0.403934 -1.297248 -0.207348 1.402460 0.134236 0.050090 0.422233 0.157400 -0.539264 -0.680144 -0.062054 0.460005 -1.160261 0.303372 0.754866 -0.647822 0.440789 -0.526368 0.193917 0.042286 0.056500 -0.055270 0.340930 0.301125 0.434050 0.096547 -1.304833 -0.635878 0.286411 -0.833978 0.301659 0.180003 -0.265115 0.269337 -0.402678 -0.584303 -1.672468
die -0.109862 -0.791531 0.616151 4.789025 0.134506 -0.526332 0.562560 0.609642 -0.143974 0.596216 -0.420948 -1.196625 -0.666035 -0.075394 -0.346621 0.118204 0.996051 -0.035307 0.406782 -0.229891 -0.064576 -0.086710 -0.025552 0.666347 0.781485 -0.510397 0.455971 0.094941 -0.670461 -0.171324 -0.196599 -0.011413 0.103715 0.046817 -0.412665 0.243639 -0.562307 0.621888 0.234861 -1.047176 -0.487763 0.403284 -0.735729 0.075351 0.648733 -0.553449 -0.286341 -0.094955 0.961181 -2.099978
ik -0.750452 -1.442690 1.403280 4.127070 -0.264536 -0.303585 -0.684901 -0.264001 -0.167396 1.180182 -0.649941 -1.613633 -0.558189 -0.200490 -0.408066 -1.032262 1.134694 -0.641278 0.233739 0.237408 0.490654 0.652089 -0.256194 1.167792 1.782526 -0.420565 -0.006413 -0.507985 -0.558202 -0.252610 -0.728604 -0.357392 1.134909 -0.299522 0.600889 0.031748 0.647210 -0.849661 -0.528627 1.422253 -2.468589 1.161429 -1.799567 0.925444 1.087295 -0.936520 0.474743 0.130244 -1.131143 -1.565564
je -0.168097 -0.844492 1.265087 3.937493 -0.368418 -1.300185 -0.412777 -0.892516 0.360083 1.561673 -1.426373 -1.828674 -1.670507 -1.052829 -0.452459 -1.231474 1.052341 -1.022935 0.259105 -0.400930 1.136937 1.157995 -0.098364 0.178585 0.257171 -0.286069 0.548403 -0.235428 0.586615 -0.388995 0.779092 -0.018642 1.130473 -0.314650 1.117267 0.891573 0.547373 0.179919 -0.548672 1.771320 -0.417870 0.865474 -0.436447 0.596089 0.444673 -0.651515 -0.639687 -0.626443 -0.269159 -3.467504
<unk>[nounsg] -0.150257 -0.103368 -0.276848 4.772705 0.346805 -1.076325 -0.408660 -0.150514 -0.439399 0.303743 -0.466381 -0.990646 -0.225357 0.232741 -0.361608 0.940749 -0.019195 0.357675 0.222728 0.529762 -0.167069 0.185734 -0.104177 -0.131377 0.472691 -0.359905 0.196546 -1.401211 -0.345081 0.325388 -0.479307 -0.009750 0.453491 -0.962502 0.394795 0.508894 -0.744600 0.159201 -0.488280 0.547170 -0.583941 -0.279728 -0.705274 -1.090861 0.018419 1.353712 -0.324784 -0.185453 0.281068 -1.726129
niet -0.213835 -1.446043 1.223016 4.128782 0.067065 0.434498 -0.049027 -0.001379 1.074811 1.294440 -0.514979 -1.499036 -0.382692 0.101546 -1.057108 -0.168670 1.364632 -0.142368 0.002822 0.187814 0.987035 -0.521667 -0.195988 0.700892 -0.227068 -1.309702 0.915400 -0.107710 -0.372089 0.144716 -0.039532 -0.185276 -0.192219 0.039911 0.305541 -0.477139 0.046931 0.161595 0.123270 -0.260104 -0.932242 0.572371 -1.889217 0.262354 1.185735 -0.561790 -0.694382 -0.174138 -0.473873 -2.229000
aan 0.404852 -0.249759 1.064854 4.381551 0.086133 -0.552177 -0.675906 0.444422 -0.452331 0.995967 -0.778113 -1.370452 0.457243 0.080899 -0.480652 -0.776728 0.260159 -0.891122 -0.053308 0.136440 0.476210 -0.217730 0.366458 0.024966 0.421612 -0.260269 0.363692 0.674748 -1.001185 0.171107 -0.060671 0.019527 -0.103766 0.153918 -0.099774 0.606532 -0.084370 -0.322890 0.075011 -0.352753 -0.021142 0.680137 -1.261490 1.174242 0.192379 0.478109 -0.249637 0.798571 0.141417 -2.674954
om -0.141698 -0.214587 0.926770 4.211296 0.472554 -0.488581 -0.130976 0.694675 0.186757 1.704960 -0.938063 -2.456871 0.452727 0.477410 -0.970143 -0.511838 0.566773 -0.467738 0.059261 -0.599896 0.514471 0.067923 0.165204 0.905787 -0.274179 -0.268166 0.684214 0.405492 -0.858405 0.776263 0.286785 -0.107401 -0.488169 0.452639 -0.093090 0.765354 -0.067499 -0.331132 0.099001 -0.280473 -0.723131 0.426513 -0.951389 0.314317 0.421491 -0.833728 -1.127694 0.178167 0.352606 -2.364843
) -0.179497 -0.306037 0.275560 3.902476 0.283037 -1.073144 0.150109 0.441829 -0.323078 0.535831 -0.624201 -1.216971 0.821331 0.599626 -0.189909 0.927140 0.386360 0.537923 0.016108 1.051261 0.226595 -0.448422 -0.310414 0.268477 0.398972 -1.288914 0.256099 -0.398147 0.445336 -1.057636 -0.199309 -1.088834 -0.027926 -1.103475 0.333399 0.182832 0.506697 -1.253360 -1.449347 0.245749 0.084140 -0.024059 -1.532511 -0.116405 -0.707659 0.338651 -0.541240 -0.082696 -1.334499 -2.078638
( -0.160734 -0.309943 0.265966 3.879835 0.286605 -1.169144 0.136635 0.396949 -0.381091 0.630639 -0.675794 -1.268869 0.776441 0.676828 -0.160309 1.037841 0.342873 0.683671 0.028542 1.065380 0.337348 -0.379304 -0.137728 0.072401 0.429042 -1.238586 0.324252 -0.434173 0.446665 -1.212448 -0.272677 -1.056550 -0.109180 -0.964279 0.178616 0.299021 0.259666 -1.540021 -1.423276 0.119809 0.100997 -0.069289 -1.375223 -0.191917 -0.856753 0.351901 -0.454998 -0.053075 -1.309779 -2.017059
- -0.876712 0.648192 0.059928 5.036062 0.781128 -0.846405 -0.442043 0.184943 -0.873761 0.576760 -0.127888 -0.828092 0.413169 0.903210 -0.677774 0.902251 0.230491 -1.468079 -1.083433 0.233280 -1.220318 0.659041 -0.098059 0.128357 -0.089849 -0.806505 0.971565 -0.462792 1.071859 0.074098 -0.154285 -0.470012 -0.676818 -0.625810 -0.827959 -0.130247 0.638831 0.577206 -0.813374 0.649911 -0.130261 0.760596 -0.927857 -0.728010 -0.804713 1.196573 -0.483046 -0.338439 -1.471339 -2.018666
er -0.874654 -0.784025 0.662725 4.961832 0.056683 0.506812 -0.093531 0.406124 0.272151 1.138102 -0.654076 -1.074670 0.004331 -0.186621 -0.681018 -0.271048 0.087891 -0.292578 0.587644 0.541547 0.779445 0.142636 -0.122056 1.068393 -0.060256 -0.321057 0.313161 0.472739 -1.237446 -0.224328 -0.090751 -0.619826 0.156541 0.153989 -0.158955 -0.473058 0.277527 -0.346298 -0.122201 -0.292202 -1.255207 0.482937 -1.021887 0.175853 1.112296 -0.330347 0.165996 0.306232 -0.148235 -1.979762
ook -0.666023 -0.865742 0.765775 4.562761 -0.176793 -0.347943 -0.429205 -0.275981 0.065897 1.161161 0.035301 -1.070109 0.075566 -0.191734 -0.994964 0.101794 0.773227 -0.462894 0.058857 0.201754 0.453498 0.198931 -0.113011 -0.016101 -0.151783 -0.577368 0.598963 0.407574 -0.652248 -0.177847 -0.217219 -0.159412 -0.067350 -0.001460 -0.390385 -0.078779 0.447100 -0.354808 -0.605153 -0.314477 -1.018288 0.273848 -1.021012 0.481623 0.521423 -0.500302 -0.361058 0.133787 -0.077834 -2.243678
&quot; 0.635993 0.495101 1.106656 4.071688 0.464018 -0.773956 0.916130 0.522767 0.030181 0.282673 -1.119824 -0.908150 0.009041 1.423431 -0.236687 -0.030944 1.535157 -1.038418 0.492922 0.587063 -0.078393 -0.275083 -0.331564 0.346585 0.179532 -1.067162 1.495841 -0.070872 -0.713430 0.013091 0.006905 0.532882 -0.455786 0.128496 -0.103477 1.068448 -0.894098 -0.304707 -1.987384 0.674271 -0.857689 0.123959 -1.439777 -0.646792 1.031647 0.859102 0.225885 -0.912582 0.101188 -1.500429
: -1.267680 -0.210709 0.159081 4.544981 0.457990 -1.290095 0.703968 -0.275865 -0.154983 0.394609 -0.728310 -1.161102 0.106850 0.790414 -0.619438 0.163530 0.670708 -1.013730 -0.325143 0.480180 0.132720 1.101441 -0.261359 -0.003856 -0.141146 -0.469346 0.803193 0.033252 -0.082482 -0.952200 0.004878 -0.172499 0.076248 -0.182753 0.068910 0.283969 0.466363 -0.081377 -0.660118 1.029572 0.115255 0.250901 -1.988016 -0.160560 0.432240 0.355418 -0.057596 -0.740260 -0.806957 -1.126990
of -0.287050 -0.108882 0.682113 4.308447 -0.915728 0.493980 0.985977 1.309471 1.435184 -0.003017 -0.845820 -0.944103 -0.373676 0.401775 -0.438668 -0.497601 1.041569 -0.183214 0.952243 1.232296 -0.173759 0.415952 0.028405 -0.140084 0.656125 -0.965550 0.318896 -0.315913 -0.468574 0.883532 0.185077 -0.428538 0.857504 -0.704636 0.551670 0.790107 0.440337 0.159134 -1.077844 0.266767 0.353929 -1.831579 -1.293691 0.762603 -0.718836 0.166813 -2.559343 -1.010909 -0.983059 -3.160183
maar -0.629517 -1.059843 1.323292 4.407937 0.091487 0.433968 -0.625775 -0.109718 0.298992 1.075417 -0.220582 -1.324321 -0.050999 -0.424584 -0.748304 0.022120 1.626416 -0.223737 -0.246319 0.240569 0.963292 -0.191114 -0.257945 0.969959 0.353670 -1.037049 0.539474 -0.186550 -0.876604 -0.143251 -0.007115 -0.039265 -0.330379 0.251188 -0.005584 -0.194510 0.207856 -0.334007 -0.263756 0.100590 -1.379407 0.681884 -1.174634 0.154870 0.884193 -0.525594 -0.157453 -0.286141 -0.089197 -1.433469
als -0.637589 -0.583983 0.651627 3.842306 -0.467299 -1.299570 -0.169395 0.538199 0.366083 0.299558 -0.127014 -1.389872 -1.133549 -0.735172 -0.519761 -0.181968 1.791348 -0.371300 -0.128882 0.874772 -0.443086 -0.062402 -0.539504 0.351070 -0.061836 -0.940686 0.647477 -0.022754 -0.956690 0.370342 -0.410141 -0.607575 -0.207240 -0.621900 -0.091912 0.481658 0.116659 0.302444 -0.889557 -0.236729 -0.424375 0.620313 -2.035754 0.661282 -0.117823 -0.364351 -0.629736 -0.762971 0.858112 -2.114820
we -0.882139 0.582779 -0.094201 4.886474 0.749651 0.398831 -0.746689 1.040640 -0.443489 1.463140 -0.045518 -0.855125 0.534524 0.626371 -1.110846 0.368855 0.522640 0.398670 0.390180 0.289057 1.037297 0.541923 0.373024 1.153006 -0.309406 -0.128193 0.621453 0.442571 -1.818935 0.278307 0.543223 0.856332 0.629240 0.864096 0.551896 1.279057 -0.463478 -0.323082 -0.698643 0.610111 -1.154872 -0.094979 -1.054330 0.783894 0.538916 -0.809646 -1.258622 0.080012 -0.742878 -1.137181
bij -0.527087 -0.928472 0.673072 4.903837 0.127785 -0.770667 -0.458824 0.447504 0.757058 1.118147 -0.245899 -0.660313 0.465814 -0.904803 -0.425467 -0.942555 0.178410 -0.793690 -0.230647 0.685442 0.157974 0.382283 0.170114 -0.266313 -0.043718 -0.437066 0.231515 -0.227540 0.130500 -0.077334 -0.078723 -0.000920 0.185907 -0.591105 -0.022039 -0.322464 0.400625 -0.868587 -1.029567 -0.360306 0.088363 -0.049455 -1.207075 1.039122 -0.220764 -0.306750 -0.767501 0.959550 0.169893 -1.723058
dan -0.688508 -0.861635 0.917760 4.109890 -0.114001 -0.188621 -0.499636 0.227291 0.458083 1.305530 -0.707683 -1.546491 -0.362187 -0.365724 -0.858809 -0.036766 0.908825 -0.273458 0.190796 0.200901 1.145377 -0.647375 0.162926 0.741014 -0.154207 -0.748521 0.376169 0.088215 -0.565291 -0.729011 0.300989 -0.488556 -0.042375 -0.084145 0.041674 -0.139323 0.342246 -0.100590 -0.453844 0.505076 -0.839910 0.294961 -1.437812 0.703695 0.590471 -0.344934 -0.642068 -0.158872 -0.153500 -2.128746
door -0.693573 0.408168 0.608736 4.785827 0.877634 -0.465947 -0.444028 0.025482 0.835075 1.379727 -0.520673 -0.757429 -0.132828 0.473068 -0.191044 -0.160563 0.519063 -0.567005 0.745784 0.072479 0.610507 -0.940516 -0.340394 0.140185 0.538284 0.013205 0.238585 0.214414 -0.371132 0.577729 -0.561638 -0.521445 0.128034 0.112792 -0.417533 0.411645 0.206000 0.661809 -0.912543 -1.796276 -0.417895 0.178854 -0.570787 -0.664726 -0.310209 0.306258 -0.529149 0.463953 0.802834 -2.528977
deze -0.955475 -0.383598 -0.091296 4.679970 0.193604 -0.004482 1.046384 0.289450 0.375704 1.503004 -0.774462 -1.931235 -0.242675 0.395517 -1.087118 0.271372 0.571574 -0.457558 -0.151678 0.036492 -0.219698 0.287000 0.012527 -0.180776 0.190437 -0.152768 -0.217850 0.537314 -0.557989 -0.629087 -0.073741 0.421258 0.147364 -0.254020 0.229857 -0.044504 -0.365741 0.306594 -0.292538 -0.240983 -0.177361 -0.144877 -0.451278 0.078618 0.045633 0.052575 0.244516 -0.148682 1.430525 -2.179631
naar -0.730598 0.295627 -0.319948 3.900368 0.025558 -0.882990 -1.010140 1.005286 -0.746778 1.410625 -0.557700 -1.396134 -0.185164 -0.063745 -0.703061 -0.569659 0.741179 -0.208483 -0.064909 -0.424983 1.117853 -0.213849 0.917212 1.446009 0.736870 -0.283043 -0.290738 -0.691558 -0.839161 0.772126 0.440364 0.549463 -0.363618 0.135934 0.179411 1.425387 -0.141758 -0.383555 -1.003504 -0.236006 -0.185518 1.228579 -1.620334 0.404070 -0.899693 -0.714812 0.165850 0.398342 -0.742795 -2.486835
nog -0.774942 -0.811067 0.796677 4.418809 0.147464 0.468674 -0.776273 0.006501 -0.009121 1.522032 -0.720784 -1.327444 0.191861 -0.440675 -0.732589 0.150257 0.611000 0.047334 0.015964 0.160898 1.023669 -0.426999 0.144863 0.938033 0.037755 -0.683688 0.532457 0.314816 -0.853020 -0.487748 -0.158371 -0.481488 0.138030 0.076227 0.314993 0.092367 0.130338 -0.680391 -0.557934 -0.083324 -1.757872 0.575563 -0.934815 0.607873 0.879609 -0.274154 0.089771 0.115199 -0.326324 -1.214174
ze 0.212262 -0.583767 0.881658 4.613099 0.475353 -0.370030 -0.728392 0.068855 0.302773 1.002544 -0.034930 -1.475802 -0.026960 -0.353867 0.151030 0.045203 1.043163 0.515969 0.397478 0.193676 0.630224 -0.508795 0.065092 1.541221 0.433064 -0.388783 0.763599 0.329429 -0.890914 0.601578 -0.230959 0.725250 0.566885 -0.205521 0.099475 0.414645 0.424088 -0.120992 0.184948 0.144771 -0.740624 0.420913 -0.796105 0.680086 0.999865 -0.889145 -0.820395 -0.090529 -0.235226 -2.046820
dit -1.029535 -0.803799 0.157180 4.361383 0.470532 -0.845732 -0.509493 -0.477826 0.748512 1.384869 -0.265761 -1.195097 0.148123 0.702649 -1.049279 -0.518885 0.666525 -0.524688 0.132267 0.510654 0.762607 0.243982 -0.532094 0.296597 -0.637142 -0.974287 0.986192 0.784541 -0.822006 -0.040845 -0.048694 0.104877 -0.406811 -0.449211 0.374507 -0.290583 -0.408503 -0.361321 -0.100304 0.411910 -0.711271 0.184338 -0.800241 0.297173 0.408282 0.803509 0.216757 -0.646923 0.842771 -1.868412
worden -0.845930 -0.351946 0.653300 3.479033 0.265666 -0.231563 0.686588 0.145252 1.132152 1.617092 -1.454461 -1.304247 -0.104798 0.521670 -1.570646 0.811996 -0.547898 0.081388 1.290250 0.657851 -0.022492 -1.092446 -0.756323 0.328800 -0.543023 -0.678065 -0.371693 1.681721 -1.393206 0.635818 -0.257390 -0.706010 0.994531 0.002121 0.166291 0.207319 0.872349 1.266678 -0.255299 -1.752379 -0.886962 -0.161619 -0.371797 -0.820427 0.239972 0.130878 -0.312580 0.018024 -0.592874 -4.138636
! -0.359022 0.371170 0.516931 4.351162 -0.806425 -0.626242 -0.493159 -0.617501 -0.061423 1.056475 -0.536769 -1.176366 0.346751 -0.599754 -1.254457 0.348464 0.548278 -0.610521 0.046233 -0.296359 0.288957 0.972195 -0.553188 0.116508 -0.275964 -0.461301 0.794848 -0.309848 -0.440959 0.265159 1.678179 0.489232 0.395952 -0.381136 0.520391 0.891941 -0.280218 0.282407 -1.421554 1.353591 -2.144015 0.244403 -0.329080 0.451928 2.307007 0.206192 0.256516 -0.459798 -1.293880 -0.925847
kan -0.539090 -0.907021 0.444989 3.691734 -0.339656 -0.481238 -0.116307 -0.148969 1.133400 1.533551 -1.253104 -1.564295 -0.577002 -0.310416 -0.510573 0.008984 0.537606 -0.363120 0.191012 0.038749 0.808237 0.597777 0.095527 -0.070512 -0.731265 -0.401862 0.799070 0.018871 0.176624 -0.015855 0.682337 -0.277743 0.256683 -0.035437 0.682819 -0.088757 0.190393 -0.081859 -0.308636 0.425960 -0.155986 -0.517902 -0.730058 -0.059048 0.272257 -0.451275 -0.918002 -0.178145 0.163248 -3.403945
? 0.086415 -0.925210 0.476351 3.560708 -0.663478 -0.854795 0.173252 0.317303 0.502683 0.571954 -0.805295 -1.205623 -0.497334 0.074362 -0.710769 -0.337910 1.010578 -0.506666 0.113967 -0.818640 -0.273761 0.525855 0.015115 0.473479 -0.507376 -1.056948 1.381523 -0.152535 -0.571089 0.004833 0.863292 -0.185645 0.318242 -0.069628 0.385725 0.415649 0.018373 -0.015247 -1.110801 0.900741 -0.645390 -0.300997 -0.750056 0.243537 1.010301 0.054932 -0.979921 -0.613460 -1.189109 -2.407790
u -0.828334 -0.578665 -0.068260 4.166361 0.238514 -1.297151 -0.174860 0.081464 0.693648 1.254602 -1.440121 -1.372662 -0.476064 -0.556483 -0.866171 -0.578881 0.094072 -1.188028 0.045943 0.361083 0.521205 1.071298 0.657444 -0.697129 -1.531253 0.258438 0.034919 -0.058212 1.254839 0.139355 0.201025 0.569255 0.036163 0.159326 0.440705 0.553541 0.137591 0.890200 -0.401899 1.078832 -0.461834 0.420149 -1.418977 0.905240 0.288001 -0.428146 -0.336001 0.303585 -0.175277 -3.117679
wat -0.607225 -0.781503 1.252878 4.299753 -0.191146 0.310116 -0.572432 -0.551848 -0.006360 1.289366 -0.359272 -0.987908 -0.274494 0.253894 -0.704470 -0.689465 0.935055 -0.633721 0.038330 -0.071900 1.651600 0.420557 -0.289122 0.754085 0.438199 -0.621524 0.510678 0.359900 -1.290123 -1.037916 -0.283023 -0.131881 0.114672 0.175376 -0.395097 0.038620 0.424583 -0.729747 -0.327814 0.484442 -0.908885 0.368385 -0.723196 0.527921 0.990568 -0.128063 -0.699841 -0.066490 -0.127681 -1.791672
was -1.675777 -0.078924 0.245306 4.501194 0.235944 0.891045 -0.911386 0.418263 0.394055 0.644870 0.379280 -0.940069 0.411852 -0.048307 -0.462569 0.024330 1.389653 0.294443 -0.376226 1.428109 -0.368607 -0.530731 -0.390028 1.248152 0.535230 -1.048498 0.148104 -0.894541 -1.665331 0.764249 -0.766657 -0.588880 0.260237 -0.479074 0.085688 0.640260 -0.723384 -0.368917 -0.805803 -0.398083 -1.830789 0.672216 -1.544851 0.390300 0.879216 0.886370 0.149720 -0.272783 -0.371369 -0.430311
... 0.086627 -0.240090 0.743570 4.618103 -0.248110 -0.348640 -0.558266 0.154273 0.011990 0.084601 -0.700412 -0.947374 -0.220454 -0.177536 -0.605722 0.120867 0.488297 -0.426988 0.398910 -0.300424 0.620264 1.191113 -0.050720 0.375229 0.140927 -0.737510 0.740586 -0.137419 -0.734381 -0.201151 0.314415 -0.121002 0.739663 -0.092815 0.245736 0.417925 0.300741 0.087383 -1.243853 1.216611 -1.411700 0.184809 -0.706560 -0.197160 1.060404 0.064082 -0.335126 -0.334839 -1.700693 -1.184259
uit -0.538306 0.351862 0.503466 4.602410 0.948871 -0.845195 -0.334173 0.221036 -0.841839 1.272137 -0.011052 -1.329879 -0.428362 0.066005 -0.101607 -0.151845 0.606412 0.058148 -0.595846 -0.098583 0.333584 -0.436210 -0.064670 1.060792 0.460216 -0.692371 0.015830 0.451362 -0.402658 -0.117144 -0.927833 0.293271 -0.838130 -0.665426 -0.511144 0.459357 0.554670 0.017552 -0.217115 -0.654643 -0.715779 -0.191081 -0.702146 0.591620 -0.259881 -0.236102 0.091221 -0.702406 0.138136 -2.051468
tot -0.598531 0.083473 0.584677 4.404008 0.612712 -0.502183 -0.686255 0.842889 0.930685 0.357173 -0.639826 -1.921972 0.271392 -0.084998 -0.268378 -0.119688 0.955106 0.126165 0.122461 0.113635 -0.067327 -0.197673 0.274579 0.781636 0.147015 -0.259370 0.174890 0.133621 -0.775501 -0.363102 -0.004468 0.429817 -0.526681 0.528611 0.577787 -0.290373 0.439669 0.591128 -0.520872 -0.220616 0.400186 0.104551 -1.220186 0.594001 -0.930823 1.046767 -0.249118 -0.158601 0.212986 -1.650796
hij -0.289862 -1.106725 0.721698 4.041174 0.780854 -0.649306 -0.637351 -0.119406 0.426681 0.548098 -0.518448 -1.355942 -0.548275 -0.862245 0.986483 -0.320214 2.045710 -0.468696 -0.392103 0.755762 -0.171387 -0.764730 0.017969 1.388594 1.169481 -0.751787 0.815619 -0.341776 -0.246315 0.872767 -1.102698 0.002898 0.159496 -0.336090 -0.098140 0.328561 0.340036 0.172798 0.163777 -0.690364 -1.042992 1.065463 -1.555934 1.106634 0.668605 -0.086369 0.541754 -0.065125 0.579803 -2.226976
wordt -1.643687 -0.045718 0.439291 3.128553 -0.202258 -0.318577 0.185578 -0.263921 1.457503 1.672218 -1.223255 -1.244062 -0.419751 0.517989 -0.776170 0.403922 0.307179 -0.340945 0.595790 0.892023 0.097463 -1.429069 -0.396875 0.256720 -0.638695 -0.183399 -0.238923 0.672741 -1.391078 0.266678 -0.327756 -1.058546 0.339363 -0.368091 -0.137049 -0.047605 0.360265 0.810630 -0.905823 -1.059444 -0.647742 0.406246 -0.717015 -0.710072 0.263683 1.283620 0.106248 -0.174945 -0.035232 -4.217123
over -0.626220 -0.398261 1.372318 4.667829 0.590872 -0.317880 0.556720 -0.068317 0.820851 0.723804 -0.166652 -0.628115 0.039970 1.369359 -0.102066 -0.930832 0.727800 -0.893998 0.343498 -0.728699 0.624477 0.104715 0.365077 0.837770 0.888912 -0.215256 0.575798 0.260702 -0.857789 -0.487742 -0.503700 0.668392 -0.349729 1.011880 -0.438595 0.634818 0.234473 -0.300177 -1.051868 -0.234789 -0.345608 0.018574 -1.212167 0.265704 -0.186083 -0.259277 0.513237 -0.240105 -0.248278 -2.129230
al -0.599045 -1.112688 0.588465 4.593182 0.500744 -0.174917 -0.599508 -0.041327 -0.003203 0.989134 -0.083770 -1.026474 -0.269627 -0.217331 -0.984994 -0.379890 0.468843 -0.105073 0.481435 0.206398 0.523348 -0.353791 -0.050464 0.835248 0.441538 -0.702978 0.513977 -0.021836 -0.836968 -0.163539 -0.564032 0.001019 0.450303 0.080911 -0.037011 -0.088861 0.318424 -0.248533 -0.141067 -0.160318 -1.862066 0.553942 -0.584702 0.546873 0.974034 -0.209088 0.404224 0.182223 -0.191349 -1.509918
<unk>[nounpl] 0.408052 -0.022780 0.289828 5.009200 0.864683 -0.778249 -0.077043 0.127564 -0.869848 -0.092278 -0.576619 -1.003839 -0.209402 0.165029 -0.975854 1.272717 -0.734037 0.482768 0.882905 0.220344 -0.071531 0.750522 -0.163951 -0.360583 0.334889 -0.829348 0.322478 -0.040095 -0.611078 0.022301 -0.255870 0.328773 0.424214 -0.289864 -0.010445 0.688797 -0.085704 0.592944 -0.252994 -0.176037 -0.533960 -0.675414 -0.299057 -1.078419 0.044985 0.724753 -0.834662 -0.009132 -0.099836 -1.563787
meer -0.604910 -0.733223 1.087364 4.168430 -0.002534 -0.062946 -0.213370 -0.137717 0.254766 0.756926 -0.089509 -1.439047 0.065091 -0.056999 -0.984400 -0.015531 0.557033 -0.363382 0.121258 -0.308971 0.808861 -0.167032 -0.207768 0.724052 -0.194388 -0.978633 0.386872 0.025983 -0.761341 -0.742663 0.250144 -0.135413 -0.671944 0.823975 -0.197248 -0.090569 0.237605 -0.068462 -0.250634 -0.466725 -0.590933 0.338216 -0.690187 0.577395 0.328240 -0.169444 -0.594362 -0.151714 -0.043329 -2.394859
heeft -0.723484 -1.577918 0.368194 4.246568 -0.341043 -0.830199 0.419213 -0.382257 0.156386 1.093508 -0.044411 -0.886237 -0.377984 0.465301 -0.613242 -0.339380 1.036417 -0.168181 -0.508060 0.254196 -0.077150 -0.840009 -0.508940 0.068922 0.208913 -0.078673 0.156473 -0.283459 -0.444568 0.472172 -0.582844 -1.109652 0.085982 -0.106264 -0.192062 -0.392416 0.092198 0.054753 -0.190498 -0.974217 -1.086786 0.312236 -0.469537 0.453772 0.561644 0.795635 1.133039 0.250755 -0.212905 -2.878508
hebben -0.358781 -1.024249 0.862805 4.462610 0.080431 -0.511918 0.294450 0.359109 -0.155438 1.488516 0.233319 -0.918420 0.075300 0.437870 -1.642873 0.192466 0.575803 0.252804 0.555096 0.189845 0.456697 -0.119023 -0.893327 0.777960 0.127354 -0.559419 -0.085657 0.957172 -1.395638 0.212419 0.219801 -0.805136 0.737307 0.451739 -0.272770 -0.085547 0.080772 0.153348 -0.155193 -1.143178 -1.192550 -0.060770 -0.201510 0.341411 0.701136 -0.126227 0.021390 0.719928 -1.105751 -2.286098
wel -0.636750 -1.285063 0.918982 4.046497 -0.278108 0.291833 -0.412070 -0.176391 0.312792 1.234404 -0.249179 -1.190508 -0.222437 -0.077237 -1.036947 0.001370 1.054757 -0.072053 0.023289 0.429419 1.121941 0.027538 -0.370395 0.652009 0.154935 -1.170174 0.658695 -0.004788 -0.659856 -0.366346 0.156644 -0.235372 0.020353 -0.140360 0.018814 -0.197625 -0.197843 -0.587830 -0.192054 0.523368 -1.440672 0.398097 -1.205343 0.096933 1.186873 -0.318728 -0.343965 0.060278 -0.102502 -1.717719
onze -0.138278 0.957360 0.077395 4.739795 0.475264 -0.659899 -0.181120 0.160059 -0.315455 1.653804 0.101863 -1.262992 0.210993 -0.350289 -2.057238 0.178692 0.886588 0.410646 -0.556027 -0.761997 0.329268 0.814699 -0.329035 -0.659334 -0.862208 -0.128651 -0.275681 0.207247 -0.919541 0.183908 0.100091 0.346422 0.659573 0.277821 0.223353 1.179883 -0.346628 0.395679 -1.296592 -0.615117 0.415217 0.565112 -0.365069 1.131149 0.403662 -0.905835 0.300446 1.231352 -0.214679 -1.283522
kunnen 0.117794 -0.646652 0.458267 3.972192 0.421386 -0.524968 -0.250674 0.449313 0.529481 1.512016 -0.562324 -1.575540 0.108166 -0.146019 -1.283286 0.443143 0.198713 0.299141 0.809242 -0.325717 0.826571 0.660549 -0.026648 0.303890 -0.777149 -0.814095 1.073001 1.087834 -0.397303 -0.012395 1.057073 0.244619 0.331804 0.596182 0.477140 0.340503 0.089854 -0.093212 0.259487 -0.480445 0.087856 -0.744103 -0.277718 0.074404 0.215832 -1.119107 -1.787154 0.161674 -0.194470 -2.503190
s 0.294438 -0.432567 0.731598 4.447353 0.281006 -1.019953 0.531904 0.610686 0.133919 -0.385564 0.377616 -1.435501 -0.006559 0.283300 -0.959635 0.743428 0.318283 -0.690642 0.970508 0.404016 0.463091 -0.233030 0.508687 0.075646 0.347627 -0.685413 1.020277 -0.137526 -0.106460 -0.366021 -0.430230 0.764987 0.924850 0.476706 0.000359 1.659926 -0.398338 -1.068908 -1.218905 0.002969 -1.252196 -0.557641 0.227550 0.128174 -0.417242 -0.143009 -0.241014 -1.456238 -0.832318 -1.713339
mijn -0.003029 -0.732374 1.581387 3.868396 0.075546 -1.005591 -0.939950 -0.305419 0.361008 1.281763 -0.173283 -2.189667 -0.500840 -0.443493 -0.895255 -1.428394 1.609149 0.017532 0.161381 -0.333974 0.667186 0.317137 -0.501022 0.075276 1.915060 -0.596325 -0.482165 -0.379429 -0.810016 -0.011125 -0.637708 -0.365077 1.515742 -1.250503 1.208995 0.733176 -0.148778 -0.800808 -0.654465 0.565552 -0.746603 0.814601 -0.228888 1.320514 0.315136 -0.511944 0.884603 0.298710 -1.604642 -1.449106
zo -0.867219 -0.756809 0.713251 4.264066 0.276404 -0.036052 -1.033007 -0.490235 0.433792 1.000609 -0.076768 -1.468640 -0.132614 0.059468 -0.573898 -0.442403 0.996854 0.055529 -0.032332 0.112771 0.852826 -0.243737 -0.397371 0.911241 -0.059310 -0.729719 0.664037 -0.028840 -0.385514 -0.018228 -0.224084 0.264060 -0.113006 0.191679 -0.356800 0.366619 -0.051600 -0.069505 -0.141873 0.508419 -0.927485 0.530469 -0.885455 -0.333105 0.812586 -0.300096 -0.335124 -0.224528 0.126799 -1.888928
geen -0.224542 -1.153759 1.677263 4.227561 -0.292943 0.161372 0.674394 0.906338 1.087647 0.489992 -0.603190 -1.602612 0.019443 0.107834 -0.933539 0.211267 1.001921 -0.812520 -0.148411 0.156978 0.766612 0.730546 -0.469694 0.319528 0.253531 -1.360036 0.113811 0.121834 -0.725574 0.055761 0.224694 -0.887595 -0.982348 -0.532548 0.465524 -1.317092 -0.526615 -0.245416 -0.154392 -0.581976 -0.600079 0.259739 -1.314112 0.511581 0.624308 -0.072158 -0.399814 -0.255169 0.039697 -1.806266
/ -0.481947 0.704888 0.296449 4.225037 -0.325400 -1.277764 0.167670 0.162850 0.051103 0.213448 -0.855519 -1.743744 0.605498 0.499525 -0.873482 0.536005 -0.191767 -0.842577 -0.005101 0.451847 -0.239319 0.563200 -0.061960 -0.258219 0.309235 -0.764449 0.209381 -0.924297 0.908593 -0.207998 -0.130296 -1.244356 0.772428 -0.454233 0.266025 0.630886 0.661892 -0.197938 -0.753024 0.635152 0.843612 -0.014010 -1.817221 0.199207 -1.114978 0.774887 -0.657189 -0.546833 -1.508818 -1.636234
hun 0.783453 0.284117 0.937245 4.434737 0.676994 -1.010300 -0.451663 0.357970 0.289245 1.302248 0.445451 -1.512565 0.656221 0.007175 -1.519880 -0.414014 1.715258 0.312448 0.283542 -0.722210 0.601341 -0.251187 -0.483743 0.298830 0.410111 -1.056183 0.651903 0.973672 -1.086087 0.391661 0.074126 0.655411 0.639189 0.092358 0.007158 0.816389 -0.368875 0.244112 0.000369 -1.306414 0.797142 0.238947 0.112751 1.413934 0.027376 -0.565530 -0.595002 0.008225 -0.322796 -1.364905
ons -0.271321 0.222980 0.274227 4.441385 0.897409 -1.575533 -1.322778 -0.026719 0.233819 1.004338 0.209343 -0.582373 -0.169421 0.448940 -0.982414 -0.863024 0.667754 0.159352 0.249056 0.309804 1.329472 0.775250 -0.253082 0.474291 -0.945698 -0.025421 0.549336 0.465458 -1.000142 0.799536 -0.051601 0.975235 -0.337387 -0.069682 0.052967 0.914831 -0.833251 0.042743 -0.260411 0.213799 -0.540949 0.966351 -0.720576 0.726831 0.846387 -0.017701 0.073045 0.313428 -0.087542 -1.377013
zich 0.333808 -0.665767 0.363183 4.691941 1.296911 -0.105674 -0.545099 -0.027669 0.185717 0.661431 0.478820 -1.220170 -0.958022 -0.336501 0.110598 -0.923550 1.210487 0.297861 -0.166456 0.488411 -0.177028 -0.680641 0.079536 0.952800 -0.272468 -0.046686 1.618396 -0.014199 0.132856 0.439757 -0.261431 0.533462 -0.429912 0.618644 -0.542843 0.387083 0.085293 0.172701 0.362809 -0.322090 0.535071 1.091567 -1.135172 0.534731 0.234614 -0.235345 -0.449270 0.225136 1.311054 -1.942260
jaar -0.988228 -0.558003 -0.198528 4.304437 -0.057686 -1.296129 -0.619727 0.101604 0.708987 1.104001 0.089393 -1.699360 0.828673 -0.761167 -0.684266 0.251452 0.057690 0.082263 0.044169 0.194903 -0.836627 -0.873290 0.279474 0.994931 -0.038519 -0.509966 0.939876 0.614064 -0.614781 -0.753628 -0.127778 -0.651082 0.013913 0.430465 -0.049310 -0.287273 0.183395 0.149674 -0.701850 -0.439043 -1.204323 0.094316 -1.001114 2.072426 0.026816 0.891063 0.741202 0.100697 -0.221440 -1.334649
werd -1.451816 0.230816 0.098016 3.962534 0.608839 0.048175 -0.457543 0.247741 0.305521 1.724489 -0.790295 -0.660731 0.860416 0.357852 -0.123756 0.606297 0.755624 -0.129836 0.289068 1.236669 -0.778735 -1.891470 -0.381936 1.081050 -0.172369 -0.347626 -0.353432 0.426890 -1.382862 1.089989 -1.344538 -0.805337 0.520159 -0.393057 -0.049627 0.184267 -0.150366 0.063547 -0.838887 -1.947284 -1.387299 0.739138 -0.712323 -0.434552 0.269353 1.193824 1.265120 0.175049 -0.072858 -2.119008
na -1.312447 -0.344775 0.225912 4.152299 1.344813 -0.005048 -0.794343 0.927226 1.601659 1.427818 -1.049179 -2.044016 1.170042 -0.671935 -0.304004 0.051387 0.991521 -0.127881 -0.220496 0.426357 0.382590 -0.059954 0.741056 0.969816 0.853185 -0.335194 0.090952 0.187793 -0.035924 -0.004486 -0.155423 -0.073256 0.096730 -0.402898 0.745691 -0.196894 -0.090555 -0.799263 -0.895875 -0.117864 -1.070786 0.035733 -0.669817 0.784726 -0.268438 0.424829 0.016063 0.797192 0.216252 -0.862957
o 0.045879 -0.666912 0.757141 4.811285 -0.705503 -1.232669 -0.881030 0.831556 -0.271761 -0.790435 0.020065 -0.756583 0.506410 0.315541 -0.622684 1.438046 -0.181985 -0.891941 0.724549 0.213371 1.444906 0.012352 0.276093 0.101123 0.709728 -1.447401 0.431039 -0.592083 0.124039 -1.186485 -0.386577 0.402615 1.013321 -0.205453 0.234037 0.669024 -0.840004 -0.555361 -0.929929 0.737991 -0.759007 -0.432286 -0.128399 -0.238829 -0.559723 0.256477 -0.080053 -1.236437 -0.322057 -1.701265
nu -0.415755 -0.900131 0.497699 4.050520 0.237069 -0.099955 -0.486791 -0.015152 0.049341 1.067691 -0.359604 -1.282348 -0.492762 -0.089535 -0.799740 -0.364353 0.669036 0.246488 0.327382 -0.231415 0.293696 -0.479135 0.242010 0.636738 -0.254461 -0.606337 0.738922 -0.061858 -0.437672 -0.434477 -0.169597 -0.223102 -0.151946 -0.182997 0.192567 -0.096462 0.119817 -0.307802 -0.632363 0.563714 -1.429581 0.509923 -1.222222 0.457566 0.805076 -0.170633 0.389414 -0.089611 -0.306124 -1.889405
moet 0.035493 -0.886206 0.688325 3.191086 -0.397475 -0.251241 -0.147500 0.351427 1.155357 1.236240 -1.177594 -1.709726 -0.182736 0.374494 -0.473561 0.152297 0.654883 0.340638 -0.406337 -0.240157 0.720748 -0.065559 0.224341 0.305851 -0.611663 -0.669550 1.151695 0.305722 -0.543373 0.170165 0.004479 -0.797233 0.018703 0.089347 0.813304 0.148496 -0.085010 0.418010 -0.164201 0.500275 -0.554671 0.321800 -1.450697 0.068859 0.693933 -0.466187 -0.552032 -0.084008 0.092888 -3.012145
zal -0.377586 -0.616490 -0.522389 3.631462 0.176541 -0.396342 -0.168561 0.006869 0.955481 1.029849 -0.766010 -1.671826 -0.183298 0.312407 -0.817127 -0.121293 0.592434 -0.097539 0.229730 -0.061191 0.565320 -0.451605 0.400267 -0.018515 -0.920988 -0.398546 1.147029 0.336366 -0.341595 -0.139318 0.430024 -0.589576 -0.031914 -0.025650 0.435579 0.290465 -0.084297 0.173862 -0.429119 0.067158 -0.487552 0.201594 -1.043246 0.612542 0.919540 0.410890 -0.149468 0.366875 0.563065 -2.404733
dus -0.670776 -0.980855 0.844833 3.692271 -0.095184 0.032898 -0.542424 0.230555 0.505061 1.148984 -0.605699 -1.584715 0.170212 -0.064544 -1.148718 0.056100 0.706924 0.266376 -0.115532 0.309701 0.925818 0.045183 -0.072953 0.604078 -0.212349 -0.855653 0.515666 -0.221997 -0.772367 -0.453685 0.310884 -0.365228 -0.098518 -0.024587 0.473360 -0.252497 -0.065232 -0.127213 -0.314846 0.662586 -1.131347 0.354597 -1.248876 0.321184 0.898985 -0.215013 -0.398527 -0.069039 -0.331866 -1.800061
andere 0.255783 -0.731276 0.531667 4.393253 -0.037947 -0.653846 0.456614 0.801602 -0.722305 0.642603 -0.281986 -0.798412 -0.583205 -0.287596 -1.514987 -0.009742 0.384058 0.213756 0.451268 0.355301 0.237731 0.640810 -0.221096 0.312670 0.514875 -1.187410 0.151874 0.523132 -0.378563 -0.658930 -0.184563 0.189523 0.338864 0.034820 -0.250907 0.065683 0.246373 -0.009391 -0.041545 -1.219532 -0.047124 -0.012499 -0.826672 0.048029 -0.251285 -0.840161 -0.775878 0.055543 0.555792 -2.449210
the -0.659298 0.889797 -0.525127 3.447753 0.350803 1.469741 2.051236 0.251447 -0.504709 0.109319 0.447084 0.154630 -0.197056 1.705810 -0.842700 -0.238722 1.482903 -0.406349 1.697877 2.637391 -1.329528 -0.856877 0.700499 -0.922579 1.241749 -0.679836 0.868762 -2.175640 -0.248416 0.122576 0.698153 -0.327955 0.111544 -0.121593 -0.404385 2.652287 -0.739167 -1.049231 -1.476380 0.985228 -1.085787 -1.961586 -0.772752 1.142674 -0.106055 1.203442 -0.804190 -1.779220 -0.538231 -1.178639
haar 0.533282 -0.450687 0.851627 4.389813 -0.010603 -1.129685 -0.716769 -0.782391 0.618364 0.406550 0.610424 -1.783804 0.080618 -0.044268 0.087840 -0.868198 1.875751 0.236876 -0.381441 -0.563569 0.140231 -0.704561 -0.199152 0.128622 1.779265 -0.081383 0.530510 0.254283 -0.120362 0.906067 -0.736009 0.672376 0.831043 -0.885589 0.270247 0.652438 -0.370270 -0.230463 -0.151002 -0.671911 0.238474 0.865629 0.150821 1.484709 0.211449 0.090482 0.836933 0.244609 -0.028982 -1.950568
alle 0.341665 -0.267074 0.732426 4.576574 1.257444 -0.683214 0.491511 0.441606 -0.137727 0.706182 -0.132856 -1.065362 0.115856 0.211208 -1.858219 -0.136801 -0.526125 -0.171983 0.586628 0.249297 0.290994 1.070567 -0.550754 -0.101921 -0.620434 -0.855936 0.428121 0.979411 0.051760 -0.586242 -0.290803 0.933064 0.338999 0.283452 0.115106 -0.059391 0.418052 1.050728 0.403708 -0.935179 -0.135304 0.073028 -0.473765 0.484689 0.503779 -0.995667 0.101586 0.227889 -0.059968 -2.172219
goed -0.812389 -0.555125 1.340963 3.868136 0.250038 0.203427 -0.907555 -0.945886 0.698114 1.695275 -0.005419 -1.502763 0.407754 -0.088456 -0.885712 0.118520 0.965299 0.886781 -0.912712 0.431807 1.113944 0.107909 -0.968063 0.428759 -0.442404 -0.559089 0.442060 -0.029006 -0.259152 -0.062106 -0.486860 0.151369 0.457441 0.271858 0.194677 0.400383 0.330631 -0.163842 -0.271870 0.651961 -1.311713 0.127659 -0.815404 -0.612057 0.785542 -0.555446 -0.114232 0.096353 -0.064652 -1.932562
heb -0.874114 -1.481335 1.155320 3.523726 -0.513494 -0.339017 -0.198737 -0.287892 -0.198777 1.414053 -0.805140 -1.123733 -0.609773 0.021320 -0.903332 -0.266476 0.568846 -0.204573 0.540267 0.347711 0.314615 0.480135 -0.705456 0.784832 1.351835 -0.264685 -0.620040 0.032515 -0.859914 -0.216342 -0.387969 -0.931482 1.258216 -0.137317 0.718266 -0.081515 0.514059 -0.564399 -0.218171 0.490742 -2.522068 0.129276 -0.600219 0.550467 0.805477 -0.364811 0.718045 0.276088 -1.357952 -2.323498
waar -0.334237 -0.283344 -0.129529 4.109726 -0.246551 0.022178 -0.561630 0.718757 -0.746668 0.772607 -0.328926 -0.654331 -0.890493 -0.425959 -0.362646 -0.353854 0.389220 0.214369 -0.053972 0.524716 0.507884 0.576351 0.222121 1.130436 -0.121672 -0.587782 0.336760 0.109491 -0.919481 0.359904 -0.014128 0.398462 -0.353935 0.601475 -0.123384 0.533952 -0.263947 -0.280327 -0.579254 -0.298956 -0.481923 0.354293 -1.009193 0.098222 0.057147 -0.080857 0.350686 0.121143 -0.280462 -2.491768
uw -0.021433 -0.640519 0.280198 3.555817 -0.033633 -1.897762 -0.817155 -0.095393 1.361594 0.925343 -1.327037 -1.927359 -0.628940 -0.331952 -1.338680 -1.389850 1.138482 -0.562778 -0.188213 -0.995845 0.585547 0.645062 -0.175454 -2.006087 -1.562718 -0.459629 -0.699313 -0.119612 0.540592 0.520794 -0.253169 0.381245 0.643533 -0.870052 0.888489 0.903491 -0.101360 1.072793 -0.726363 0.885427 0.751584 0.043504 0.074662 1.073419 0.071295 -0.591380 -0.519640 0.057004 -0.624335 -3.003945
<unk>[adj] 0.141806 -0.115085 -0.259931 4.385391 0.544531 -1.018797 -0.127207 -0.146786 -0.557705 -0.328303 -0.355235 -1.001816 -0.275664 0.724130 -0.451374 1.181349 -0.089720 0.604435 0.480197 0.813344 -0.331398 0.326897 -0.438426 -0.294770 0.716394 -0.608316 0.536392 -1.271615 -0.456929 0.364996 -0.243716 0.155032 0.516914 -0.642281 0.174164 0.698398 -0.607125 0.230234 -0.256640 0.306592 -0.657743 -0.539257 -0.454573 -1.653432 0.270174 1.489218 -0.369929 -0.393687 0.117808 -1.405195
gaan 0.557596 -0.149588 0.374554 3.805193 0.128609 -0.350557 -0.934004 0.924932 0.029451 1.259712 -0.687342 -1.841510 0.156777 -0.645857 -0.878985 -0.205616 0.460288 0.583875 0.362755 -0.307496 1.025846 0.621907 0.993382 0.943488 0.134638 -0.429045 1.487080 0.279984 -0.865398 -0.230855 0.785657 0.390766 0.192944 0.486156 -0.027492 0.771509 0.434768 -0.932414 -0.267712 0.666869 -0.564050 -0.275738 -1.265120 0.454100 0.317994 -0.869926 -0.872297 0.719631 -0.392357 -1.560430
hier -0.670549 -0.692003 0.233395 4.245917 0.022885 -0.264737 -0.406401 -0.158342 -0.153265 1.148541 -0.520496 -0.527378 -0.625916 0.067226 -0.607520 -0.281910 0.239792 -0.259672 0.357506 0.224922 0.907204 0.658181 0.093679 0.669885 -0.118115 -0.609305 0.347086 0.451151 -0.643948 -0.562718 -0.024328 0.566941 -0.102525 0.085426 0.156471 0.180863 -0.168700 -0.186837 -0.714390 0.489061 -1.247519 0.487668 -1.442117 0.016429 0.934589 -0.427686 0.278922 0.123538 -0.153713 -1.669166
wij -0.317388 0.224136 -0.013356 4.308008 0.570263 -0.829147 -0.837257 0.745932 -0.017626 1.055191 -0.109706 -1.052720 0.281230 0.444625 -1.750151 0.272732 0.400424 0.260041 0.296550 -0.108762 0.649487 0.865740 -0.022544 0.048227 -1.044527 -0.149168 0.275678 0.786466 -0.802664 0.604345 -0.024182 0.816564 0.024245 0.869989 0.025159 0.259623 -0.261735 0.456725 -0.093094 0.634391 -0.604701 0.013896 -1.510919 0.975251 0.662388 -0.892366 -0.949446 0.829652 -0.256216 -1.350152
toch -0.800548 -1.190925 0.821647 3.930562 0.098611 0.544149 -0.723318 -0.054072 0.212048 1.059547 -0.242285 -1.338433 0.022282 -0.254900 -0.887910 0.044608 1.286466 -0.016612 -0.398980 0.391476 1.042757 0.003101 -0.315208 0.956396 0.099726 -1.093492 0.623988 -0.086685 -0.619390 -0.360931 0.277595 -0.134958 -0.139945 0.138508 0.273930 -0.180613 -0.381882 -0.528691 -0.066144 0.524258 -1.504109 0.677649 -1.000053 0.330884 1.394020 -0.395202 0.015292 0.192927 0.050268 -1.217234
heel -1.286324 -0.447207 0.697568 4.345051 -0.065862 0.148083 -1.036168 -0.776809 -0.069353 0.937297 0.538430 -0.980283 0.128756 -0.133013 -0.983040 -0.306723 0.502994 -0.072120 -0.210535 0.361408 0.729144 0.419162 -0.860622 0.847663 0.434630 -0.682215 0.278659 0.505715 -0.633476 -0.162467 -0.359965 0.503431 0.088155 0.502065 -0.896314 0.273297 -0.148031 -0.354192 -0.114450 0.633902 -1.002392 0.473206 -0.400702 -0.158531 0.644252 -0.208569 -0.009111 0.073256 0.112292 -1.894515
nieuwe -0.382455 -0.335860 -0.040449 4.192711 0.008611 -0.264948 0.474379 0.447351 -0.975776 1.182543 -0.460478 -2.134665 0.189513 0.304075 -1.814175 -0.522393 0.459757 0.087003 0.396240 -0.905219 -1.134465 -0.112330 0.809207 -0.863497 -0.765739 0.063203 0.738689 0.345728 -1.022533 -0.604231 -0.644221 -0.200970 0.207850 -0.228313 0.195160 0.353903 -0.617010 -0.367384 -0.168247 -0.802310 -0.655675 0.707544 0.020461 0.208208 -0.398757 -0.096250 0.854862 -0.804437 0.558785 -1.909487
maken -0.650814 0.239152 0.399755 3.893288 -0.285439 -0.333184 -0.550226 -0.180354 0.209693 1.372358 -0.772146 -1.770998 0.052853 0.160926 -1.194085 0.589789 0.480375 -0.247771 0.346855 -1.038051 0.669621 0.709903 0.244324 0.189837 -0.237917 -0.892674 0.433856 0.846585 -0.942101 0.266314 -0.055814 -0.094697 -0.203231 0.059020 -0.494015 0.209297 -0.178768 -0.344881 -0.174130 0.536987 -0.488940 -0.429958 -0.226917 -0.112730 0.083306 -0.423144 -1.047855 -0.557097 0.225236 -2.125620
zou -0.229259 -1.235515 0.090333 3.465354 0.023855 -0.067304 -0.432181 0.529064 0.465724 0.889406 -0.467616 -1.554332 -0.153878 0.337978 -0.597731 -0.054219 1.377379 0.224006 0.080089 -0.149007 0.587406 -0.481952 0.269182 0.802720 -0.105711 -1.166101 1.065186 0.093901 -0.629433 -0.007740 0.207714 -0.501875 -0.454323 -0.085901 0.159392 -0.152001 -0.465982 -0.386188 -0.164463 0.052222 -0.855243 0.009264 -1.285884 0.370451 0.928418 0.230020 -0.456816 -0.044377 0.083527 -1.726819
hoe -1.041381 -0.995428 0.125901 3.329036 -0.060262 -0.796527 -0.587251 -0.915346 0.506242 1.346425 -0.298616 -1.261264 -0.788757 0.408760 -0.334441 -0.357879 1.022279 -0.134371 0.059184 -0.545996 0.686596 -0.030278 -0.036687 0.789973 -0.303910 -0.681001 1.101070 0.116258 -0.593281 -0.697004 -0.254679 -0.043441 0.182597 0.215491 -0.693797 0.572302 0.069958 -0.328919 -0.409767 1.049582 -0.159710 0.130406 -0.892183 -0.206299 1.024990 -0.791963 -0.879023 -0.143560 0.016899 -2.413367
daar -0.287341 -0.820843 0.560529 4.135845 -0.052780 0.175241 -0.804329 0.372628 -0.280217 0.807372 -0.416600 -0.861375 -0.413871 -0.224853 -0.414594 -0.278746 0.427687 0.196135 0.218183 0.352429 0.958142 0.114663 0.077328 1.052179 0.220227 -0.601885 0.453879 0.052580 -0.784412 -0.046139 -0.106682 -0.073597 -0.056655 0.158498 -0.001451 0.088273 -0.134010 -0.520306 -0.258143 0.236850 -1.202204 0.629696 -1.279622 0.253288 1.067511 -0.392672 0.145535 0.545808 -0.374994 -1.717155
weer -0.899469 0.055240 0.506994 3.856890 0.517007 0.405518 -1.246753 -0.313311 0.214504 1.257584 -0.403146 -1.566947 -0.059659 -0.738457 -0.613068 -0.485297 0.720576 0.503194 0.422193 0.003213 1.175928 -0.082588 0.326094 0.816948 0.321653 -0.089860 0.511789 -0.066792 -0.927278 -0.403844 0.500997 0.234318 0.099743 -0.419878 0.219010 0.511862 0.125650 -0.211053 -0.398656 0.161494 -1.536044 0.904206 -0.429210 -0.050014 1.086774 -0.248263 0.544616 0.374882 -0.289823 -1.400963
mensen -0.326935 -0.533756 0.917219 4.002676 -0.044481 -0.888477 -0.330993 0.560993 0.016840 0.231424 0.320725 -0.998915 -0.620451 0.243890 -1.086018 -0.198452 0.893229 0.285671 0.720150 -0.041518 0.049232 0.369886 -0.825380 1.665061 0.215126 -0.884908 0.471580 0.564292 -0.485369 -0.220937 0.590359 0.525140 -0.284773 1.254976 -1.003566 -0.140169 -0.482791 0.062958 -0.274025 -0.024897 0.086483 0.234677 -0.552683 0.319369 0.895317 -1.007516 -1.093408 0.467223 -0.343776 -2.579560
zoals 0.069634 -0.773894 0.508068 3.955115 -0.169968 -0.815479 0.030189 0.293205 -0.339950 0.229337 -0.177528 -0.719352 -0.444179 -0.052347 -0.771041 0.129408 0.413413 -0.197496 0.401675 0.192725 0.407610 0.798490 0.110554 -0.391719 0.415222 -0.741059 0.687170 0.351440 -0.708109 -0.700200 -0.579334 0.144417 -0.184579 -0.396145 -0.765360 -0.243972 0.975505 -0.126016 -0.634103 -0.839463 -0.452545 -0.713364 -0.910231 -0.405526 -0.124252 -0.138925 -0.678851 -0.060269 -0.285901 -2.107005
veel -0.813970 -0.604104 0.944335 3.800772 -0.241095 0.299783 -0.757629 -0.777610 -0.239117 0.984477 -0.086906 -1.314804 -0.352567 -0.346915 -1.289515 0.143466 0.394993 -0.284412 0.046617 -0.212304 1.232934 -0.098007 -0.481874 0.658468 0.355716 -1.048896 0.075579 0.386557 -1.307752 -1.141030 0.079300 -0.382308 -0.362987 0.715911 -0.950583 0.003524 0.383738 -0.481602 -0.083306 -0.144931 -1.005743 0.297817 -0.302570 0.305954 1.063677 -0.034878 -0.996090 0.335706 -0.476246 -2.189794
onder 0.262587 0.172916 0.997950 4.470162 0.868197 -0.270466 -0.217171 0.430743 0.315647 0.621004 -0.007058 -1.065424 0.156142 -0.126049 0.006129 -0.524545 0.437659 0.331081 0.600840 0.376829 0.276449 -0.334373 0.094758 0.127428 0.100788 -0.087034 0.397613 0.392846 -0.734668 -0.366304 -0.402900 -0.043862 -0.296452 -0.535243 -0.226281 0.391764 -0.060906 0.307910 -0.490467 -0.557450 0.133482 -0.085571 -1.249965 -0.150433 -0.069918 0.276786 0.322674 0.299888 0.333793 -1.880158
had -0.858631 -0.938876 0.815584 4.147015 0.134035 0.464784 -0.218067 0.444878 -0.165308 0.800724 -0.357997 -0.504502 0.246364 0.437397 -0.133293 -0.070251 1.354163 0.258660 -0.117031 1.149930 -0.389250 -0.623090 -0.334815 1.137975 1.346777 -0.456380 -0.083447 -0.495245 -0.892419 0.881235 -0.795092 -0.917527 1.049071 -0.602678 0.320133 0.510566 -0.482414 -0.389309 -0.245059 -0.901126 -2.109995 0.438493 -0.501576 0.855939 1.134950 0.252324 0.314914 0.271766 -0.849788 -1.451376
doen 0.492611 -0.699587 0.529043 3.612937 -0.027244 -0.404384 -1.021562 0.591513 0.503390 0.932025 -0.258501 -1.658624 0.372295 0.013337 -0.615193 -0.022316 0.625988 -0.114344 0.219080 -0.567076 1.130293 0.833609 0.056168 0.681631 0.279856 -0.962816 1.223599 0.183560 -0.526069 -0.280710 0.222918 0.212235 0.399756 0.481824 0.158235 0.231257 0.037575 -0.428348 -0.305384 1.164399 -0.850156 -0.524349 -1.103558 0.768311 0.838790 -0.699750 -1.072252 0.858155 0.455230 -1.683839
gaat -0.359393 -0.565393 0.312449 3.572895 -0.192974 -0.498659 -0.585010 -0.071304 0.621271 0.933889 -0.602985 -1.439046 -0.246705 -0.362231 -0.267625 -0.281229 0.797494 0.133586 -0.120866 -0.286734 0.565222 -0.113134 0.872255 0.243920 0.213666 -0.337921 1.392976 -0.447537 -0.268703 -0.670367 0.198441 0.195471 -0.428793 0.011490 -0.196728 0.063957 0.191009 -0.494360 -0.594984 0.738273 -0.251258 0.085834 -1.195271 0.236893 0.392985 -0.100695 -0.039938 0.197706 0.294094 -2.015284
eens -0.273890 -0.781352 0.740672 3.655120 -0.132562 0.034722 -0.547589 -0.010184 0.073319 1.433604 -0.792732 -0.964283 -0.208479 -0.372456 -0.495188 -0.391029 0.974961 -0.134730 0.446796 0.101432 1.331172 0.228118 0.177299 1.094810 0.252324 -0.572534 0.615812 0.255887 -0.541384 -0.116236 -0.011405 -0.129423 0.755161 0.002337 0.128676 0.531547 0.118044 -0.813410 -0.587932 0.749731 -1.678282 0.205472 -1.217123 0.250300 1.043565 -0.734364 0.101810 0.277814 -0.115516 -1.579011
wil 0.396936 -0.380649 0.353340 3.447369 -0.699857 -1.047085 -0.317647 -0.143023 -0.053655 0.740216 -0.507003 -1.557029 -0.325033 0.494693 -0.679021 -0.366345 1.055265 0.103330 -0.304583 -1.108246 0.358247 0.518034 0.272801 0.544685 -0.461054 -0.255916 1.742935 0.209866 0.288881 0.075000 0.547740 0.063553 -0.442332 0.453074 0.048216 0.424674 -0.109273 -0.601048 -0.434595 0.728306 -0.568570 0.165430 -1.204706 0.945149 0.690993 -0.707349 -0.427685 -0.176719 0.485100 -2.175466
tegen -0.336893 -0.565489 0.727486 4.308287 0.716814 -0.194165 -0.589466 1.326103 0.310373 0.526486 -0.493692 -1.667146 1.319595 -0.002719 -0.590294 -0.337727 1.252775 0.107536 -0.570949 0.068280 0.094868 -1.178030 -0.320450 0.730244 0.745975 -0.820623 1.151594 -0.469698 0.729102 0.844273 1.099911 0.304519 -0.986129 -0.965046 -0.496904 -0.911889 0.949826 -0.181697 -0.175046 -0.857385 -0.146644 0.225248 -0.666671 -1.065958 0.862076 -0.724531 0.027332 0.898146 0.172141 -1.085053
moeten 0.598507 -0.692864 0.819226 3.352650 0.563511 -0.076540 0.001145 0.913807 0.557058 1.122107 -0.697056 -1.508803 0.386606 0.547225 -1.247572 0.632744 0.121971 0.872468 0.399681 -0.546920 0.802439 -0.045686 0.215970 0.708314 -0.616133 -0.969713 1.281804 1.359348 -0.873535 -0.027673 0.213817 -0.275039 0.079845 0.595838 0.634968 0.421406 -0.003846 0.388127 0.259238 -0.234689 -0.479522 0.069792 -0.935438 0.367651 0.586992 -1.205530 -1.114854 0.276734 -0.400809 -2.433156
tussen -0.880835 0.502753 0.297911 4.248918 0.268526 0.387029 -0.593658 0.531303 -0.064933 0.360559 -0.253159 -1.033220 -0.582130 0.414341 -0.563582 0.244943 0.834218 0.683955 0.248214 -0.037914 0.841207 -0.258679 0.178246 1.178920 0.765940 -0.223141 0.385776 0.057190 -0.358132 -0.312325 0.296265 -0.783056 -0.422005 0.966105 -0.206863 -0.477874 0.442583 -0.084805 -0.375811 -0.276397 1.127977 0.035353 -1.164571 -0.219489 -1.429728 0.346431 0.121652 0.089440 0.141812 -2.092275
komen -0.074463 -0.282956 0.343072 4.054177 0.472357 -0.252626 -0.439823 0.641133 -0.047805 0.983027 -0.482106 -1.272168 -0.034758 -0.223436 -0.758906 -0.048596 0.347625 0.610971 0.432288 -0.052112 0.694283 0.540435 0.598782 0.907231 -0.081898 -0.313130 0.778237 0.785596 -0.457913 -0.378887 0.783369 0.650392 -0.171362 0.396166 0.131972 0.301461 -0.081953 -0.492307 -0.224852 -0.025115 -0.120039 0.043966 -0.782809 0.212809 0.304062 -0.683783 -0.502789 0.698851 -0.153509 -1.653110
ben -1.246605 -1.163508 0.751169 3.235235 -0.721176 -0.875486 -0.572994 -0.583043 0.267502 0.483070 -0.095612 -1.357013 -0.931670 -0.576878 -1.095787 -0.487858 0.844482 0.276540 -0.235540 0.499179 -0.655805 0.316352 -0.708183 1.013422 0.828618 -0.701830 -0.004444 -0.881611 -0.350919 0.110701 -0.693419 -0.888111 0.784219 0.404518 0.023936 0.388182 0.428366 -0.237823 -0.889593 0.892777 -1.981275 1.247880 -1.989363 0.361711 0.784143 -0.486578 0.210593 0.282580 -0.851491 -1.172377
; -0.143686 -0.033244 0.449536 4.161238 0.842509 -1.070446 -0.202192 0.185885 0.340472 -0.490618 -0.529034 -1.260233 0.159027 1.008668 0.077195 0.557254 0.578543 0.128473 -0.059481 0.842953 0.014752 0.180853 -0.423909 0.114263 0.488115 -0.594635 0.518941 0.106132 0.057515 -0.368720 -0.339410 0.252791 0.132076 0.115237 0.471840 0.466959 0.117980 0.704520 -0.382332 0.277800 0.323521 0.153423 -1.378789 -0.222972 0.089894 1.001991 -0.577933 -0.278810 -0.968744 -1.518665
tijd -0.771001 -0.510170 0.438379 3.558206 0.773021 -0.217552 -0.947896 0.151193 0.487777 0.671634 -0.607846 -1.825675 -0.153092 -0.622844 -0.707324 -0.248416 0.867560 0.501615 0.018456 0.041814 0.197679 0.276942 0.280198 1.018787 0.403670 -0.819668 0.268243 -0.024532 -1.091666 -0.796315 -0.415086 0.125872 -0.100699 0.529062 0.202446 0.334486 -0.295760 -0.280026 -0.229698 -0.089477 -1.207220 0.465664 -0.513196 0.871140 0.721593 0.097884 0.129231 0.360815 -0.013819 -1.641896
zij 0.123557 -0.468172 0.327844 3.990196 0.790405 -0.987495 -0.546996 0.302616 0.481380 0.486666 0.035747 -1.200499 0.197928 0.326400 -0.252526 0.163220 1.088678 0.527256 0.236457 0.348984 0.106560 -0.101583 -0.233872 0.977228 0.113832 -0.512249 0.885771 0.693370 -0.474508 0.559178 -0.307739 0.672842 0.136461 0.278501 0.040967 0.088849 -0.221627 0.480122 0.440064 -0.636253 -0.117896 0.387583 -1.242340 1.140873 0.665615 -0.417320 -0.642204 0.674708 0.271606 -2.079166
mee -0.192915 -0.013069 0.605389 3.754598 -0.369930 -0.736013 -0.847156 0.090132 -0.224151 1.243666 -0.618511 -1.084449 0.175004 -0.398550 -0.573620 0.167872 0.501361 0.117836 -0.184154 -0.062102 0.892549 0.325135 0.212904 0.792872 0.317112 -0.135396 1.175654 0.223108 -0.421698 0.466246 0.048640 -0.284854 0.643641 0.064002 -0.374200 0.268233 0.272439 -0.163955 0.165064 0.502310 -1.070147 0.186105 -0.293617 1.157323 0.981046 -0.941933 0.056803 0.320613 0.188087 -2.177055
grote -0.281807 -0.367243 0.056090 5.390409 0.013602 0.193132 -0.320249 0.695734 -0.871472 -0.149401 -0.070551 -0.826764 -0.720545 -0.811181 -0.087208 0.523729 0.404169 -0.326722 -0.210249 -0.142307 0.817325 -0.021067 -0.284483 0.325748 -0.253818 -0.600636 -0.372428 0.316091 -1.780168 -0.200728 -0.105762 -0.387965 -0.690060 0.453892 -0.392870 -0.242322 0.007056 0.365712 -0.355052 -0.041998 0.761809 -0.150853 0.319087 0.571742 0.197371 0.288175 0.827929 0.301692 0.341466 -1.223552
zelf -0.240291 -0.570404 0.247071 3.502551 -0.274462 -0.762370 -0.528558 0.056484 -0.073877 1.295830 -0.886183 -1.099364 -0.636147 -0.006547 -0.501480 -0.191861 0.712664 0.118419 0.076591 0.176343 0.311674 0.218344 0.316947 0.645209 -0.245780 -0.484261 0.751408 0.263730 -0.212186 0.196832 -0.922992 -0.209387 0.318725 0.005109 -0.493733 0.198340 -0.303630 -0.345277 0.186877 0.136075 -0.795434 -0.153672 -0.963425 0.676512 0.641034 -0.553437 -0.601513 0.127688 0.392006 -2.465827
men -0.203459 -1.199397 0.379483 3.634783 0.445713 0.050346 -0.009117 0.516910 0.405111 0.634087 -0.514748 -1.158581 -0.551806 0.388722 0.295106 -0.158380 0.691166 -0.034555 -0.142892 0.616698 0.314838 -0.352614 0.186482 0.583122 -0.148688 -0.543802 0.837679 -0.026276 -0.485215 -0.569321 -0.072378 0.748203 -0.256388 -0.056059 0.448618 -0.370865 0.203104 0.174905 -0.141602 0.169182 -0.144368 -0.008127 -1.232571 0.156838 0.385108 -0.020972 -0.875202 -0.243625 0.311233 -2.611342
me -0.113297 -0.799431 1.140903 3.893546 0.834646 0.140646 -0.644240 -0.524776 -0.069219 0.007836 -0.037704 -0.832015 -0.635072 0.448017 0.116828 -0.529670 1.015761 -0.434048 0.595847 0.536549 0.290382 0.288156 -0.020788 1.008855 1.297279 -0.140194 0.719063 -0.825373 0.083846 0.253722 0.102697 0.629605 0.963933 0.130752 0.664837 1.136220 -0.874034 -0.258317 -0.400512 1.456666 -2.049209 1.469656 -0.827772 0.873135 1.676989 -0.113244 -1.063721 -0.167011 -0.276210 -1.580919
want -0.417045 -0.568022 0.801803 3.934511 0.112627 0.382727 -0.779222 0.179295 0.178621 0.634352 -0.215772 -1.140496 -0.128663 0.000896 -0.680454 0.068096 1.090325 0.430176 -0.156601 0.344083 0.634660 0.207355 0.034145 0.670156 0.098793 -0.660368 0.832458 -0.430353 -0.812972 -0.236514 0.239709 0.093867 -0.074338 -0.163524 0.383663 0.162948 -0.319473 -0.030015 -0.389892 0.628247 -1.507402 0.526021 -1.127809 0.571552 1.653347 -0.293050 -0.376366 0.179394 -0.548815 -1.146531
mij -0.391666 -1.036554 0.900448 3.571792 0.497862 -0.489276 -0.822413 -0.347428 -0.158234 0.402216 -0.305725 -1.073906 -0.923811 0.012059 -0.414514 -0.578189 1.385779 -0.239121 0.168491 0.446864 0.767460 0.575888 -0.311564 0.811213 0.727531 -0.382437 0.349184 -0.175057 -0.233157 0.387100 -0.064331 0.395898 0.195475 -0.108394 0.213844 0.104515 -0.453963 -0.235191 0.095492 0.831004 -1.385300 1.188899 -1.514160 0.846883 1.557843 -0.464676 -0.091559 0.474967 -0.135030 -1.608401
staat -0.237497 -0.312512 0.068927 3.745416 -0.059920 -0.458606 0.038485 0.037106 0.238006 0.812816 -0.269641 -1.026716 -0.468916 0.196410 -0.541491 -0.125362 0.852918 0.187548 -0.295131 0.226683 0.331004 -0.156298 0.098968 -0.263671 -0.664323 -0.843489 0.286446 -0.419782 -0.619727 0.023520 -0.309582 0.102633 -0.427831 -0.351182 0.143375 0.392924 -0.354629 0.387456 -0.742845 0.478989 0.231552 0.452482 -1.392543 0.140069 0.189156 0.056741 1.175270 -0.070032 -0.119356 -2.190144
dag -1.120039 0.386079 -0.193879 3.383643 -0.085242 -0.837331 -0.410189 0.216739 0.921144 0.328324 -0.474837 -2.222226 0.108622 -0.944045 -1.086786 0.211246 -0.118065 0.302821 0.126737 0.729520 0.761721 0.923093 0.247379 1.149409 0.590341 -0.031575 -0.103924 0.165468 -0.473147 -0.610291 0.492939 -0.053364 0.322326 -0.214225 -0.039314 0.629352 -0.267324 0.020241 -0.708970 0.422595 -1.253879 0.357734 -0.824877 1.027801 0.878016 0.482670 0.341262 0.899364 -0.354825 -1.454610
iets -0.771445 -0.637253 0.378453 2.995963 -0.725331 0.357302 -1.071911 -0.548743 -0.416727 1.215494 -0.780009 -1.200687 -0.380374 -0.129826 -0.667720 0.052762 1.257397 0.100402 0.094390 0.350743 1.296328 -0.015914 0.364462 1.063094 0.241988 -0.865015 0.732778 0.130555 -1.337826 -0.280922 0.187482 -0.337013 0.168991 -0.227246 -0.055355 -0.001019 -0.259530 -1.206122 0.372365 0.834349 -0.896775 0.362803 -1.128856 0.504795 1.454609 -0.077637 -0.916100 0.113543 -0.166250 -2.091473
via -0.880748 0.525964 0.237476 3.363374 0.602721 -0.876462 -0.757180 0.174669 -0.011892 1.401525 -1.643743 -0.124505 0.758847 0.517379 -0.494517 0.365681 -0.201829 -0.345120 1.112220 -1.011573 0.321719 0.209648 0.718130 0.049292 -0.437057 -0.337409 -0.394055 -1.216601 1.041420 0.225506 0.399686 0.178409 -0.125819 0.095898 1.032531 0.393756 -0.255805 -0.601834 -1.261968 -0.587588 -0.463542 0.162048 -0.584019 -0.365057 -1.254906 -0.818571 -0.715504 0.135125 0.463503 -3.388753
terug -0.591663 0.317377 0.385428 3.526910 0.769072 0.023456 -1.242285 0.293996 -0.055607 1.664222 -0.921414 -1.524794 -0.022199 -0.513004 -0.532933 -0.430061 0.533610 0.630352 0.024272 -0.078230 0.856690 -0.487843 0.810424 0.792252 0.385827 -0.028248 0.233437 -0.209920 -0.163307 -0.006205 0.257092 0.136281 -0.203903 -0.379831 0.501332 0.625895 -0.086170 -0.316353 -0.468794 -0.248621 -1.010583 0.964845 -0.743398 0.513567 0.390055 -0.336831 0.328240 0.419678 -0.797442 -1.676004
alleen -0.284819 -0.715852 0.873891 3.615242 0.060067 -0.354538 -0.564108 -0.131673 0.512869 0.790964 -0.095395 -1.262133 -0.359698 -0.208317 -0.746101 0.313622 1.037813 0.047201 -0.100377 0.168293 0.739939 0.109194 -0.202162 0.246083 -0.074052 -0.865504 0.531301 -0.033625 -0.418035 -0.123078 -0.083045 0.212217 -0.530629 0.126539 -0.186524 -0.342439 0.010919 -0.050770 -0.162166 -0.180334 -0.520335 0.133405 -1.104867 0.242406 0.621204 -0.334247 -0.508074 0.103791 0.112918 -1.990371
n -0.028775 -0.754983 0.905657 3.899226 0.241821 -0.748572 -0.322386 0.215131 -0.028144 -0.576134 -0.574044 -2.033786 -0.171848 0.072118 -0.772625 0.355575 0.642123 -0.127330 -0.098306 -0.343215 0.598493 -0.096351 -0.765617 0.934147 0.714214 -1.080989 0.730152 -0.037805 0.345172 0.102602 0.145517 -0.651638 0.509921 -0.087557 0.914223 0.292773 -1.032431 -0.809219 -0.601483 1.290502 -0.675112 0.987369 0.335577 -0.379770 0.274913 0.830831 1.012021 -0.590878 0.254533 -1.044424
n -0.677306 -0.439870 0.425770 3.819957 0.255981 -0.646382 -0.052685 0.798790 0.038833 0.543119 -0.476922 -1.035616 -0.679727 -0.659556 -0.694288 0.312910 0.531067 0.482062 -0.092937 1.116169 0.238867 0.200838 -0.353518 0.861025 -0.067668 -0.832586 0.122504 0.382140 -0.123900 -0.206723 -0.027180 -0.471889 -0.055735 -0.395902 0.923727 0.078718 -0.793326 0.016350 -0.122491 0.082226 -0.292637 -0.124212 -0.766737 1.058917 -0.342219 -0.148205 0.542947 -0.552370 0.927018 -1.926749
enkele -0.606565 -0.501706 0.756347 4.667563 0.954167 0.258942 0.244611 0.814922 -0.495357 0.943779 -0.444995 -0.836336 0.039493 -0.524271 -0.755745 0.179419 -0.060966 -0.227408 0.176902 0.587573 0.570153 0.525351 -0.059087 0.833940 0.598928 -0.446211 -0.296239 1.271724 0.155173 -0.636396 -0.461278 0.078894 0.191872 0.453990 0.267133 0.159103 -0.214711 -0.549913 -0.001863 -0.883798 -0.892809 -0.110700 -0.176153 0.736120 -0.445542 -0.866670 0.259298 0.134874 0.886158 -1.056134
tijdens -1.069369 0.559909 -0.503835 3.483819 0.909246 -0.157479 -0.340839 0.559665 1.356933 0.946077 -0.053576 -1.849366 1.042875 -1.345690 -0.664554 -0.447464 0.344676 -0.917349 0.263752 0.854273 -0.041157 0.870993 0.760646 0.754107 0.591528 -0.312261 0.913434 0.751356 -0.508093 -0.219582 0.275421 0.002520 0.551005 -0.297681 -0.672143 0.815955 0.453819 -0.514548 -0.678706 -0.435242 -0.506126 -0.101765 -0.358003 0.947877 -0.126765 0.724322 -0.026992 1.061043 0.434184 -1.888522
af -0.298230 -0.190182 0.827530 3.883083 0.708574 0.126910 -0.925860 0.395741 0.492207 0.930192 -0.824150 -1.521767 0.346184 -0.449637 0.079659 -0.301013 0.744587 0.099999 -0.217505 -0.015978 0.939259 -0.374236 0.559653 0.749109 0.481924 -0.304869 0.489022 0.174353 -0.098920 -0.147218 0.039477 0.136533 -0.009936 -0.312074 0.242555 0.310623 0.433359 0.024956 -0.133246 0.581894 -0.496390 0.363618 -1.126456 0.201769 0.206743 -0.342149 -0.201819 0.298177 0.515393 -1.554596
komt -0.733411 -0.485343 0.198704 3.625830 -0.144919 -0.327317 -0.507186 -0.039832 0.324934 0.745714 -0.622687 -1.056585 -0.693427 -0.279351 -0.080096 -0.359733 0.835451 0.232489 -0.166110 0.320212 0.414605 -0.115826 0.628408 0.363971 -0.085724 0.056568 0.682608 -0.392631 -0.184635 -0.458402 0.360629 -0.055197 -0.465271 -0.651483 0.050183 -0.196985 -0.221180 -0.444260 -0.759082 0.391416 -0.222121 0.634420 -0.957486 0.063440 0.526880 0.154059 0.132121 0.259646 0.252527 -2.032137
waren -0.662996 -0.136902 0.449210 4.271624 1.179251 0.405052 -0.701815 0.514586 -0.499037 0.546927 0.523411 -0.770157 0.573323 -0.369599 -1.623763 0.565372 0.181298 0.855458 0.604818 1.099448 0.051167 -0.260266 -0.941469 1.183047 0.393292 -1.234704 -0.386804 1.062417 -1.027907 0.239620 -0.699925 0.063366 0.432088 0.154876 -0.461194 0.388774 -0.000359 0.090169 0.190179 -1.455206 -1.243121 0.147734 -0.831277 -0.055706 0.550500 -0.414277 -0.031908 0.593319 -0.888472 -0.215810
omdat -0.490151 -1.188924 0.738245 3.426597 0.037150 -0.054940 -0.455749 -0.015340 0.467324 0.685156 -0.079318 -1.269036 -0.205004 0.038921 -0.830941 -0.176014 0.966082 0.300505 0.109782 0.141493 0.398964 -0.518065 -0.128517 0.671766 0.213192 -0.828356 0.503587 -0.009678 -0.765734 0.004633 -0.109238 -0.359253 -0.359538 -0.285976 -0.287333 -0.238362 -0.043821 -0.276455 0.025944 -0.248329 -0.763560 0.318933 -1.111404 0.132766 0.906296 -0.178982 -0.746498 0.302525 -0.279280 -2.122959
eigen 0.467455 0.328615 0.695489 3.542072 -0.052531 -1.175964 -0.457902 -0.007656 -0.056170 1.168506 -0.439600 -1.135414 -0.289703 0.122283 -0.957703 -0.345667 1.564657 0.331103 -0.364170 -0.568762 0.742312 0.541958 -0.041465 -0.202002 -0.213642 -0.817947 0.516462 -0.245252 -0.771028 0.523341 -0.880089 0.470794 0.538863 0.311634 0.229666 0.307464 -0.344452 -0.004029 0.133559 -0.544615 0.588692 0.087790 0.111279 0.841632 -0.190703 -0.214845 0.223305 -0.626214 0.090449 -2.582083
samen -0.211418 0.730901 0.098008 4.193422 0.167212 -1.477592 -0.606868 0.042119 -0.549324 0.943417 0.121155 -0.808959 0.208781 -0.011107 -0.438706 0.197838 0.165033 0.815875 0.000356 0.100146 0.201748 0.500116 0.291018 0.742215 0.048016 0.713138 1.080958 0.595466 -0.070204 0.152412 -0.670603 -0.470367 0.578107 0.474800 -0.494492 0.530656 0.158996 -0.634077 -0.394409 0.131842 -0.523883 -0.203519 -0.457824 1.284514 -0.271416 -0.350980 0.131453 0.398087 0.506002 -1.758157
steeds -0.801882 -0.383272 0.400742 3.576113 0.428147 -0.038907 -0.479974 -0.499160 0.682884 0.786319 -0.323556 -0.824850 -0.417198 -0.362709 -1.173720 0.026744 0.449339 0.193323 0.150706 -0.002966 0.530733 -0.423152 0.091774 0.004932 -0.410782 -0.630637 0.181115 0.405771 -0.947725 -0.151513 0.002542 0.149375 -0.247516 0.197686 -0.308724 0.014202 0.445496 0.223086 -0.183601 -0.040767 -0.193446 0.924817 -0.824210 0.424568 0.381928 -0.427062 -0.585092 0.356343 0.388961 -2.561790
zonder -0.037168 -0.451456 1.533454 3.632575 0.251109 0.135227 -0.274235 0.655620 1.196972 0.533964 -0.777269 -1.736018 0.114089 -0.056006 -0.394413 0.442339 1.049634 -0.031144 0.135541 -0.098808 0.953594 0.588999 -0.079572 0.082194 0.372833 -0.610590 0.499679 0.000491 -0.315894 0.457394 0.238800 -0.287843 -0.445539 -0.233425 0.600625 -0.956340 -0.269446 0.290526 0.408181 -0.091820 -0.275452 0.100941 -0.641149 0.295093 0.195975 -0.022834 -0.820694 -0.058159 -0.056188 -2.079755
alles -0.541600 -0.239940 0.294689 3.700313 0.451203 -0.095483 -0.911944 -0.393301 0.291056 0.870364 -0.759769 -0.808249 -0.405559 -0.045498 -0.348552 0.123746 0.875114 0.608206 -0.184465 0.119921 1.028632 0.720335 0.086361 0.585784 -0.327557 -0.464638 0.655298 -0.460470 -0.854393 0.214153 -0.607094 0.359043 0.390637 -0.055743 0.102001 0.136577 0.205229 0.523409 0.177438 0.863574 -1.069637 0.384636 -0.602438 0.025874 1.484570 -0.278564 0.115821 -0.033066 -0.236416 -2.030384
altijd -0.741399 -0.657863 0.697337 3.368807 -0.138192 -0.048032 -0.576939 -0.279703 0.678247 0.550922 -0.235021 -1.064310 -0.592749 -0.349962 -1.247135 0.074149 0.900066 0.188118 0.038638 0.307612 0.900052 0.458480 -0.464697 0.337289 -0.087720 -0.835874 0.231792 0.099005 -0.468016 0.259736 0.023959 0.066198 -0.135343 -0.036590 -0.201826 -0.122891 -0.064988 0.124683 -0.051312 0.764216 -0.959564 0.575466 -1.170025 0.195396 1.002849 -0.532913 -0.311313 0.160894 -0.025552 -2.169077
plaats -0.968763 0.375822 -0.212640 3.757827 0.143852 0.006198 -0.023770 0.753816 0.175249 0.935552 -0.873952 -1.702885 0.651584 -0.816126 -0.284496 0.174547 0.893345 0.088890 -0.500035 0.854239 -0.095921 0.332237 -0.085360 0.603206 -0.494735 -0.667076 0.303577 0.314797 -0.650648 -0.264192 0.370830 0.094987 -0.204407 -0.068897 0.421140 0.640577 0.169470 -0.044142 -0.704451 -0.275443 0.621044 0.048012 -1.088659 0.484159 0.155284 -0.100229 0.788386 0.237975 0.261832 -1.392143
hem 0.282822 -0.574829 0.921321 3.759524 0.880705 -0.816457 -0.828234 0.162107 0.089658 0.508637 -0.655126 -1.295680 -0.614086 -0.014342 0.484658 -0.391195 1.828870 -0.022362 0.259035 0.489516 0.420460 -0.299429 0.010356 1.008522 0.854800 -0.250780 0.339236 0.227342 0.163594 1.022725 -0.583962 0.522986 0.100239 -0.527143 0.008292 0.598802 -0.508772 0.210404 0.442755 -0.049913 -0.978293 0.717085 -1.348382 0.967318 1.397938 -0.465981 -0.536901 0.464162 0.335949 -1.641105
zien -0.115456 -0.716147 -0.301282 3.897585 -0.024343 0.033162 -0.718275 -0.322513 -0.213299 1.035672 0.107674 -1.450245 -1.110239 -0.322429 -0.458931 0.373144 0.602538 0.004813 0.953297 -0.062148 1.134178 -0.110566 0.127072 0.500229 0.182246 -0.885395 0.792828 0.328734 -0.765187 -0.255674 0.625413 0.708928 0.161710 0.040377 0.235380 0.605569 -0.448700 -0.494026 -0.261773 0.325268 -0.291696 -0.167023 -0.833802 0.089776 0.812857 -0.861896 0.093121 0.102995 -0.149327 -1.276624
verder -0.403705 -0.124483 0.391353 3.655204 0.841744 -0.278001 -1.203879 -0.189682 0.004733 1.400726 -0.529522 -0.921585 0.073951 0.227868 -0.245749 -0.398661 0.266102 0.477392 -0.040099 -0.469725 0.683396 -0.329505 0.599059 0.711905 0.013248 0.157546 0.953646 0.110571 -0.834876 -0.222553 -0.271593 0.355441 -0.169094 1.000791 0.465480 0.491369 0.293870 -0.360535 -0.481329 0.396807 -0.527372 0.626039 -0.895628 0.205523 -0.399194 -0.092666 -0.056253 0.352768 0.373394 -2.107248
binnen -0.295353 -0.368633 0.043530 3.312729 0.546448 -0.343973 -0.185018 0.348668 0.303347 0.326222 -0.211296 -0.839672 0.406234 0.041737 -0.434370 -0.249123 0.245979 1.042110 -0.205396 0.074455 -0.241799 0.261719 -0.043734 0.590516 -0.469169 -0.532452 0.234819 -0.353871 -0.884404 0.218012 0.034624 0.416192 -0.069560 0.297794 1.044307 0.318485 0.308364 0.159029 -0.311438 -0.072178 0.123668 0.498827 -0.722953 0.739924 -0.340838 -0.314535 0.437893 0.564718 0.627864 -2.974971
leven -0.557807 -0.093710 -0.082317 3.261999 0.130660 -1.247080 -0.772039 -0.316434 0.705052 0.542828 -0.154446 -1.637627 -1.549928 0.115360 -0.391943 -0.501205 1.590924 0.878422 -0.144621 -0.234773 -0.148857 0.511831 -0.284391 1.408338 0.717172 -0.825271 1.283874 0.681614 -1.100131 -0.427770 0.019377 0.434479 -0.515308 1.084358 -0.536206 0.124150 -0.483466 0.256172 -0.124134 -0.366376 -0.118713 0.156738 -0.168580 0.383975 0.983546 0.372043 -0.113326 -0.072370 -0.566245 -2.095420
even -0.848092 -0.094528 0.792962 3.827255 0.464603 0.917819 -0.933322 0.018649 0.495153 0.656490 -0.224639 -0.653064 0.008852 -0.189517 0.055819 -0.767226 1.144529 0.231547 0.110142 0.635735 1.067663 0.361708 0.275504 1.066821 0.250490 -0.289923 0.459384 -0.442330 -0.386591 -0.069691 -0.198240 0.667210 0.639458 0.079704 0.722281 1.245829 -0.346036 -0.582753 -0.667355 1.206319 -1.360506 0.424851 -1.052731 0.204281 0.551516 -0.713481 -0.636311 -0.431481 0.062473 -1.094200
and -0.578240 0.764074 0.183478 3.144930 -0.054969 0.702344 2.053218 -0.352883 -0.449843 -1.089171 0.601314 0.304111 0.835399 1.748708 -0.022863 0.420467 0.460805 -0.124287 0.663853 1.733236 -1.479137 0.160078 0.696322 -1.109214 1.425627 0.175012 0.686308 -2.834430 -0.323485 0.432800 0.517739 -0.263694 0.019761 0.577627 -0.670175 2.457136 0.463825 -0.707968 -1.073675 0.805649 -0.653639 -1.903600 -0.525092 0.353270 -0.178498 0.716450 -1.679906 -1.375457 -1.569083 -0.866219
verschillende -0.287410 -0.541554 0.033277 4.097918 1.130907 -0.612737 0.655314 0.165212 -1.257028 0.648330 0.121094 -0.382976 -0.069646 -0.130253 -1.391132 0.601213 -0.767160 0.455142 0.763548 0.542323 0.069675 1.168383 -0.193768 0.229253 -0.116218 -0.512576 0.424647 1.103823 -0.511051 -0.874452 -0.371847 0.967151 0.806635 0.786511 -0.037115 0.170970 1.162275 0.124520 0.806518 -0.980316 0.035140 -1.003021 0.058767 -0.264278 -1.170510 -0.856091 -0.329819 -0.036440 0.681786 -2.840306
zeer -1.819511 -0.643043 0.543986 4.090252 0.216627 0.120930 -0.622776 -0.827357 0.501447 0.708212 0.858065 -1.466036 0.493788 -0.224597 -1.121825 0.131770 0.735005 -0.147239 -0.995074 0.694437 0.478514 0.126536 -1.341089 0.174853 -0.193964 -0.748506 -0.829187 0.481586 -0.300461 0.073797 -0.437848 0.695671 -0.206791 0.435427 -1.096742 0.436434 -0.165975 0.192075 0.038047 0.553074 -0.390824 0.172852 -0.440557 -1.204520 -0.241090 0.327545 -0.457000 0.098714 0.691981 -1.545351
laten 1.008736 0.071386 0.248183 3.858843 0.641943 -0.086150 -0.833544 0.321653 0.581607 0.998871 -0.350303 -2.213273 -0.354256 -0.456216 -0.108922 0.135558 0.851846 0.273117 0.456460 -0.866924 1.367674 0.380462 0.772444 0.469942 -0.552785 -0.538254 1.414321 0.517673 0.252687 0.008931 0.076590 0.640659 0.419173 0.098376 0.715590 0.415148 0.007272 -0.219889 0.097151 0.577947 0.033545 -0.726794 -0.890730 0.797405 0.295378 -1.058600 -1.294311 -0.192504 0.495576 -1.399911
kinderen -0.540924 0.181731 1.079494 3.645450 -1.016203 -1.313079 -0.789030 0.152584 0.403903 0.927511 0.255724 -0.918499 0.362990 -0.339901 -0.501133 0.428723 0.123548 0.465880 0.259683 0.571929 -0.405667 0.688931 -0.047884 1.442379 0.483130 -0.154874 1.117905 1.249539 -0.510294 -0.380621 0.588124 0.615145 0.404701 0.477536 -1.311161 -0.080546 -1.305246 -0.343138 -0.022810 -0.520905 0.872746 0.265663 0.023948 0.724246 0.630672 -0.743220 -1.101776 0.672951 -1.234046 -2.431116
toe -0.454113 -0.215133 0.791369 3.901348 0.484895 -0.286627 -0.472626 0.070545 0.375396 0.768639 -0.380424 -0.883039 0.258752 0.396338 -0.004882 -0.398919 0.772589 0.031149 0.061139 0.020452 0.913592 0.030619 -0.076418 0.730397 0.063784 0.148832 0.284319 0.208438 -0.272953 -0.533631 -0.166583 0.297193 0.409926 -0.380787 0.353070 -0.189588 0.405078 0.082700 -0.361095 0.501936 -0.526857 0.618705 -0.866522 0.703650 0.497826 0.031283 -0.694512 0.141066 1.020797 -1.774368
zeker -0.607749 -0.861889 0.411246 3.554697 -0.116039 -0.044092 -0.484139 -0.107529 0.170859 1.154844 -0.143043 -1.058241 -0.121234 -0.414407 -1.305238 -0.022048 0.822884 -0.154805 -0.392282 0.208605 0.816364 0.503461 -0.433209 0.254560 -0.230759 -0.970383 0.487692 0.189655 -0.455691 -0.253737 0.626668 0.175136 -0.204728 0.111701 0.159546 0.035272 -0.129118 -0.361865 -0.401940 0.669639 -1.052850 0.207990 -1.094310 0.603128 0.980966 -0.235035 -0.417596 0.234176 -0.032723 -1.404135
toen -0.512946 -0.597380 0.365061 3.916796 0.881386 0.137130 -1.263836 0.556342 -0.486201 0.252723 0.225889 -0.912886 0.387460 -0.486984 0.187571 -0.245092 1.308608 0.337923 0.390897 0.701938 -0.090198 -1.078751 0.334887 1.623186 0.881108 -0.454439 -0.030248 -0.366419 -0.806341 0.461890 -1.264029 -0.069342 0.432716 -0.780359 -0.196544 0.156706 -0.428301 -0.959611 -0.206312 -0.830007 -1.488710 1.046949 -0.981740 0.731744 0.758462 -0.003164 0.627452 0.603274 -0.313393 -0.467759
echt -0.773373 -0.966128 0.781957 3.368023 -0.363667 0.110465 -0.980468 -0.593334 0.192939 0.816548 0.518820 -1.198288 -0.443333 -0.434962 -0.972677 0.043404 1.099433 0.096810 -0.040040 0.321425 0.829735 0.561242 -0.884094 0.782974 -0.057438 -1.076955 0.749747 -0.176500 -1.140179 0.235850 0.436089 0.307406 -0.286283 0.050979 -0.196824 -0.121573 -0.349095 -0.380457 -0.155353 1.311671 -1.926057 0.090862 -0.597525 -0.140767 1.390558 -0.017898 0.189588 -0.237855 -0.227343 -1.390553
werden -0.599327 0.126912 0.238546 4.073767 1.138119 0.032559 0.002866 0.660659 -0.396687 1.201111 -0.692153 -0.438396 0.844245 0.247750 -0.989057 1.011100 -0.791230 0.393705 1.443220 1.021836 -0.567673 -1.283281 -0.660992 1.123163 0.217309 -0.651487 -0.646985 1.950973 -1.320616 0.682664 -1.047738 0.096788 0.951658 -0.010355 -0.371015 0.523891 0.562399 0.942779 0.080446 -2.651496 -1.261437 -0.009323 0.131496 -0.686152 0.183412 0.006519 0.480723 0.395438 -0.750189 -2.179980
laatste -1.264622 -0.341498 0.090694 3.547566 0.976615 0.021412 -0.126265 0.502157 0.414806 1.330148 -0.891517 -1.376658 0.391156 -0.370837 -0.763539 -0.151533 0.425569 -0.143390 -0.008305 0.616539 0.210133 -0.107672 0.431129 0.678030 0.486621 -0.802676 0.173597 0.316393 -0.538629 -0.883227 0.044218 -0.242833 -0.122764 -0.657777 0.685140 0.314508 -0.322836 -0.451558 -0.589851 -0.196784 -1.079708 0.616882 -0.795092 0.871646 0.240472 0.264508 0.876059 -0.038897 0.640499 -0.766203
werken -0.562239 -0.292202 0.188304 2.984768 0.295590 -0.761885 -1.114108 -0.068770 -0.020247 0.299598 -0.088677 -1.656475 0.320028 0.204362 -0.907509 0.593112 0.051986 0.369274 0.312158 -0.228372 -0.306300 0.476981 0.130275 -0.214767 -0.418830 -0.685988 1.118668 0.602654 -0.859328 -0.567202 -0.645372 -0.324769 0.227374 0.996431 0.012316 0.464908 -0.017301 -0.256615 0.108712 -0.091847 -0.641577 -0.163770 -0.803034 0.584944 -0.172331 -0.477677 -0.829853 0.081108 0.340275 -2.797244
per -0.834142 -0.057907 0.478385 2.948697 -0.339381 -1.413470 0.391508 1.083496 0.927742 0.302070 -1.332127 -1.520908 0.496952 -0.602620 -1.015221 1.073149 -1.748076 0.298144 0.314674 1.193584 1.110674 -0.366342 0.347330 1.294130 0.028346 -0.773907 -0.709484 -0.203440 0.511510 -1.060410 0.350423 -0.470243 0.400232 -0.239869 0.920185 0.483959 -0.644673 0.773289 0.145064 0.702275 -0.097361 -0.281778 -0.819650 1.288428 -0.511044 0.451773 -0.193078 -0.512793 0.419251 -2.825100
wanneer -0.593577 -0.993730 0.235142 3.132488 -0.015136 -0.570436 -0.205104 0.291844 1.297987 0.720382 -1.020908 -1.449122 -0.665330 -0.332657 -0.151751 -0.390811 0.876907 0.198215 0.467103 0.492189 0.353680 -0.247571 0.452722 0.286128 -0.335886 -0.143515 0.641640 -0.052232 0.200531 -0.185155 0.212296 -0.172808 0.238068 -0.430406 0.170614 -0.146195 -0.310926 0.204985 -0.146404 -0.081464 -0.048231 0.492537 -1.262798 0.203340 0.788838 -0.298269 -0.844804 0.442155 0.216563 -2.437987
zullen 0.182575 -0.373886 -0.274743 3.658994 0.888659 -0.241860 -0.051842 0.402834 0.172857 0.860837 -0.320040 -1.253541 0.251824 0.232170 -1.578431 0.355338 -0.055529 0.563025 1.136267 -0.301554 0.547420 -0.164863 0.258342 0.368326 -0.762550 -0.648648 1.006485 1.628494 -0.330732 -0.371625 0.661180 0.224216 0.194689 0.665641 0.119082 0.452354 0.076403 0.356741 0.123547 -0.599388 -0.477976 -0.179399 -0.581855 0.602541 0.697112 -0.572962 -0.818302 0.596328 0.002712 -1.729254
wie -0.455590 -0.872721 0.268774 3.316424 -0.498992 -1.221903 -0.014617 -0.043824 0.314910 0.407559 -0.862290 -0.517045 -0.782832 -0.136525 -0.157943 -0.202819 1.023290 0.021529 -0.120346 0.345190 -0.099350 0.412242 -0.014524 0.752913 -0.085231 -0.521853 1.105207 0.092522 0.176105 0.105459 0.191576 -0.004119 -0.115141 0.040911 -0.231219 0.141498 -0.436473 0.659030 -0.007640 0.306128 -0.845329 0.515035 -1.488555 0.665517 1.361020 -0.249405 0.009283 0.206723 0.149125 -2.389459
vooral -0.620799 -0.461112 0.642378 3.803392 0.215394 -0.217922 -0.709241 -0.502200 -0.071150 0.341762 0.721713 -0.883191 0.004109 -0.146916 -0.918534 0.118606 0.944151 -0.093995 -0.364541 0.212594 0.596060 0.169753 -0.439786 0.305394 0.367528 -0.809428 0.409584 0.531897 -0.948688 -0.701827 -0.065556 0.447671 -0.519636 0.229940 -1.083561 0.054112 0.491461 -0.285735 -0.544225 -0.323147 -0.418852 0.363128 -0.615812 0.065364 0.145593 -0.071386 -0.763196 0.310078 0.387590 -1.761022
&amp; -0.091840 0.704706 0.536721 4.400564 0.138727 -1.441402 0.245676 -0.697279 -0.860790 -0.702105 0.089057 -0.965572 1.307378 0.864850 -0.677949 0.382392 0.536574 -0.250630 -0.382148 0.473160 -0.134562 0.380213 0.086868 -1.542508 -0.040920 0.540808 0.986326 -1.034382 0.472575 -0.127813 -0.523125 -0.015357 -0.145313 0.549411 -1.136141 1.161315 1.279152 -0.870198 -1.116217 0.631225 -0.293013 -0.683847 -0.988714 0.279273 -0.173710 0.658609 0.073815 0.023959 -1.004954 -0.756361
zelfs -0.343495 -0.981266 0.835900 3.745455 0.322965 0.066116 -0.565870 0.423489 0.420094 0.441318 0.113970 -1.153782 -0.123590 -0.554293 -0.531905 0.324525 1.104121 0.010578 0.450553 0.300635 0.672463 -0.221203 -0.059747 0.731690 0.117270 -0.963223 0.301934 0.369313 -0.550646 -0.086476 -0.037430 0.085679 -0.156798 -0.346597 -0.309362 -0.414028 0.140043 -0.257946 -0.194034 -0.416471 -0.741539 0.039493 -0.858692 0.165914 0.348236 -0.151972 -0.548509 0.028740 -0.132142 -1.595495
elke -0.947925 0.028783 0.203345 3.315238 -0.543805 -0.458115 0.743553 0.471945 1.072904 0.610235 -1.089931 -1.643785 -0.512664 -0.663320 -0.551484 0.279083 0.626505 -0.060435 -0.687207 0.859802 -0.283921 0.450263 0.072020 0.474959 -0.286704 -0.183171 -0.011242 -0.389517 -0.087908 -0.238671 -0.217825 -0.328581 0.361951 -0.171204 0.477319 -0.022579 -0.750380 0.319894 -0.464622 0.585909 0.440321 0.805392 -1.003520 0.918080 0.482159 -0.073913 0.312186 0.077821 1.566326 -2.557390
aantal -0.705726 -1.256617 0.831475 4.196332 0.967209 -0.612545 0.717630 0.634737 -0.285688 0.656292 -0.212926 -0.761129 0.543561 -0.072974 -1.506371 0.001724 -1.139075 -0.133281 0.803415 0.652533 0.321460 -0.054251 -0.103004 0.631282 0.147453 -1.111309 0.086323 1.606642 -0.015098 -1.804807 -0.086857 0.328771 0.309965 0.753887 0.070317 0.123023 -0.065709 0.068285 0.629436 -1.161737 0.156871 -0.059550 0.121727 0.892134 -0.822854 -0.859304 -0.150677 -0.244347 0.512619 -1.686540
% -0.964274 -1.156279 0.744998 3.463565 -0.187937 -0.988393 0.243700 0.132838 0.566708 -0.094902 0.079648 -1.246094 1.326948 0.439160 -1.069366 1.143616 -0.414883 0.337413 -0.191463 0.024078 0.902414 -2.151686 -0.244976 0.492069 -0.415232 -1.110195 -0.576412 -0.235059 0.446326 -1.743471 0.819692 -0.530729 -0.449454 -0.239185 0.286492 -0.224103 0.185658 0.993477 -0.636324 0.379338 0.091301 -0.268453 -0.711623 1.007931 -0.376063 1.608641 -1.668745 -0.817088 -0.555121 -1.828485
staan 0.120583 -0.022318 0.586662 3.910037 0.338514 0.148550 -0.057771 0.047228 -0.095731 0.506124 -0.352737 -1.005230 -0.332048 -0.533770 -0.855100 0.195654 0.170785 0.537953 0.793026 0.213305 0.689859 0.075447 0.046796 -0.076487 -0.258160 -0.719620 0.267618 0.652536 -0.783699 -0.253853 0.002626 0.537539 -0.124885 0.352994 0.208383 0.685475 0.085248 0.196816 -0.265860 0.310201 0.213141 0.216655 -1.066823 0.196257 0.465387 -1.216207 0.931330 0.148904 -0.461286 -1.643458
werk -0.649394 -0.332175 0.672374 3.147267 0.217964 -1.120760 -1.153608 -0.799688 0.329613 0.144149 -0.327325 -1.190542 0.206817 0.072063 -0.044271 -0.026743 0.663931 0.043961 -0.048304 0.020588 -0.046421 0.641486 -0.000970 0.434554 0.348992 -1.011943 0.886026 0.506613 -1.037403 -0.287426 -1.021708 -0.371836 -0.186132 0.615524 -0.138998 0.880842 -0.154708 -0.545000 0.013832 0.076305 -0.714743 0.107917 -0.933969 1.020128 0.070206 0.064647 -0.404324 -0.024630 0.525376 -2.320001
geven -0.361895 -0.286484 0.960600 3.398189 0.090661 -0.867476 0.069911 -0.220790 0.049883 0.894255 -0.535181 -1.486678 0.557392 0.381246 -0.604822 0.293882 0.988524 -0.385010 0.314872 -0.182063 0.695761 0.929648 -0.331413 0.230243 -0.061690 -0.088151 0.122756 1.008511 -0.317005 -0.022145 0.684480 0.418812 -0.312257 -0.090891 0.281292 0.137445 -0.628229 -0.474629 -0.008454 -0.051725 -0.095755 0.103035 -0.398821 0.828226 0.510113 -0.290599 -1.056002 0.382059 0.524715 -2.220809
mogelijk -1.033481 -0.631571 0.385612 3.255587 0.373088 -0.288669 -0.480161 0.339527 0.926058 0.973341 -0.789707 -1.492805 0.517170 0.257638 -1.049816 0.048006 0.108346 0.244041 0.036333 -0.175362 0.551172 0.411759 -0.022256 0.241989 -0.734132 -0.655287 0.375972 0.351354 -0.201103 0.045350 0.449044 0.364469 -0.477648 0.331084 0.307340 -0.166938 -0.003113 0.063060 0.355381 0.119337 0.031999 -0.085917 -0.343718 -0.231926 -0.161422 -0.616128 -1.316338 -0.094833 0.265810 -2.653750
laat 0.145134 -0.266452 0.478400 3.911718 0.549737 -0.183613 -0.398869 -0.299071 0.568872 0.433849 -0.352167 -1.653981 -0.788156 -0.373536 0.406673 -0.116204 1.060231 0.077906 -0.113984 -0.189271 1.015846 0.184696 0.445230 0.510134 -0.277647 0.206290 0.660085 -0.060344 0.520288 -0.298410 -0.482384 0.406010 0.168106 -0.168139 0.212386 0.218847 0.285817 -0.073600 -0.183266 1.102073 -0.260833 0.064183 -1.070556 0.682956 0.628547 -0.408429 -0.615647 -0.224293 0.734934 -1.384807
weg -0.369638 -0.058044 1.037558 3.855486 0.654348 0.289665 -1.237486 0.820571 -0.205547 0.813897 -1.084628 -1.141525 -0.798784 -0.313414 -0.078108 -0.436529 0.546163 0.494793 -0.172107 -0.375059 0.787940 -0.062716 0.430290 0.896403 0.656420 -0.198792 0.370520 -0.050909 -0.803988 0.209774 0.588701 0.209860 -0.808826 0.124973 0.771886 0.368550 -0.326657 0.209572 -0.457833 -0.067619 -0.619703 1.315127 -0.907029 -0.309244 0.137977 -0.582078 -0.114505 0.327188 -0.120664 -1.429839
goede -1.162103 -0.148247 1.032441 3.315951 -0.214572 -0.274196 -0.082762 -0.119706 -0.108004 1.231557 -0.239397 -1.756183 0.610281 0.053320 -1.662579 0.600306 1.626111 0.315293 -1.717123 -0.225039 0.470643 0.912494 -0.684213 -0.708739 0.203344 -0.279992 -0.652995 -0.220770 -0.681443 -0.183260 0.111014 -0.065682 -0.323494 0.478823 -0.036487 0.780106 -0.227263 -0.116672 -0.835170 -0.005480 -0.519401 0.175667 -0.608047 -0.053113 0.259809 -0.462124 -0.688132 1.014126 0.432207 -1.548283
keer -0.784395 -0.384682 0.476326 3.299804 0.252374 -0.233635 -0.628862 0.285231 0.202693 1.472252 -0.875684 -1.397559 0.303148 -1.069010 -0.215100 0.385218 0.496760 0.051074 0.294272 0.669898 0.587156 -0.539057 0.082326 1.451713 0.244430 -0.378833 0.432084 -0.042686 -0.028064 -0.267327 0.289788 -0.266763 0.465809 -0.391474 0.428724 0.351536 0.379700 -0.470884 -0.480558 0.370702 -1.502532 0.114103 -1.004751 0.538306 0.815746 -0.456722 0.587763 0.240806 0.012281 -1.401384
vandaag -0.974873 -0.556490 -0.235413 3.633572 0.153755 -0.444980 -0.164680 -0.065508 0.037923 0.696987 0.159557 -1.216015 0.410951 -0.026890 -1.028232 -0.166946 0.470675 0.383061 -0.016603 -0.174990 0.143278 0.236608 0.266926 0.946302 -0.229004 -0.466354 0.601731 0.069940 -0.674195 -0.287186 0.077714 -0.208949 -0.091426 -0.061472 -0.105774 0.230603 -0.013612 -0.538087 -0.667753 0.167665 -1.287142 0.650005 -1.099793 0.735218 0.936219 -0.127382 0.877367 0.589074 -0.125178 -1.112742
iedereen -0.748493 0.032881 0.655059 3.240922 -0.187000 -0.421585 -0.555548 -0.365762 0.264894 0.769055 -0.367278 -0.740873 0.272939 -0.204819 -0.903734 -0.106795 1.014908 0.078142 0.011125 0.461502 0.453499 0.656210 -0.351231 0.763278 -0.538638 -0.077670 0.660902 -0.167817 -0.399808 0.279889 0.632465 0.513576 0.134054 0.474024 -0.379750 -0.060765 -0.474039 0.328827 -0.110956 0.710394 -1.027802 1.101233 -0.900569 0.651750 1.607110 -0.533325 0.316705 0.597628 0.211574 -2.253689
net -0.753672 -0.629613 0.730391 3.791070 0.182580 0.070089 -0.679874 0.006345 -0.233891 0.761335 -0.298731 -1.037924 -0.176052 -0.581947 -0.276573 0.079620 0.953424 0.549405 0.169821 0.384042 0.302854 -0.505444 0.178145 0.830715 0.188810 -0.417198 0.312393 -0.452604 -0.557523 -0.118885 0.095689 -0.022685 -0.061185 -0.130875 0.347330 0.295623 -0.297690 -0.630967 -0.407599 0.122896 -0.904324 0.483512 -0.895083 -0.001152 0.250767 -0.073124 0.248482 -0.099074 -0.130712 -1.375390
uur -1.291779 0.688536 0.077006 3.031174 0.726288 0.021526 -0.740220 1.013715 1.170061 0.423014 -0.694849 -2.191733 0.664064 -1.207996 -0.476534 0.478531 -0.688597 -0.343953 0.616519 1.425872 0.676642 0.550158 0.980995 1.634009 -0.125104 0.187105 0.041579 -0.398048 -0.126147 -0.485776 -0.063515 -0.285274 0.322200 0.492361 0.366009 0.146421 -0.330236 -0.194131 -0.206760 0.459654 -0.722205 0.820458 -1.552071 1.082607 -0.096860 0.606011 0.487449 0.678650 -0.576229 -1.595256
enkel -0.285368 -0.714886 0.870613 3.344145 0.085145 -0.282321 -0.187788 0.333420 0.716117 0.754099 -0.463370 -0.999867 0.081678 -0.037672 -0.966703 0.398182 0.422370 -0.015432 0.196222 0.647445 0.744327 0.152207 -0.262924 -0.013694 -0.481700 -0.916844 0.265596 0.283882 -0.241155 -0.016576 -0.056260 -0.079686 -0.393836 -0.286021 0.448426 -0.569040 -0.158743 -0.060321 -0.016214 -0.299222 -0.268696 0.028282 -1.248956 0.395584 -0.075000 -0.212250 -0.482049 -0.105930 0.237775 -2.196753
rond -0.671467 0.495466 0.284997 3.756172 0.017473 -0.155906 -0.613597 0.390859 0.198832 0.317351 -0.348098 -1.445279 0.379208 0.326041 -0.127849 -0.548673 -0.269605 -0.019983 0.387371 -0.555218 0.060288 0.035532 0.549511 1.102265 0.660191 0.130690 0.842688 0.504177 -1.728209 -0.125463 -0.040753 0.269570 -0.427793 0.645822 -0.464592 0.360513 0.293951 -0.915496 -0.595802 0.233947 0.448492 0.248570 -0.421560 -0.196847 -0.616520 0.092573 1.026184 0.265300 -0.059823 -2.076216
to -0.635153 1.104628 0.177720 2.857547 0.482308 0.832607 1.489117 0.720265 -0.584321 -0.029601 0.659595 0.239256 0.500376 2.269488 -0.443159 0.380386 0.282964 -0.441079 0.743032 0.885120 -1.133780 0.010225 1.260624 -0.348180 0.924233 -0.210693 1.049137 -3.004146 -0.320826 0.174605 1.104679 0.275225 -0.233833 0.124580 0.627497 2.515373 -1.316978 0.291985 -1.004451 1.663519 -1.339498 -1.167628 -0.628668 1.142491 0.051338 0.518688 -2.004012 -1.768304 -0.683942 -0.664382
z -0.434187 -0.798811 0.547582 3.854568 -0.165467 -0.646989 -0.930168 0.210846 0.078891 0.251966 -0.006220 -1.424579 -0.221393 -0.200022 -0.444069 0.170222 0.337254 0.141566 -0.081732 0.361970 0.887134 -0.348759 -0.092036 0.736499 0.481114 -0.580562 0.539312 -0.470193 -0.146012 -0.460398 -0.086380 -0.199381 0.104248 0.034077 -0.069261 -0.040776 -0.931118 -0.353450 -0.024221 0.880552 -0.774444 0.079667 -0.464219 0.200480 0.476536 0.339314 0.726536 -0.278061 0.094592 -1.200266
kon -0.513672 -0.274971 0.499189 3.650706 0.922854 0.310779 -1.236397 0.154326 -0.185673 1.322291 -0.817177 -1.306015 0.857008 -0.771200 0.297523 0.569689 1.428376 0.484913 -0.529142 0.359240 0.641559 -0.147711 0.322607 0.949384 0.126656 -0.507108 0.824800 -0.468444 0.360369 0.434413 0.122775 0.108685 -0.048052 -0.001614 0.762086 0.271678 -0.291965 -0.909332 0.282162 -0.588506 -0.913903 0.336045 -0.654308 0.505926 0.646495 -0.619754 -0.114565 0.495460 0.441317 -0.705454
krijgen -0.217067 -0.568355 1.228467 3.255701 0.033408 -0.611734 0.086379 0.160730 0.064001 1.220679 -0.430894 -0.825632 0.782502 -0.340459 -0.612015 0.592550 0.365870 0.154207 0.386937 -0.071995 0.300575 0.221597 -0.227520 0.608956 -0.182247 -0.242570 -0.120999 1.101678 -0.286081 -0.238489 1.016716 -0.089476 -0.013551 -0.403323 0.227082 0.023313 -0.789175 -0.202583 -0.305669 -0.277314 -0.483985 0.312372 0.263952 0.650677 0.524144 -0.235015 -0.667241 0.527320 -0.093271 -2.604529
jaren -0.704322 -0.783157 -0.001518 3.883595 0.761640 -0.104959 -0.915111 -0.150277 0.116343 0.309264 0.607918 -0.866854 -0.128364 -0.357258 -0.815077 -0.127086 0.555050 0.300230 0.034012 -0.144332 -0.731663 -0.843694 0.136768 0.520686 0.491492 -0.880856 0.595441 0.354548 -1.326979 -0.762460 -0.749590 -0.196776 -0.137715 0.686925 -0.269074 -0.377333 0.595122 0.095245 -0.531698 -0.707017 -1.238570 0.208166 -0.250647 1.233229 -0.215910 0.510918 0.487224 0.079467 0.431547 -1.652820
mag 0.009765 -0.471074 0.604020 2.916225 -0.756302 -0.384283 -0.105998 0.134882 0.833737 0.811027 -0.955027 -1.251979 -0.242887 -0.291795 -0.638031 0.233461 0.821914 0.219735 -0.102829 0.421095 1.007141 0.081746 0.131912 0.280432 -0.363478 -0.592672 0.970980 0.319037 0.045004 0.011582 0.337519 -0.229481 0.118429 -0.046976 0.586205 -0.140942 -0.189245 0.085253 -0.020663 0.076240 -0.546241 -0.108379 -1.659346 0.836034 0.811876 -0.006252 -0.248933 -0.151771 0.067916 -1.938858
willen 0.654737 0.081228 0.288938 3.277574 -0.165024 -0.737068 -0.505590 0.384161 -0.183070 1.037630 -0.145190 -1.286816 0.080832 0.489547 -1.273676 -0.020887 1.025691 0.508800 0.200439 -1.176303 0.554342 0.645339 0.239928 0.819423 -0.546250 -0.637123 1.758580 0.991217 -0.281256 0.181364 0.935859 0.397880 -0.167757 0.911832 0.033415 0.342216 -0.311750 -0.410964 -0.195753 0.488903 -0.183920 -0.068257 -0.966529 1.027365 0.680041 -1.025449 -1.112363 0.118647 0.283525 -1.791304
vanaf -0.738066 0.088173 -0.269532 3.324794 0.141272 -0.442122 -0.829705 0.459289 0.656732 0.989227 -0.715215 -1.667107 0.692143 -0.728627 -0.996939 0.179365 -0.574190 0.154842 0.884944 0.317083 -0.254030 -0.381738 1.087924 0.526801 -0.579512 -0.096262 0.429292 -0.004643 0.075623 -0.886005 0.212169 0.297602 0.242127 -0.023344 0.558929 -0.229403 -0.152904 0.318110 -0.495536 0.069623 -0.317576 0.668180 -1.426858 0.811215 -0.570555 0.657081 0.586091 0.334251 -0.399078 -1.723872
jullie -0.334212 0.126403 0.021548 3.523356 -0.201096 -0.951167 -0.809297 -0.357499 -0.211620 1.414338 -0.113190 -1.171408 -0.359900 0.548936 -2.027487 -0.377969 0.930430 0.123461 0.645031 -0.189492 0.955849 1.449156 -0.490937 0.035009 0.005939 -0.183415 0.316404 0.586568 -0.142138 0.030231 0.478578 0.539954 0.856219 0.075022 0.102167 0.450558 -0.764640 -0.059282 -0.241827 0.797112 -1.172448 0.012658 -0.417201 1.295977 1.741392 -0.895513 0.116318 0.780491 -0.645171 -1.050585
la 1.783656 -0.586125 -1.161223 2.523302 1.972234 -0.657988 1.228368 -0.833828 -0.993837 0.025288 -1.054440 -0.779537 -0.373686 -0.695590 -0.200032 2.263733 0.484075 -0.326250 -0.041955 0.008992 0.272686 0.293141 0.521574 0.387179 0.689951 -0.804007 -0.044638 -0.617299 0.620813 0.143631 -0.145308 0.062049 0.291513 1.109857 1.031350 0.125214 -0.954322 -0.967164 -2.331311 1.385559 -1.214665 1.175161 0.460552 -1.175982 -0.457640 4.019650 0.458282 0.293088 -0.300708 -1.045748
nemen 0.074322 -0.252858 0.581644 3.215354 0.439784 -0.628086 0.021699 0.981957 0.068956 0.909441 -0.896463 -1.291306 0.561053 0.096932 -0.901867 -0.089047 0.382866 0.366905 -0.272348 0.261267 0.885766 0.434338 0.584174 0.568648 0.140478 -0.211150 0.697427 0.594695 0.031556 0.235222 0.456969 0.220613 -0.188190 0.087739 0.382175 0.525727 -0.412828 -0.688271 -0.208561 0.083942 -0.284048 0.500722 -0.891594 0.719881 -0.182602 -0.454817 -0.696198 0.427774 0.451697 -2.017245
minder -1.013193 -0.896329 1.270732 3.296327 -0.075617 0.223430 -0.764306 -0.400039 0.702051 0.102176 0.145235 -1.711989 0.397009 -0.707714 -1.078713 0.152894 0.328349 0.010198 -0.147761 0.327841 1.062854 -0.486896 -0.718628 0.812476 0.043527 -1.390049 0.130172 0.339675 -0.337878 -1.141936 0.404638 -0.360992 -0.605905 0.440161 -0.849138 -0.061991 0.175917 0.122431 0.000829 -0.105802 -0.246584 0.324297 -0.465880 -0.264934 0.454060 0.318624 -1.269073 -0.034155 0.220172 -1.955474
manier -0.784942 -0.075440 0.512469 3.120948 0.067820 -0.595921 -0.129761 -0.351384 0.382779 1.170451 -0.686156 -1.712992 -0.137437 0.249795 -0.746354 0.446568 1.419483 -0.162997 -0.508370 -0.970351 0.228270 0.419545 -0.314791 0.415732 0.079634 -0.664558 0.220684 0.359823 -0.534547 0.175494 -0.155496 0.692490 -0.008077 0.980745 -0.658903 0.436849 -0.242140 0.515510 0.052083 -0.151517 0.146577 0.137180 0.080378 -0.692013 0.456776 -0.659987 -1.006990 -0.062768 1.161730 -2.792559
snel -1.136391 -0.776625 0.661602 3.666741 1.067558 0.045268 -1.093871 -0.302417 0.557061 1.190978 -0.629949 -1.160647 0.133669 -0.774983 -0.480061 -0.616320 0.352167 0.678432 -0.039219 -0.314077 0.609530 -0.292133 0.282251 0.616585 -0.272083 -0.277247 0.107260 -0.515323 -0.239349 0.227223 0.062500 0.287041 0.095886 -0.535368 0.245658 0.438788 0.134175 -0.050138 0.172081 0.495301 -0.957774 0.811553 0.019061 -0.436728 0.642943 -0.682668 -1.086083 0.291011 0.240159 -1.639590
nodig -0.421782 -0.850622 1.265691 2.755736 0.258758 -0.646090 0.006726 0.662486 0.630192 1.034335 -0.519961 -1.994458 -0.117406 0.498990 -0.513406 0.340638 0.098899 0.079077 -0.580517 -0.292539 0.703199 0.834221 -0.107250 0.035071 -0.674055 -0.027030 0.124399 0.037324 -0.837854 -0.171168 -0.296696 -1.025395 -0.282564 -0.033369 0.808359 -0.141814 -0.467088 -0.070382 0.092875 0.442549 -0.734504 0.078266 -0.320428 0.578486 0.292480 -0.707486 -1.245695 0.168573 0.267258 -2.504986
gebruik -0.304491 -0.444030 1.252954 3.028830 0.096216 -0.364886 -0.248950 0.380534 0.548011 0.952931 -0.302242 -1.946535 0.312227 0.595425 -0.985947 -0.065057 -0.233794 -0.530969 0.343561 0.234161 0.308788 0.408295 -0.096311 -0.628155 -0.823285 -0.312039 -0.280487 -0.535995 -0.544818 -0.457403 -0.787800 0.657401 -0.033762 -0.455709 0.320160 -0.693234 0.337565 -0.185746 0.324126 -0.359152 -0.476880 -0.286724 -0.793884 -0.369600 -0.539922 -0.372289 -1.334946 -0.888361 0.363965 -2.835448
beter -0.513302 -0.683728 0.481452 2.801331 0.210467 0.053379 -0.857824 -0.806675 -0.030351 1.343695 0.066190 -1.441228 -0.032833 0.031008 -1.126333 0.434497 0.842117 0.708811 -0.619475 -0.134868 0.622358 -0.257210 -0.214476 0.455096 -0.633474 -0.958964 0.989817 0.093384 -0.497344 -0.603958 0.220872 -0.184093 -0.088122 0.289916 -0.159966 0.563495 0.306092 -0.376835 -0.270745 0.303903 -0.815828 0.334391 -0.668005 -0.250498 0.785211 -0.634002 -1.232389 0.194399 -0.149743 -2.471981
vinden -0.381415 -0.593289 0.238868 3.391580 -0.201762 -0.310343 -0.065052 -0.250617 -0.486523 0.901433 -0.238662 -0.819147 -0.346831 -0.020024 -1.402555 -0.201553 0.272606 0.165298 0.233616 0.069337 0.289755 1.234656 -0.133246 0.382783 -0.392926 -1.065691 -0.006421 0.607932 -0.409281 -0.373165 0.400894 0.808349 -0.799350 0.159078 -0.110971 0.376416 -0.804151 -0.667993 -0.230163 0.255991 -0.379809 0.150226 -1.127862 0.280979 0.536893 -0.703107 -0.384138 -0.014833 -0.118990 -1.554984
week -1.405045 0.065912 -0.172774 3.563682 0.122037 0.013909 -0.095978 0.194874 0.837264 0.821172 -0.268916 -1.444468 1.109079 -0.667423 -0.782507 -0.218400 -0.143139 0.301271 -0.017997 0.681937 -0.239006 0.587318 0.591834 1.285405 0.579172 -0.335955 0.495721 0.016590 -0.258130 -0.598578 0.217894 -0.267970 0.664798 -0.537176 0.369013 0.681662 0.058487 -0.673114 -0.784607 0.451561 -1.734686 0.229646 -0.639003 1.330569 0.722199 0.040813 0.412793 0.411247 -0.431554 -1.164412
m -0.788240 -0.627442 1.142962 4.228396 0.097605 -0.170256 -0.683441 0.160622 -0.419513 0.090812 -0.040327 -1.647261 0.192693 -0.367311 0.044505 0.555676 -0.042961 0.138333 -0.064911 0.992924 0.150004 -0.478484 -0.127306 -0.024364 0.073571 0.312439 0.058066 -0.843858 -0.219170 -0.762537 -0.027836 -0.599063 0.841385 0.589811 1.571720 1.279716 -0.685724 0.047614 -0.430869 1.033795 -0.227273 0.543247 -0.764515 0.122392 -0.646896 0.373851 0.719676 -0.856264 -1.662537 -0.342775
elkaar -0.235780 0.704260 0.776781 3.786599 0.765784 0.121017 -0.824481 0.024916 -0.555088 0.588777 -0.304585 -0.586565 -0.539526 0.157707 -0.586438 0.251806 1.047103 1.546201 0.905655 0.208942 0.888626 0.265093 -0.343536 1.114704 0.788292 -0.257749 0.947623 0.451743 -0.326814 0.296456 0.280954 0.196223 0.695087 0.918838 -0.101860 0.172453 0.792660 0.429020 1.054845 0.252344 -0.009168 -0.691397 -0.408115 0.060919 0.346738 -1.433710 -0.066024 0.150372 0.116046 -2.112116
